{
  "lossFunction": "BINARY_CROSS_ENTROPY",
  "optimizer": {
    "type": "Adam",
    "data": {
      "learningRate": 0.001,
      "beta1": 0.9,
      "beta2": 0.999,
      "epsilon": 1.0E-8
    }
  },
  "layers": [
    {
      "type": "DenseLayer",
      "activation": "LINEAR",
      "biases": [
        -0.5499895900054479,
        -0.8732687432525577
      ]
    },
    {
      "type": "DenseLayer",
      "activation": "RELU",
      "biases": [
        -0.22283817221214797,
        -0.3974414719608299,
        -0.8610260931040508,
        0.9334792877430524,
        -0.8283734133199978,
        -0.5771551811578599,
        -0.9486055314142567,
        -0.29805593375647077,
        0.19449579447796173,
        -0.25524604975819676,
        -0.04710635010660491,
        -0.21540041174253788,
        -0.9113597336045676,
        -0.26642891696889914,
        -0.7191434930213663,
        -0.7357345118456597,
        0.917435032726517,
        -0.6339810247310871,
        0.5906140236975761,
        0.40496480376807686,
        0.47552675911834963,
        -0.999048507115395,
        0.8287604209493051,
        -0.5822139650051108,
        -0.31380900019485725,
        -0.28911710645779576,
        -0.7665285665538553,
        0.183900431985357,
        0.8173707462937441,
        0.40029258930300626,
        0.9917670477749916,
        -0.7649115936948911,
        0.9598174554232162,
        0.4260986380989278,
        0.1762410774621721,
        0.5128324717127872,
        0.38458259833644304,
        0.6876458690893652,
        -0.06114255600255469,
        0.21023678976857219,
        -0.36656355533503904,
        -0.03199145220411026,
        -0.5430087168188173,
        0.3467365008414567,
        -0.5053808318257849,
        0.6853592870154386,
        0.7069712586743462,
        0.633763801647244,
        0.3776567755941569,
        -0.8473896631200344,
        -0.21704187331612346,
        -0.33976001914996146,
        -0.9751969156539675,
        -0.05451426670812198,
        -0.8159290249025439,
        0.45996644393931674,
        0.9829972192310277,
        0.04363587954060266,
        -0.739746756595425,
        0.11869043554120906,
        0.8090531476143674,
        0.03636024941723681,
        0.8374460498599381,
        0.23682457908265286,
        0.5921274121145084,
        0.8739550678825276,
        0.9352169403733137,
        0.7845021591961319,
        -0.9486617363129413,
        -0.6023414127040083,
        -0.5549316369985278,
        0.1688537317445573,
        0.20273801860220186,
        0.1956171880213753,
        0.6552295324627817,
        -0.8209067772904601,
        0.38866791833897585,
        -0.7907500376150587,
        -0.4121875134270505,
        -0.11679501163649264,
        -0.6761458088963297,
        -0.046156988486397266,
        -0.7432070317054569,
        0.520726461067162,
        0.736430748360505,
        0.21915605441522357,
        -0.8396479189587536,
        -0.030675495661861563,
        -0.8315970831761044,
        -0.3197209217520649,
        -0.41130422741612804,
        0.4585656891873846,
        -0.45110547245252763,
        0.9759288531295782,
        0.6585457629630875,
        0.8624851362093708,
        -0.7351514872700298,
        0.5008274723178314,
        -0.6219269125444289,
        -0.8767393642262002,
        0.6276798811187454,
        0.4107605201691802,
        0.5011252583657786,
        -0.8584975147864387,
        0.8707075874747492,
        0.15336299913589024,
        -0.5528249667747971,
        0.8143724829504613,
        -0.8889800996132786,
        0.21463627012542563,
        0.14349681597918984,
        -0.1890517579184079,
        -0.9292434452012033,
        0.710650931199236,
        -0.7113444562928672,
        0.14495289037889236,
        0.7766184926075805,
        0.9558446786873758,
        -0.75852968101666,
        -0.3618272530672466,
        -0.057255865268557304,
        -0.7962228139366796,
        0.5071939875729807,
        -0.03641135505159321,
        0.29091998056322277,
        0.38315616758049864,
        -0.3772730050898425,
        -0.8845498839256738
      ]
    },
    {
      "type": "DenseLayer",
      "activation": "RELU",
      "biases": [
        -0.3265793096840979,
        -0.15857348627100748,
        -0.8647396504219683,
        0.8742243832725772,
        -0.46240390336490383,
        0.8599827885902922,
        -0.6761599505651289,
        -0.882442493170984,
        -0.9923016588034421,
        -0.9798381891167198,
        0.3308516695590138,
        0.6740760413864634,
        -0.34189569686496535,
        -0.6251587311012897,
        0.4506548776053889,
        0.825102189677843,
        0.9137567750802484,
        0.8214954222583503,
        -0.5350340834699479,
        0.5299576508572393,
        0.9370120422931536,
        0.0733772435871789,
        -0.8801430531132659,
        -0.01609394729201149,
        -0.15311974132308998,
        -0.8097335099739773,
        0.10670021168051114,
        -0.7867123439156037,
        -0.8349222517782096,
        -0.24258751343427853,
        0.23951530982570857,
        -0.9292374011782314,
        -0.5050801979686295,
        -0.5095622417575643,
        -0.08627722243187652,
        -0.7858234384404152,
        -0.3872464933169384,
        -0.7039092443853464,
        0.3864492275350188,
        -0.5641118818646755,
        0.3880672683690738,
        0.6331407981582347,
        -0.06406031158534176,
        -0.9451546716392668,
        0.24700322345401526,
        0.3946760231966721,
        0.5381352009621939,
        -0.007651762824802777,
        -0.7441562652339256,
        -0.5275576095444217,
        -0.6597695855042387,
        0.6226062440330938,
        0.324145802396488,
        -0.33389949372523564,
        0.9172123420679179,
        -0.4771776984898364,
        0.5141402823467082,
        -0.33586674487172563,
        0.06394730851634434,
        0.8429846647555606,
        0.9916918847448986,
        0.45086114878022143,
        0.7060074620579351,
        0.17395726949919207,
        0.7650109223115015,
        -0.31717092973727,
        0.4050763276273568,
        -0.4870708220380384,
        -0.9680737139284481,
        -0.6698348058400118,
        -0.11072540510568976,
        0.20867103121040712,
        -0.30789378157386915,
        -0.8072810931148366,
        -0.9429990412257137,
        -0.38523516795273105,
        -0.6201110706291693,
        0.7780140563142267,
        0.9827037057062461,
        0.586784065517672,
        -0.7654031792351106,
        -0.5327606628678087,
        -0.4047552615157863,
        0.930955759943595,
        0.5488723192550268,
        -0.10254288150022335,
        0.905204948913605,
        0.4439654945142305,
        -0.5776989284324,
        0.053089223068229247,
        -0.07542541364859456,
        0.28012589418322836,
        -0.4040833589907997,
        -0.313971065672305,
        -0.24743175525749392,
        -0.9601149301723444,
        -0.2450985827799932,
        0.37369520108444365,
        -0.3061342145668719,
        0.19457901223030927,
        -0.23956268646876167,
        -0.2238547583882935,
        -0.2694999011183765,
        0.2452947095301651,
        -0.4919609722493419,
        -0.5323305699157646,
        -0.8133639684330907,
        0.35971855610954334,
        0.4085232700946755,
        0.09547361259975716,
        0.0047392355247289795,
        0.13872546468974023,
        0.8490959528670576,
        -0.4426032925714353,
        -0.3047028629205326,
        0.6355359805681617,
        -0.584118950159271,
        -0.6074064278261564,
        -0.2738178604832344,
        0.7829388335033438,
        -0.8545221864464444,
        -0.3567319648866364,
        -0.11353001834581122,
        0.9805960004286778,
        0.6221883462107616,
        -0.9266138791938925,
        -0.011462263811234328,
        -0.24845131732640047
      ]
    },
    {
      "type": "DenseLayer",
      "activation": "RELU",
      "biases": [
        -0.6517059296349785,
        -0.1812302968331461,
        -0.8343525481836642,
        0.09891002841680474,
        -0.5105675426208661,
        -0.7065156752611594,
        -0.022830036814799646,
        -0.5238725814427816,
        -0.16606940225145572,
        -0.4997809032512617,
        -0.45131878721430574,
        -0.8702437013788692,
        0.5986869225583794,
        0.7517888138865796,
        -0.9359990291173772,
        0.9832486467820483,
        -0.41274114274167467,
        -0.7278612220092302,
        0.048019250984941655,
        -0.799337929720279,
        -0.8869206433118138,
        0.1310501534295032,
        -0.8861367897611507,
        -0.9043437081112384,
        -0.8937886896770126,
        0.5330959516582955,
        0.08282145845155284,
        0.1650755824563248,
        0.8486804876707453,
        -0.3710449663616069,
        -0.25202090950060246,
        0.6589408500633963,
        -0.08190140723903525,
        -0.34707487512131285,
        0.9149627479379469,
        0.34284982186165586,
        0.07650273202091946,
        -0.4703514847297501,
        -0.16582319641864052,
        -0.12376984193435135,
        0.07966206669663234,
        -0.1887277547215917,
        0.6318686302614364,
        -0.4148850396841086,
        0.6945371931775207,
        -0.7464009858374803,
        0.9560477793783626,
        -0.6894372038569654,
        -0.44899888108962527,
        0.24866298793240454,
        0.6632513885840544,
        0.48613054403302297,
        0.9005852385110367,
        0.8384489989763562,
        -0.8857542406857296,
        -0.36753758594306823,
        -0.1727894266834182,
        -0.905782611045856,
        0.3656679932835775,
        -0.9446585949425246,
        0.0019688851479075556,
        -0.7081891110447046,
        -0.5648215370365037,
        -0.3223063808336198,
        0.7046118208149516,
        0.47334211504801965,
        0.6554902931078693,
        0.6810116307809342,
        0.48371027361008617,
        0.7622416274401337,
        -0.8815538261151462,
        0.8892589296618225,
        -0.43112048721137497,
        -0.8952512081364585,
        0.2215077219952275,
        -0.3066476211664102,
        0.9832030853424704,
        -0.023110869062631045,
        0.40385447947118963,
        0.7116523496654108,
        -0.9132525975335173,
        0.06355548309376823,
        0.30826384727091705,
        -0.6428475900706914,
        0.30228994435237344,
        0.8808709885067625,
        -0.19446493209592808,
        0.011756750350535583,
        -0.3164222580474727,
        -0.08517804315049227,
        0.5878871818542041,
        -0.3893670200934314,
        -0.9295977226979522,
        0.9419161664309973,
        0.37091236196472865,
        0.08855448125665766,
        -0.3100402223444947,
        -0.08360599129975166,
        -0.8759366504870137,
        0.3682470343774208,
        0.21416003467333233,
        0.044040955220339795,
        0.22598144190966238,
        -0.6486066546657814,
        0.5407477271122599,
        0.47321304688832894,
        -0.06534810714474079,
        0.7142364045591053,
        -0.14102665507379708,
        -0.5651100344223051,
        -0.8382232909417169,
        0.2306980904747259,
        0.9086735447951533,
        0.5587429193462992,
        0.16838820719109304,
        0.798412815843695,
        0.7915983889593202,
        0.6562258162672954,
        -0.4799876326912962,
        -0.6066124018081489,
        0.154501736980639,
        0.2670517589957937,
        -0.6111435310960848,
        -0.23615799955421712,
        -0.8792645549695801,
        0.9169899561795843,
        0.1369201553917032,
        0.8351017529776225
      ]
    },
    {
      "type": "DenseLayer",
      "activation": "SIGMOID",
      "biases": [
        -0.025842118235804443
      ]
    }
  ],
  "weights": [
    [
      -1.3166489830597983,
      -0.012215123625054503,
      -0.829750663342963,
      -1.2802564538869503,
      -0.2760123703716879,
      1.047517272643083,
      -0.14639958123531716,
      -0.6011943086565794,
      0.1835870023059356,
      0.4386791843682494,
      1.1916531865084659,
      1.5389694207820395,
      -1.655221865095403,
      -0.6873895820277165,
      1.5779786145197494,
      1.2613583136297006,
      1.1686738229672005,
      0.00742078402452595,
      -0.8276770845645588,
      -0.025809304891644125,
      0.8421201877735489,
      -0.7557824630713157,
      -1.4664660746506626,
      -0.7361259260847376,
      -1.637194874309435,
      -0.9095313852747398,
      -1.4581831845918867,
      1.057234842790746,
      0.0537285768263116,
      0.7332874788100134,
      -1.1716244667835913,
      1.1572878716562764,
      0.6952474407609348,
      0.47896876400822586,
      1.6909836816736978,
      0.9290970085546133,
      -1.4237825937277264,
      -0.47693481348711697,
      -0.04506424061418657,
      -0.032218300344629025,
      0.8418369888569048,
      0.0946015777144451,
      0.7273284606521881,
      0.6482902413445271,
      0.6853623867988217,
      1.419914683171142,
      1.4657169313682898,
      0.656775183850294,
      -0.3753173633391176,
      1.404329999036874,
      0.14229491848555464,
      0.5669692505237853,
      0.0177857291196708,
      -0.9732347894506952,
      0.0987045044965249,
      -1.0583185670247919,
      0.4699293544293972,
      -1.032017916699918,
      -1.0688202580021295,
      -1.3803967045600427,
      -1.573615235250342,
      -1.0857081469881011,
      1.2492196120780925,
      0.40904447946628886,
      -0.623391340535298,
      -1.3178208250522259,
      1.1364825060231813,
      1.4144899208565185,
      -1.2428949931091084,
      0.9494777540406811,
      -1.587423450441757,
      -0.8232790804582678,
      0.17973219383173156,
      1.1219834747853834,
      -0.05613735502247508,
      -1.005300480187075,
      -1.7008758554963104,
      -1.3558893402318406,
      1.2596891128047385,
      -0.9594293823056192,
      -0.8457331129043787,
      -0.04468008730695949,
      -0.8946430373101897,
      0.493334061188605,
      0.13423356933947983,
      0.9697563859244289,
      -0.11588891962513115,
      1.5584701383265809,
      1.6521134801377502,
      -0.22616840564101115,
      1.2305697177687238,
      0.14330187874816525,
      1.5875016853454167,
      0.741544991877676,
      -0.423769095676529,
      0.7058442257827664,
      -0.7697302266274041,
      -0.33987482759439636,
      0.7397278664177904,
      0.31135530370894915,
      -0.4783338755771509,
      -0.8634860648987812,
      1.538749188237648,
      0.3542228032330217,
      -0.5928364379066482,
      0.5286393352818333,
      -0.646095546297635,
      0.8537625666464341,
      1.1222034918595216,
      -0.6755126698078584,
      -0.1867199080374209,
      -1.0557776952001448,
      0.13227036018051042,
      1.6126532735546706,
      0.5099144439190859,
      0.05697189170650829,
      -1.4908650420353358,
      0.8349496323184538,
      -0.2639854036798075,
      0.9057307814635733,
      -0.6260508360023991,
      0.8333972244166536,
      -1.1568641812581193,
      1.3311282894332737,
      1.477615503499636,
      -0.563414458677536,
      -1.711522535711838,
      0.9287454477533361,
      -0.5394062437706242,
      0.7968481128918097,
      -0.93195443217863,
      -0.09428030666317944,
      -1.6312242697192154,
      1.6362846448202395,
      -0.7887033697311491,
      -1.0944079493321137,
      1.3172382045314233,
      -1.2188927875291682,
      -1.0066632905566162,
      0.8528878154223463,
      -0.005360194070258784,
      1.4166047337022085,
      1.5149659172989567,
      0.30822796558080534,
      -1.5378135839483669,
      -1.1669913072071152,
      0.4462685331637697,
      -0.6135890233202488,
      0.24552250177455837,
      -0.6674236779663991,
      1.3465552701174233,
      -0.8004196836694358,
      -1.185228782353452,
      -1.6439067300483934,
      -1.5684255749008718,
      0.7426569432891721,
      -0.3565235189646594,
      -0.5375132191745007,
      -0.46007682609127576,
      0.8336194192914534,
      -0.6916769286889246,
      -0.5670467907340915,
      0.17522322118844436,
      -1.5328447190155732,
      -0.051625497960016364,
      0.24764562781531363,
      1.1148117799110107,
      -0.36327026854213584,
      -1.4828710299661305,
      -1.003867457768546,
      -1.6024042580479725,
      0.5374456729357686,
      0.03279588354049667,
      -0.4137397301096044,
      0.7844294667976233,
      -1.0300564043222427,
      -1.7277741722949547,
      -0.5696658839710447,
      0.6958479125160555,
      -0.3708104624234214,
      -0.14080276855683072,
      0.7715592631452253,
      1.3586791851695017,
      0.58895440300023,
      1.532520890067128,
      -1.0837280977940271,
      -0.4571483367535245,
      -0.5271381872978977,
      -0.525733853961531,
      -0.19787631592612787,
      -1.5191394796983189,
      -0.02799856708090087,
      0.7873551923223554,
      1.3668669750496265,
      0.3709421538326134,
      -1.195836431693626,
      1.585989465090288,
      1.276342741895476,
      1.101662331540061,
      0.3030334656872775,
      0.6300682330456688,
      0.06997417013343488,
      0.9081184897262522,
      1.554201428405163,
      -0.5578178931223179,
      0.09768318457676428,
      -1.3883846075670185,
      -0.12614594777960697,
      1.2286985238781527,
      0.86910095366201,
      -0.6022438811678597,
      1.547946759052573,
      -1.58682405422545,
      -1.280650382673441,
      1.1934972750978947,
      -1.3983780106154844,
      -1.5422646396030764,
      -0.8408647902284212,
      -0.6523371713730235,
      1.6967655583815666,
      -0.6961593984590473,
      -1.1129242934483594,
      0.22997899704965352,
      0.9420695328660964,
      -1.5688626614722543,
      -0.9547951734787833,
      0.10494686835463596,
      0.36507636375896113,
      0.45789005151857487,
      1.2355570227225667,
      1.3087687424778751,
      0.2730344306049066,
      0.009536889716291075,
      1.0660413116670509,
      1.5243061683356645,
      -0.299226369013756,
      0.37321994258332425,
      -1.5373633457407014,
      -0.8227980738821707,
      -0.029045892413394947,
      0.17952262185374912,
      0.06459910821472103,
      -0.09814922042081675,
      1.518438754063608,
      0.7335552109453312,
      0.632907362211925,
      0.42316082343738093,
      -0.902758797083324,
      -1.6054208914797474,
      1.0136895835298636,
      1.7100186855031227,
      -1.2403943076231339,
      0.2354055049674828,
      0.39255447362680473,
      -0.3926591540533966,
      -0.35075898293251084
    ],
    [
      0.13525009373235006,
      -0.11042654467849877,
      -0.07540863582168666,
      -0.10835177658871842,
      0.20403361307896015,
      0.18969911645963647,
      -0.12058881961971706,
      -0.041780639128440156,
      0.08416359654504849,
      -0.05745596425829699,
      -0.016221891515411452,
      0.07821588232628171,
      -0.017697308993922245,
      -0.05940438412478016,
      0.051361717055476847,
      -0.03787901342850658,
      0.1720714102329932,
      0.07314455283251323,
      -0.037095010419685936,
      -0.15176450435311173,
      -0.04562578149063054,
      0.17427286147046586,
      0.17525846770308487,
      -0.11835996480482709,
      -0.18772833146930792,
      0.00736401012345228,
      -0.07374444139962835,
      -0.10420661858307545,
      0.12197616013157173,
      -0.11078161359216146,
      -0.02018749580415885,
      0.08518831741746816,
      -0.10988812486516927,
      -0.13875514460786198,
      0.13243145745449356,
      -0.1524745038347337,
      -0.09204549292602024,
      -0.039639930051048045,
      -0.15811964093890624,
      -0.08073862909437768,
      -0.049237785772282966,
      0.14066535504871683,
      0.02136565767793433,
      -0.21380323608959748,
      -0.13298718204894566,
      0.038105949663012256,
      -0.0909815703813523,
      0.18252344422412195,
      -0.11667212678944983,
      -0.00802836495950332,
      0.12842654711062315,
      0.015404091094589512,
      -0.11033269788080946,
      -0.089894637651207,
      0.1134610012002292,
      0.10712740587317635,
      0.08140895198337636,
      -0.1244182656749774,
      -0.14974708462817585,
      0.06843649637658253,
      0.05800825821552805,
      -0.13936252217355777,
      0.11846650708295806,
      -0.13627835410577233,
      -0.20236528780185498,
      -0.2125071398955738,
      0.1166830684575593,
      -0.1953703279189182,
      0.027807096096671674,
      -0.1330610652850552,
      0.07828047901922916,
      -0.20373506602762903,
      0.013142954452716987,
      -0.14966666918508925,
      0.21281037349909174,
      -0.08435975664794293,
      -0.1520357448907529,
      0.17811161122661331,
      0.17012795770515707,
      -0.17462098487092667,
      -0.06928007113834478,
      -0.1884510399857973,
      0.18709809535701152,
      0.1383438106662139,
      0.040394660266633214,
      -0.13167298215666337,
      -0.0040097900433580524,
      -0.03085441985924925,
      0.12426850114637936,
      0.15674486372074573,
      0.0381430329971493,
      0.0745042829270546,
      0.17073793735828743,
      0.02358904837019743,
      -0.07380074233858841,
      0.0074188278265931995,
      -0.0622244091921364,
      -0.13977205421584796,
      -0.028688547743623255,
      -0.16861324213726014,
      0.01167417051502806,
      0.14303646540348705,
      0.06994624323041596,
      -0.1119208424516873,
      -0.21512343432352685,
      0.1924678360627928,
      0.06254609122512025,
      -0.0291971457161464,
      0.14766271448069765,
      -0.17329425026927728,
      0.02726878488300752,
      -0.016168987811307517,
      0.05580846772376594,
      -0.1362640275269722,
      -0.06004009895517831,
      -0.07068224664434242,
      -0.15579954847874145,
      0.176407162018459,
      0.0872596021429802,
      -0.016612174931184526,
      0.1381400538399841,
      -0.1995993031073888,
      0.06811072062242304,
      -0.19023332451338015,
      0.07224111962846932,
      -0.12236721071119885,
      -0.11764810990140252,
      0.07228045126056412,
      -0.1331181965236642,
      0.032397165372159746,
      -0.17917981391516496,
      0.1575212549160096,
      0.18433973063360132,
      0.08913452353693552,
      0.1403162597217557,
      -0.06046306935376991,
      0.19866691041909937,
      0.17976246484519118,
      -0.14000338459858336,
      0.08305568615190971,
      -0.07157516694225007,
      -0.08156478365136897,
      -0.11750873167343678,
      -0.08275338529854122,
      0.015520726902879789,
      -0.06856388797829424,
      0.06816597619544149,
      -0.15800579094364478,
      -0.03858019600254073,
      -0.2024202205297907,
      0.0859852770549152,
      -0.0074411754508134096,
      -0.08977112940869315,
      0.02218649800686634,
      -0.14693433876468492,
      0.06873457543104806,
      0.1544270894361639,
      0.06027021812360381,
      -0.1748990896869156,
      -0.056452000809286196,
      0.15057289547406819,
      0.03715509618573795,
      -0.15158644100084387,
      -0.01416304191595262,
      -0.07537283548548733,
      0.007625395464870446,
      -0.07680819302470182,
      0.007903169669766286,
      -0.0298562767239422,
      0.08222141896814048,
      -0.2161129464901341,
      0.0853636111454999,
      0.1810382143769453,
      -0.1646833781983101,
      -0.15539711315087845,
      -0.13028797300583406,
      -0.1598198780176238,
      -0.16563943199772696,
      -0.007976233191530124,
      -0.09420198878805977,
      -0.031700147919735605,
      -0.19090187092006256,
      0.15496878653497198,
      0.07394428342708534,
      -0.013373542341071215,
      -0.07323536637469369,
      0.11056677824021809,
      -0.07626126491609328,
      -0.15557513490217495,
      -0.16022486983480017,
      0.10704332820624082,
      0.13657947347414798,
      0.10455460853658928,
      0.15872420921211663,
      -0.16831527407989605,
      -0.17786257767219388,
      -0.037652955872036376,
      -0.15519225955479887,
      -7.20602908063962E-5,
      0.13559072786840307,
      -0.1358628199240824,
      0.1368072616745018,
      0.10744276535520828,
      -0.05647289495730046,
      0.1638824534857704,
      0.14677037974741783,
      0.055356033480455064,
      0.20984795258952962,
      -0.09217604176663644,
      0.08945991936881993,
      0.169565949984805,
      0.033094035255830746,
      0.08055790999347634,
      -0.0540936288767243,
      0.15596143765062284,
      -0.1403835644705787,
      -0.027443121164858603,
      0.03323944323395894,
      -0.004559641864706504,
      0.19578346403807215,
      0.022695930477879322,
      -0.1735763003242921,
      -0.19088473992852836,
      0.024375472073503185,
      -0.006946430418209026,
      0.08582329217713511,
      -0.12422181119076182,
      0.10535237352061075,
      0.09098732060970785,
      -0.04655293725275228,
      0.09341430716322272,
      0.16306731144762376,
      0.14100238158679815,
      0.1750849951630001,
      -0.06450724291769369,
      -0.19777913139669553,
      0.14217119796283986,
      -0.17729067554035158,
      -0.15416047005093092,
      7.946005933026079E-4,
      -0.10355487731296069,
      0.13960203777183885,
      0.1663373017617564,
      -0.14608265152616381,
      -0.07130116451672353,
      -0.06435836505703424,
      -0.029458967113814433,
      0.09342890092067743,
      -0.18346613898106923,
      -0.15107755678228188,
      -0.17702012220694455,
      -0.1122374641615178,
      -0.14523917249261964,
      0.21839843017839117,
      -0.17814920406906215,
      0.11182084454905192,
      -0.17669766659366246,
      -0.14496795866619527,
      0.1597451204764819,
      -0.1418582861551295,
      -0.02324073320017994,
      -0.055212798900708654,
      0.047391801283561436,
      -0.04670212574005328,
      -0.15675213295541385,
      0.010892417263783538,
      -0.142465973668421,
      -0.08025530272922268,
      0.1569564998792142,
      0.005976692183403576,
      0.019257128228809844,
      -0.10575530686633289,
      -0.13609182341574666,
      0.08115271500716456,
      -0.11819872932858823,
      0.20702558095589166,
      0.05942195753692944,
      0.15550208405064422,
      0.12270412184047055,
      -0.033581083425562125,
      0.20769288607031675,
      -0.13216000895206814,
      -0.1446294423109406,
      0.12000638404004718,
      -0.04928442047387688,
      -0.20861345133871723,
      0.07065604178842569,
      0.032921692458036445,
      0.044463265813521585,
      -0.10267802406056513,
      0.19660370125697188,
      -0.17222980373774646,
      -0.08810222760610545,
      -0.20452239891707336,
      0.061286459836393054,
      -0.002814617192574115,
      0.08753158953531917,
      -0.02018527059604322,
      0.13298108964279318,
      0.040537951144097334,
      -0.060151372360691985,
      0.18433908486712616,
      0.03673590819814368,
      0.11960661490464583,
      -0.11916605448153154,
      -0.02901914215305315,
      -0.005062440000639823,
      0.07699545106243985,
      0.06003104421001351,
      0.11192750392376863,
      -0.11262135158887585,
      -0.2073449046407541,
      0.11186768993296461,
      -0.18552591228307755,
      -0.1514314766167688,
      -0.006956109259310311,
      0.11409772342284599,
      -0.04488871545792841,
      0.07559702220471506,
      0.16174529773002636,
      0.14164102189707814,
      -0.050346859718609,
      0.057467936134066006,
      0.08903159947055364,
      -0.1399788017583804,
      0.1251921636338786,
      0.09621014567906858,
      0.06594098003693402,
      0.1036941298436019,
      -0.1871600362091314,
      -0.05406653173831272,
      -0.11896789493110131,
      0.13067871328773176,
      0.017095281967695913,
      0.09318566120918895,
      -0.004447314950347642,
      0.1450092781940602,
      0.06297873202933343,
      -0.06270581207045384,
      0.02902499567065908,
      -0.15710052901655527,
      0.1831348234269001,
      -0.197813771908271,
      -0.13990964766770062,
      -0.11781503870502405,
      -0.018613734821515793,
      0.09200089043032397,
      -0.002228579308681089,
      0.21171744690839525,
      0.10119790339233678,
      -0.0779269587994513,
      -0.149027704543614,
      -0.044535231805162806,
      -0.2099289113033447,
      0.2027279204270316,
      -0.07711327602490858,
      -0.07998680528034802,
      0.03691233706646094,
      -0.1315883084085825,
      -0.0647614856706771,
      -0.12276437777714319,
      -0.012169151343325108,
      -0.21621449757506025,
      0.10742137752731798,
      0.17601027200852967,
      0.019160001737019372,
      -0.1733147309857265,
      0.11996000515042196,
      -0.09674257906655852,
      -0.12911709033478824,
      -0.13550389724166825,
      -0.09024446406602896,
      0.16121440776467963,
      -0.11813192348750401,
      -0.024271782850067897,
      -0.16182535781834573,
      0.040707163087696424,
      0.11111264673565882,
      -0.05581216595299074,
      0.05692966333344737,
      -0.14729613827769478,
      0.1031367689876991,
      -0.1805602011951,
      0.11158568917015385,
      -0.19232117975227658,
      0.06469512684418359,
      0.02919325878138354,
      -0.04707072507976034,
      0.015700766591929784,
      -0.20392124909378462,
      -0.19042697804909361,
      0.12915667076848622,
      -0.13104304308902348,
      -0.20204129266864174,
      0.04067789488025249,
      -0.0735985587110534,
      -0.18660003553411827,
      0.14865535687375844,
      0.16935828862794763,
      -0.07412485758463612,
      -0.12995251672651223,
      -0.08044081873827154,
      0.13908253432134696,
      0.21825423153366785,
      0.22332231878748784,
      0.10396851673885218,
      -0.19953894512276674,
      0.03902189164383344,
      0.20341599196278978,
      0.10472539178838244,
      -0.0703209992606717,
      -0.18350148226912666,
      -0.09214475786276753,
      -0.16091536110243587,
      -0.15965015290722406,
      -0.09437758195709539,
      -0.13103903042062653,
      -0.12616639386489667,
      -0.007914839013432682,
      0.13056706906311213,
      -0.21941770041536612,
      -0.15410964592088208,
      0.008848618033715424,
      0.1885509798330607,
      -0.06797406608623628,
      -0.13558881338770926,
      0.09512129695436787,
      -0.1923609881221363,
      0.13192949532122863,
      -0.03980859193220169,
      0.1268602991367377,
      -0.05235270802822216,
      -0.1681867012485117,
      -0.20246610957782937,
      0.05557209291248624,
      -0.011087295815686765,
      0.08133261684266427,
      -0.07143705721700697,
      -0.041757603774022926,
      0.09375848418055424,
      0.15257125386164042,
      -0.02510528393326461,
      0.15018605935072743,
      -0.12152220508358857,
      -0.19288459772982627,
      0.1876101718069984,
      -0.17041583299816615,
      -0.07537730918283313,
      0.06360378371317658,
      -0.17657633368767175,
      0.0746526474621595,
      -0.10474867830425623,
      0.10713933965655206,
      0.05134790843548201,
      -0.1548321837187403,
      0.08260179488393597,
      -0.09484847793592173,
      -0.07908338950929096,
      0.20875215212380985,
      0.19431692640820122,
      0.16614986994540695,
      0.13908627379063143,
      0.07949810307208738,
      0.032858488122531664,
      0.08035284200197304,
      0.010575906066654695,
      0.12217731415638751,
      -0.1015644849799645,
      -0.13603291497185327,
      -0.01932367074541565,
      0.07174668029577803,
      0.13026449674671187,
      0.09874948054800821,
      -0.09279576909703054,
      0.14952512580384733,
      0.15541026088976914,
      0.14145568609125217,
      -0.0734670456235888,
      0.15148448279910862,
      -0.11622976351940821,
      0.10886695123142995,
      -0.1532591274991621,
      0.044917499144108836,
      0.14962581566790703,
      0.1930122506693018,
      -0.09874132335787195,
      0.21379173970261797,
      -0.04207908568377664,
      0.07498193755091861,
      -0.15222455934795143,
      0.022032945935497705,
      -0.09553214313908795,
      -0.02404593845731029,
      0.18932948351239667,
      0.1395895899533808,
      -0.11666706997068117,
      0.07978023585494522,
      -0.2119499167848558,
      0.214878007477919,
      0.143387974153369,
      0.22818421529222907,
      0.1629824537203335,
      -0.11767226395603372,
      0.0669411345691576,
      0.014602453210933897,
      -0.024324221568145735,
      0.09285246783799825,
      0.05085572274757908,
      0.1768577053596331,
      -0.0833244177789918,
      0.005702284709149052,
      0.0648294273519707,
      0.029550690744139102,
      0.10818702886545459,
      0.16928804059057476,
      -0.07168666314684996,
      -0.11905237075898942,
      -0.19498903402043088,
      0.06344197703204715,
      0.14726339197916435,
      0.044735780430708666,
      -0.05261311684409581,
      0.09237076600944402,
      0.00582987235372176,
      -0.16798940002853077,
      -3.893439240298946E-5,
      -0.15529227379595562,
      -0.026768332786408666,
      0.13548614814152474,
      -0.15032174166658907,
      0.20224210197565698,
      0.17651721425102115,
      -0.15914994977371674,
      -0.11705841863063647,
      -0.09293184634377398,
      -0.02294305791195786,
      0.021584239943326228,
      0.09273277101754099,
      -0.1467827381018862,
      0.035237111398737836,
      -0.19332371352743094,
      0.20591530166632124,
      -0.08236466096081985,
      0.044686766719912036,
      0.0028567231480573774,
      0.09135597584986985,
      -0.1765670873099933,
      -0.13907004081409713,
      -0.13635424975871258,
      0.024534095053051708,
      -0.10706011728108672,
      0.10917897884942665,
      0.07013317615226564,
      -0.15315255072127765,
      -0.21199249728190775,
      -0.06377292904334944,
      0.1717981871275346,
      -0.135977236213123,
      0.026822371195819983,
      0.04193354584633416,
      0.1566952685536255,
      0.18847632205660633,
      0.1265835525810595,
      -0.05150926384233981,
      -0.09246130481467339,
      -0.07024211588037055,
      -0.2140491108059211,
      -0.21142234710761396,
      -0.15954787195808295,
      0.1849661724627867,
      0.12386684625722869,
      -0.09167198463249594,
      -0.1197952583350232,
      0.021803453708289122,
      0.07704882008239142,
      -0.05936138446092426,
      -0.18755512825102857,
      0.17142840317997718,
      -0.11452520302506211,
      -0.20024950978324396,
      -0.11388247357931713,
      0.12668963211869896,
      -0.15919802085839813,
      0.011303187680252597,
      0.17432071177989447,
      -0.10712247496497501,
      -0.023734080675158864,
      0.04754509701306256,
      0.20630381720878646,
      -0.0980514695399909,
      0.1863024539633786,
      0.019056781327819294,
      -0.17106314822003016,
      -0.006738890092132854,
      -0.17522129221935318,
      -0.20047816952098105,
      -0.1251679307562829,
      0.14031418799331755,
      -0.156724096296931,
      -0.16708131886678512,
      0.037469430539177645,
      0.03174589566218339,
      -0.05722436151775184,
      0.08884943752267407,
      0.04141717691816385,
      -0.11753273296147615,
      0.02559569548131299,
      -0.06549065624636735,
      0.16921156016172298,
      0.17266098292135898,
      0.12676017662151726,
      -0.0026153497107755386,
      0.07559170475843371,
      -0.15704619997059288,
      0.1017608821671829,
      -7.766506335379064E-4,
      0.1922721826722831,
      -0.05265404573690438,
      0.20600701130042173,
      0.029915637051966787,
      0.1487566127098118,
      -0.027512855491938076,
      -0.2157284896055349,
      0.03427559529196508,
      -0.12008300050570664,
      0.15177318158063693,
      0.05060681846297807,
      0.17070602862631187,
      -0.11003351543593533,
      -0.12729472699922378,
      -0.15761066641842408,
      -0.17362463444140003,
      -0.029009780093870424,
      0.19566025227457748,
      -0.00859305472737279,
      0.12056345826195927,
      0.14006552111614926,
      0.062391077069402195,
      -0.05378410268558145,
      -0.0787485418588229,
      -0.19420847628110993,
      0.24245122472741137,
      -0.13076265647779142,
      -0.20879785293382555,
      0.1970079546132058,
      0.03260349516617269,
      0.14660484527195336,
      0.10428911268766619,
      -0.07655756118115464,
      0.043977797025514825,
      -0.10047204827646743,
      -0.002573966752507814,
      0.07293582532259395,
      0.009279874091570856,
      0.09348322937755824,
      0.12591723581634412,
      0.03479134773022748,
      -0.18190920407482167,
      -0.20747614592516261,
      -0.12970149671577183,
      0.0889827953567879,
      -0.18262057449728428,
      0.010396612681551372,
      0.12328367835127198,
      0.1700508720299822,
      0.15630492240016017,
      -0.060449890010650764,
      -0.19887799699788145,
      0.0062099924466620104,
      0.14046290175861256,
      -0.01978916296837266,
      0.13182413036025317,
      0.04052859141899559,
      -0.06587972432653805,
      0.1709698684502503,
      -0.1154106172987703,
      -0.00190050484296969,
      -0.1255791927083838,
      -0.1970273494523379,
      -0.1889773961566296,
      -0.15812422069357815,
      -0.14382437852976954,
      0.0455520124625047,
      -0.03139186955134525,
      -0.2005212188993783,
      0.0012808596906875316,
      0.1016491220172861,
      0.015119518930574153,
      0.1240917170071115,
      0.03291849668413163,
      0.19488006941360578,
      0.10088964106156637,
      0.004476567516306783,
      0.0827514434190755,
      -0.06610566762905819,
      -6.126354483874663E-4,
      0.017589520259919805,
      -0.004604095021957022,
      -0.21516546660521266,
      0.038780385414816994,
      -0.1573707883693128,
      -0.04815334938723383,
      0.09342359105613782,
      0.13969333657230926,
      -0.08181468076659229,
      -0.013585530028118254,
      -0.08662723739040401,
      -0.10155303765212298,
      0.20656701956126203,
      -0.20501742963247765,
      0.0100379135093881,
      -0.10875272862921224,
      0.08538513370161202,
      0.0013518304603668293,
      -0.04017182074278697,
      -0.09904177947866151,
      0.042388321133534065,
      0.17016607644295706,
      -0.1512039039803421,
      -0.008053366594809914,
      0.18284868108685345,
      0.03998685161031014,
      -0.07288214599511819,
      0.01424943372845919,
      -0.11767150652381368,
      0.18887024330259458,
      -0.11088489175112122,
      0.05295593705776742,
      -0.014559688893037517,
      0.019696633761699087,
      0.06560252349547982,
      -0.20441589534037732,
      0.10093636749430998,
      0.15394294552250926,
      0.008175839306717721,
      0.0961342055791892,
      0.15056916229277909,
      0.16073132142719346,
      0.01724337717558762,
      0.05524618964232367,
      -0.19721825688452552,
      0.08108128129686173,
      0.1219802006568296,
      0.0646316531034212,
      -0.20418674234588283,
      -0.026396539208740476,
      -0.10133173352936457,
      0.15770356696723536,
      0.016088370508076544,
      -0.05692442185873579,
      0.03748743399337514,
      -0.08056944219831927,
      -0.1350409526269906,
      -0.12310440123913,
      0.18761549499160243,
      -0.01378647965469794,
      -0.14246985276320656,
      -0.04784645038286462,
      -0.05250679166502112,
      -0.17544313466928296,
      -0.14230306575519944,
      0.10332685024457681,
      -0.1433875779973886,
      -0.08377125580089236,
      -0.010723034679695348,
      0.015326665233721294,
      0.13654971967659882,
      0.020008916723945086,
      0.15868530014260937,
      -0.15926273962826487,
      0.06879744902159193,
      -0.18934545093321536,
      -0.1288822939260207,
      -0.19294283739553,
      -0.16311289049244723,
      0.08041321523821945,
      0.1408896526745161,
      0.14994572398982944,
      -0.17358443472307084,
      0.14497019184000745,
      0.04472717271991153,
      -0.12681734835686512,
      0.036025738004839075,
      -0.045594437898266144,
      0.17541197946146317,
      -0.08614114818747848,
      -0.14379145697479703,
      0.11176085242664044,
      -0.1916021077900109,
      -0.11577682920480578,
      0.10791536008333161,
      -0.10256428495580576,
      0.03273232524041714,
      -0.14761345799723852,
      -0.15005286286859099,
      0.1236066471324205,
      -0.20614032772621846,
      -0.13060385586561782,
      0.07684625461684616,
      -0.08655792654579864,
      0.09098009349125666,
      0.21098639426452034,
      -0.15348057640632784,
      0.1367154171743271,
      0.016259407742269083,
      -0.011817780707136905,
      0.20775869666507138,
      -0.12919075402852312,
      -0.10705912747450258,
      -0.0962762584654584,
      0.19575985235236573,
      -0.18289130565314837,
      -0.2122712848367496,
      0.11793421718528471,
      0.10427117299298591,
      -0.1657757644221877,
      0.06274395632078675,
      0.131738756421421,
      -0.1513909072695494,
      0.14140008633795667,
      -0.08428792557849951,
      0.16947278484311265,
      0.15955025251378105,
      -0.1707130508420235,
      -0.16971178927390657,
      0.02969725519466121,
      0.18766402041553257,
      0.07398350102727688,
      -0.07874755899272701,
      -0.0042980365144228705,
      0.07083934903152864,
      0.09703508449079959,
      -0.15977451475252227,
      0.14687986727688299,
      0.06979524510736343,
      -0.17577746140048378,
      0.008179953150110553,
      0.0315943640242648,
      0.062034951028714064,
      -0.0272925014576664,
      0.11198917028659625,
      -0.20005822809277074,
      -0.09629756303079151,
      0.21183781896049106,
      -0.13111828762665498,
      0.015034747445467483,
      0.17464649579634087,
      0.12651405352179954,
      0.013104728087967366,
      -0.009622898034862243,
      -0.21543394696203555,
      -0.09870224832192408,
      -0.05602235144449899,
      0.1744668599944966,
      0.023933143614751323,
      0.022051747765788943,
      -0.1449444972652083,
      -0.12772281520806178,
      0.19889255684622717,
      0.16850017650706914,
      0.036162929698509455,
      -0.1487374526938378,
      -0.2067873486472956,
      -0.12323145382732777,
      -0.06788331564756989,
      -0.021038555603511505,
      0.06449741206926576,
      0.1244978203729332,
      -0.1869898820869371,
      -0.10868480213884096,
      -0.11651075769911377,
      0.06264667523357928,
      -0.13997378679388722,
      -0.02243647738568119,
      -0.030795893233092952,
      0.07029000001046334,
      0.21261240949984503,
      0.09316847381661972,
      0.20790221289907043,
      0.08679689031448909,
      -0.11942333209168252,
      0.04653088209488218,
      -0.03945548141741109,
      0.02105423250136304,
      0.11106243710989508,
      -0.004260419953888067,
      -0.20426268845689624,
      -0.1670785562008845,
      -0.1557124222869155,
      -0.07619530612632286,
      -0.0334546909294032,
      0.03201615883354322,
      0.03952281640973718,
      0.1386195082084943,
      0.0770726486217441,
      -0.20932144415549736,
      -0.0811879719682444,
      0.1740048089758545,
      0.21062067800795445,
      -0.026857202830898957,
      0.1651733243343292,
      0.17016022077586082,
      0.17193899160049628,
      0.1393234088807702,
      -0.18223143001522218,
      -0.061107048376796896,
      -0.04212973317741919,
      -0.027801368530589954,
      0.21017007819855735,
      -0.1869084542148509,
      -0.10407170466198426,
      -0.04070813994140357,
      -0.051866449678037246,
      -0.16694029206832267,
      -0.03346234072572285,
      -0.17713134660445423,
      -0.0022615422363729543,
      0.1454095761766994,
      -0.11133788832907204,
      0.11871002339574069,
      0.1883528887353755,
      0.13548772484994728,
      -0.1627813675467924,
      0.09303233588622659,
      -0.14421275707194076,
      0.1644553913874168,
      0.0711281666703493,
      0.06667175625272334,
      -0.08818522693045103,
      0.12435403091463229,
      0.18020786963626892,
      -0.017702643348306346,
      -0.21632791733087475,
      0.16483874849949695,
      -0.08879048083746541,
      0.09100238369297972,
      -0.05251138682157788,
      0.18056067760968106,
      0.14405440621607343,
      0.0765359042933503,
      -0.1399088227251066,
      0.18642858772328466,
      0.18787023230624625,
      -0.07813024857787021,
      -0.0834271350936065,
      0.16649451541762708,
      0.009208107999107734,
      0.06888611672910602,
      0.1482221172851402,
      0.08341906648113409,
      -0.009463869148603227,
      -0.17369808120815397,
      0.0807050454250032,
      -0.18087408351906717,
      0.039346444628394955,
      -0.18853189664537473,
      0.19451280721440753,
      0.07950406321813377,
      0.11897109536046899,
      0.05461906405037867,
      0.058044722469577675,
      0.0766061251735757,
      -0.1183948678325776,
      0.04596109416443203,
      0.057843670690769594,
      -0.0835787668463773,
      -0.09150920360939077,
      -0.19580754235262934,
      -0.13782530610294305,
      0.035649114761343664,
      -0.11589955599163622,
      0.13546729159485124,
      0.1508912092003262,
      0.007531872122330779,
      0.1613585410283551,
      0.005285959471255375,
      0.16676470032320798,
      -0.0663057780837859,
      0.178218996588182,
      0.18763293431444558,
      -0.11814691516996177,
      -0.11088487544937556,
      -0.14127571882709344,
      0.05256901370625963,
      0.10623323183631586,
      -0.1265106183662563,
      -0.023405381348478665,
      -0.08819399078670856,
      -0.043912843484733566,
      0.19562542821862397,
      -0.016529378284907414,
      -0.06823396031750822,
      0.12416288725002841,
      0.13745785477195235,
      0.07895766918222127,
      0.08465675775366846,
      -0.11792323705921234,
      0.20399634184038515,
      0.17976953559978068,
      -0.1864115168048385,
      0.1689700328747795,
      -0.04580214479155845,
      -0.005047495187818357,
      0.04957197086609896,
      0.08790818374399098,
      -0.012177663766019059,
      0.06416924795101595,
      0.12066669782758896,
      0.09906500189613895,
      -0.08504110658746877,
      -0.17918189565124687,
      -0.06116797073017097,
      -0.023833736836535113,
      -0.12397935851246394,
      -0.20922456656892835,
      -0.014700632736756147,
      0.17472591929868533,
      -0.07720176058125106,
      -0.2054280986123181,
      -0.03865021650768055,
      -0.19211048047230278,
      -0.021879391698796102,
      0.2105094888568104,
      -0.08167975763855434,
      0.05517481298994223,
      -0.17199949870448628,
      0.07629212992995742,
      0.028554664997342435,
      0.10769696885972917,
      0.04483671273510247,
      0.039888168761771044,
      -0.10479703664515655,
      0.02375034900040826,
      -0.00515210784624387,
      0.04820060953773577,
      0.0890974240062283,
      -0.11339152628804279,
      0.0755084022816023,
      0.1340106184309892,
      0.19956890595665006,
      0.04994360551757451,
      -0.21507951412644968,
      0.055764167903356116,
      -0.10971832610073247,
      -0.16849381232552796,
      -0.11815432721933945,
      -0.08490945074284531,
      -0.11698067680047118,
      0.16517373764315835,
      -0.106417630856177,
      -0.12036415014722437,
      -0.04772310249240482,
      -0.20271188441351035,
      0.17738917364142573,
      0.13251021838224156,
      0.03430443175877537,
      0.20827434930762276,
      -0.13176113826509708,
      -0.08747232843048874,
      -0.06839176488477196,
      -0.012589297140159212,
      -0.05805940905505556,
      0.04599542844200443,
      -0.0671857217904113,
      -0.002378711863158898,
      0.16164904579713946,
      0.0681326175125754,
      -0.03246082038674574,
      -0.029007431990866358,
      -0.11285375090638962,
      -0.0369892766540747,
      -0.027853521092510825,
      -0.18670362577025867,
      -0.0015396215641776956,
      -0.0996841667205908,
      -0.18655331624767513,
      -0.07037932798983573,
      -0.04635020054120048,
      -0.038471459070456675,
      -0.18167955475166567,
      -0.23652327955365648,
      -0.03225651138087629,
      0.09365654722136796,
      -0.16044931308442867,
      0.1594107343592505,
      -0.11291139448687612,
      -0.0993191447573666,
      -0.032033150452708145,
      -0.040632506308752744,
      -0.15006238873150746,
      -0.1090601956131108,
      0.13649776489646256,
      -0.08144819457942612,
      0.06451319859398597,
      0.10749485203978337,
      0.02009443919546281,
      -0.18956817725021124,
      -0.033803898149058285,
      -0.12383056799467139,
      0.12320808111219009,
      -0.007782029370586457,
      0.15945360774849934,
      0.11888315248277727,
      -0.14535498128010363,
      0.002830012474055288,
      -0.1498008493146478,
      -0.1329130726101312,
      -0.12499413251854509,
      0.08530886467572124,
      -0.09988976987841955,
      0.1426708171055775,
      -0.13809860280539457,
      -0.08384594765732378,
      0.205317988942753,
      -0.14825490952521397,
      -0.002584526858632967,
      -0.07047272050027253,
      0.12915412067643456,
      -0.026422234546238682,
      -0.10135322508060746,
      -0.09691520145617831,
      0.1893858963841966,
      0.03541512014036617,
      -0.10652994786357585,
      -0.010820854229511151,
      0.14003058555911527,
      -0.042344342177670635,
      -0.14812703768304067,
      0.18236703037549087,
      -0.16887208010444502,
      -0.00654718835193413,
      0.0784929485234111,
      -0.1284649056714745,
      -0.011892297614173524,
      -0.0117553333304322,
      -0.05933680255355597,
      -0.19483059016118928,
      0.028073964334406586,
      0.037606095320271954,
      0.020129297637652314,
      -0.04353682736326326,
      0.23410823571850062,
      -0.15722085729971735,
      -0.08811009054279095,
      -2.8348667095184194E-4,
      -0.12167021543531041,
      0.17441185493255382,
      0.21313235026435887,
      0.17858274760328,
      -0.08422088439488462,
      -0.0895310683923496,
      0.1784134284294653,
      0.21109822371300727,
      0.003070385641514378,
      -0.20906443823043996,
      -0.057852373905310776,
      -0.04326196464498655,
      0.14539525508661594,
      0.07292982027189608,
      -0.18823110155270265,
      -0.11962816524645904,
      0.08021426198971318,
      -0.0586933868545073,
      0.07070177411323074,
      -0.18033288428667318,
      0.08707563549694522,
      0.14928102472473506,
      -0.1503904693186872,
      -0.12110026930424275,
      0.07381128216854543,
      -0.017860128740789516,
      0.11543529287867164,
      0.1276892048366732,
      0.19148493658299884,
      -0.11639053040001544,
      0.036407797080545264,
      0.166284518178153,
      -0.1547775002536375,
      0.16941766156366891,
      0.23042046532789318,
      -0.12578765456701355,
      0.03803032892704358,
      -0.11440857747946606,
      0.18985491647404681,
      0.03516244093103385,
      0.19525986357330385,
      -0.04973793552665578,
      -0.09059855459928212,
      -0.03499599435247268,
      -0.08342419518091569,
      -0.03045901100719467,
      -0.18475594021502906,
      -0.0692152079237903,
      -0.12678898507660785,
      -0.030050839569494742,
      -0.04769441539046355,
      -0.156132110818901,
      -0.08861667173160773,
      -0.205447275831671,
      -0.14728748270383676,
      0.06051641017658406,
      0.10164082984043407,
      0.07886102277837495,
      0.11091519628335159,
      -0.19806077768954358,
      0.15504830008069248,
      -0.1294083436444451,
      0.21213147216634945,
      0.07166215893513092,
      -0.012646070369973866,
      -0.0822893414266858,
      -0.20165296486930231,
      0.030546786008321114,
      0.1257022827701158,
      -0.06555990430880124,
      -0.057433593373768715,
      0.014058708052833484,
      0.1847112628772784,
      -0.152327713689218,
      0.07165702717761549,
      0.11446778331935584,
      0.04660716758931679,
      0.15222228748611205,
      0.17537752871514964,
      -0.0013391654033106382,
      -0.06518920551877999,
      0.1870048597328298,
      0.19044889186441008,
      0.15387785850346686,
      -0.09030411134983535,
      -0.08552721222631635,
      0.1032338261957224,
      -0.009680028092680176,
      0.012170088321124733,
      -0.06593123885682714,
      0.13124963702010892,
      0.19797038933657043,
      -0.15955646324379097,
      0.19088857009211121,
      -0.1210866110816332,
      -0.231215185480283,
      0.07714352366505381,
      -0.20257024389842823,
      0.10145346885299189,
      -0.014870563484278787,
      0.18712123759779606,
      0.10969953506037543,
      0.12914809518729117,
      0.042416645043664186,
      0.030007866080785844,
      0.03450972349188658,
      0.019927297296985225,
      -0.11610036315964817,
      0.04197778834155577,
      0.21444955848810257,
      0.13238508041122385,
      -0.09837172081350876,
      -0.08281298129243342,
      -0.010566932252606964,
      -0.17140937632554942,
      -0.19299295958058577,
      -0.05736787085106885,
      0.0908347161064194,
      -0.19825926225804097,
      -0.08946674342059224,
      0.05087495190891959,
      -0.1682014348873632,
      -0.2180840361855436,
      -0.05631786478650001,
      0.0974326473459734,
      -0.19854957610328547,
      0.03829943786925835,
      -0.03489314957503331,
      -0.006847409475321364,
      -0.16396337031473723,
      0.12307259422489278,
      -0.061174246048288416,
      -0.12483955344673824,
      0.07516570640465717,
      -0.13013009498929576,
      0.003266404118062921,
      -0.18787905224744297,
      0.12982172974966893,
      0.22409984394594834,
      0.177814455268946,
      -0.1624632169629019,
      -0.03417764186702963,
      -0.09676619266064707,
      0.02513721936216362,
      0.001796504861017817,
      0.10060613317990898,
      0.029518800827657347,
      -0.028689138345540686,
      -0.18534243866231662,
      0.0109871879970444,
      -0.09173479006098817,
      -0.19775040301151667,
      0.14347508128799985,
      -0.03707194722522439,
      0.1775152891085952,
      -0.022220138514504516,
      0.09221302299129061,
      0.08859066606541992,
      -0.19459293544821596,
      -0.11545931020600052,
      -0.05853800124543623,
      0.1357572381173666,
      -0.0716160651041952,
      -0.02302605044055264,
      -0.011729297364335006,
      0.03345958014754928,
      0.10551084090161181,
      -0.17206643663622437,
      -0.1814368650766816,
      -0.19346800355201624,
      0.18851888113442258,
      0.0057786057020716534,
      -0.16866013414688774,
      -0.05629650258383811,
      -0.18396035212233822,
      -0.04711992577687044,
      0.00807260990442771,
      0.013475953505704541,
      -0.18002293249823292,
      -0.06322087862657941,
      -0.11629567404706033,
      0.03182415838398801,
      -0.13831113779989268,
      0.11995789170785048,
      -0.16928054816206373,
      -0.16301366062200556,
      -0.16858551500349683,
      -0.011741923514806909,
      -0.17275069815075866,
      0.1791553371831663,
      -0.17163880733728615,
      -0.15104060186135984,
      0.029554382699011478,
      -0.07168574888733319,
      -0.2203821204381526,
      -0.12590370633497963,
      0.12768668634207533,
      0.20379228813420103,
      -0.10077930643414898,
      -0.059785117922801556,
      -0.05926565547153151,
      0.04379589723331186,
      -0.20275997171219132,
      -0.034138692804042775,
      0.08182820851370151,
      0.11466619908144471,
      -0.03174843004479266,
      0.03617218608193598,
      0.17276076839787596,
      0.15661230097662152,
      -0.0833943359420233,
      -0.028478271900620335,
      -0.22071890233123165,
      -0.052458083651540366,
      0.17884992344062428,
      -0.023778990179381704,
      0.07543058251074759,
      -0.18128708878621455,
      0.053292250611164986,
      0.09237407589290049,
      -0.06652490859815717,
      -0.07103305290497679,
      -0.1511616000349447,
      -0.11267510875466727,
      -0.1372803497305722,
      0.17280920532399477,
      0.10979071216870061,
      0.11136768464054234,
      -0.015932624643362144,
      -0.06912363781382858,
      -0.04282622864277691,
      -0.11823904107734194,
      -0.1033169927261542,
      0.09134291623530463,
      0.14522250540119327,
      -0.04776914483218289,
      0.17501372309684757,
      0.1008062487898432,
      0.0918337636834439,
      -0.13014642616545674,
      -0.01909339831651094,
      0.014810015919007186,
      -0.12290620646453966,
      0.1517924128081851,
      0.15883407711152417,
      0.127392794233714,
      -0.13882790959413166,
      -0.01587190220387064,
      0.01249051561825514,
      -0.02591797717242275,
      -0.2343596764269296,
      0.09202721211122263,
      -0.1267874990851257,
      -0.11096555617293731,
      -0.14650932285078522,
      -0.03440907100692411,
      0.06069226824019157,
      0.1688091265605368,
      0.13530213100861682,
      0.10898639119654094,
      -0.1307517804206197,
      -0.03281345744733011,
      -0.019902733830892194,
      -0.11225154222924177,
      0.038181858679956646,
      0.09473058121852525,
      -0.11121380316374926,
      -0.13034976908283818,
      -0.12075010420478244,
      -0.1091114016635108,
      0.16731862302273384,
      0.013441798414842165,
      0.04381247435437549,
      0.18825037830817762,
      -0.06284986559296894,
      0.06124259083661939,
      0.07312897580371158,
      0.02560350099422476,
      0.02354503025151689,
      0.15612738777747243,
      -0.01289570845317759,
      0.14139082024367713,
      -0.04561689052172524,
      0.08130521220171764,
      -0.014050682541399101,
      -0.0684340597955615,
      0.11399927179843625,
      0.0820166270204851,
      -0.20113060872623453,
      -0.14519193617930012,
      0.09556621634442704,
      -0.1837796283654737,
      -0.05095165761104786,
      -0.10444767814394984,
      -0.1488292963965494,
      0.10365494562291597,
      0.1749615457620403,
      -0.09161705848907965,
      0.003394279217339135,
      -0.11665160681554203,
      0.0915246093285695,
      0.07878530619669577,
      0.10471043367610758,
      0.18904466573199716,
      0.05610004504747924,
      0.1797614584229964,
      0.20733725051476876,
      0.016599203141762536,
      -0.032462484466877786,
      0.020789293316461812,
      0.06999215578473875,
      0.09730838774787061,
      0.019135097115811933,
      -0.19987549208298683,
      -0.028862564324252996,
      -0.16950759316663627,
      0.1280872172145888,
      0.15159269915740956,
      -0.20141260137590178,
      0.1374886765498998,
      0.019709785296376348,
      0.1855860696418509,
      0.18962236657383513,
      0.040822013495105475,
      0.22032942244226558,
      -0.16278571883893134,
      -0.13198954501131738,
      0.13527722145080398,
      -0.11771488263928781,
      -0.031917174765047664,
      0.09504998373691695,
      0.18718459385111294,
      -0.19994327301021855,
      -0.10876249198980852,
      -0.18040737230639398,
      -0.03428811573553664,
      -0.118797922356154,
      -0.1100417737052061,
      0.17717240713236374,
      -0.0038141880339881847,
      -0.21907882572401047,
      0.1457356667133708,
      0.12305681925103404,
      0.05151205921724347,
      0.05457481322845661,
      0.01574676730054773,
      0.010794796300072414,
      0.16480194230480577,
      -0.06249934072330251,
      0.050929687548792464,
      -0.17347187134877096,
      0.032001263795105254,
      -0.1771920941586048,
      -0.008931992985316745,
      -0.12004612631746689,
      -0.17646868882248334,
      -0.10355270117580315,
      -0.07779153455001875,
      -0.1361424757667769,
      -0.07513523673909944,
      -0.06414519195215593,
      -0.11395526391285668,
      0.028779543051345058,
      -0.08246241796990136,
      -0.13909535972733345,
      -0.04817729161339043,
      -0.09266325763723257,
      -0.1272066628769457,
      0.20006336580723325,
      0.10868906904580264,
      0.09554700070742154,
      -0.12172396659798472,
      -0.02808804220975049,
      0.005944799604553384,
      0.17854846315552045,
      -0.09180045249072707,
      -0.08252088158393098,
      0.18686320169974543,
      -0.146059490080333,
      -0.070212422253996,
      0.014407052757588796,
      -0.16570588448765883,
      0.07484614114086893,
      0.07128630459514682,
      0.23620446565634276,
      0.02533133567746379,
      -0.06805043282667197,
      0.04546281359684343,
      -0.151105074408144,
      -0.05869871568760257,
      0.153910008729674,
      -0.13903963198181069,
      -0.2130422425386112,
      -0.1768808484321295,
      -0.09864874007503881,
      -0.2123108028807337,
      0.21233322442023575,
      0.035675853933270024,
      0.15223983897874252,
      0.05062277208720592,
      0.10186804948599157,
      -0.044326542638871175,
      -0.012650802448595594,
      -0.12296455528393059,
      0.05402170851544155,
      -0.1291943928772589,
      -0.16551837622207805,
      -0.013902991712993445,
      0.13435862183030503,
      0.1537763652136591,
      -0.045979244582237316,
      0.18096958570648278,
      -0.0734038204662574,
      0.12147776988956552,
      0.19397841176808975,
      0.04580338152377331,
      -0.0014341005248322825,
      -0.00579002137072912,
      -0.09081767236367508,
      0.16870295025892243,
      -0.04663973554502532,
      -0.028673627928093137,
      -0.005556102989982353,
      0.16196846335629247,
      -0.2042303354295398,
      -0.2027573553993275,
      0.14241940586286064,
      0.1977707105219421,
      -0.03219489103104209,
      -0.020252323886672363,
      0.07650190857618752,
      0.17987816780414048,
      0.06579417101417742,
      -0.16477711623968153,
      -0.06612077966104929,
      0.06344039487375772,
      0.057736599074755784,
      -0.14363579202221227,
      -0.18473710752693728,
      -0.15792307789204513,
      -0.052006992141020836,
      0.19494755924119264,
      0.12509902728139213,
      -0.004739354230012233,
      -0.16529439674392649,
      0.04974822073435056,
      0.10123782040252269,
      0.17185012793381213,
      0.08996551945042483,
      -0.15239071440117985,
      0.0625986777535367,
      -0.13296392127843898,
      0.05691401331612775,
      0.12917127226224998,
      0.045342879033158895,
      -0.08866099228074731,
      0.12989787871785227,
      0.08357220402072649,
      -0.015184053445719797,
      -0.14401655852525996,
      -0.050282164419162584,
      0.036780813022525144,
      -0.16826155516492708,
      -0.16955119591707907,
      0.17224637546484242,
      -0.17604266016009357,
      0.1126322607049505,
      -0.16710057051147048,
      0.13058425895508194,
      0.0035530760392416816,
      0.16685097847149702,
      0.11815187237112143,
      0.19627674535403758,
      -0.12586411649274143,
      -0.06365478024606794,
      0.06957613940708982,
      -0.06400946026797313,
      -0.20623554086611628,
      0.13950993773876566,
      -0.008261367308759648,
      0.10548012209177979,
      -0.04949634536572703,
      0.0011591973137717038,
      -0.10422435232272986,
      0.13965345857331954,
      0.21604011469394566,
      0.17852489306609906,
      0.10756877092899922,
      0.20305100115958977,
      0.13297629402481334,
      -0.058735224893116667,
      0.1395948859980177,
      0.07608349211332363,
      -0.012000213820490352,
      0.014785503804266992,
      -0.1951259244643485,
      -0.17819822576962757,
      -0.11564836599792684,
      0.04422441263566637,
      0.13786072519474055,
      -0.05765388020993306,
      0.20233266829578742,
      -0.15024594921730533,
      -0.0580364285582847,
      0.1723832226127657,
      0.01029447578593884,
      -0.12077145689569582,
      0.13003274647821114,
      0.10660698033408281,
      0.17154821676932477,
      0.05009195379062345,
      0.10878732210880213,
      -0.17158743599954923,
      0.05157133592450766,
      0.18840796013264308,
      0.038759681948143804,
      0.18560826511882464,
      0.14682993916890588,
      -0.007432349140105016,
      -0.10732231302366538,
      -0.038122043369707655,
      0.15048439635884842,
      0.06775367894654853,
      0.021388695436827827,
      -0.09536042543116527,
      0.10929177574431613,
      -0.1772650160609886,
      0.12593387361946914,
      0.11596979787943781,
      0.1781197460474893,
      0.11298665135917257,
      0.1972325951828361,
      -0.11640025952563895,
      -0.10549142935020563,
      -0.10289469574944694,
      0.14298697982253636,
      -0.1584258234568029,
      -0.004655588062232985,
      0.11278844171480203,
      -0.002081380293131837,
      0.05305161249153581,
      0.211839670174431,
      -0.22136953729297357,
      -0.19382193473936365,
      -0.07883806686526398,
      0.09213318801345985,
      0.06908290335537891,
      0.17602657506184774,
      0.14626244084342574,
      0.14711700816197074,
      -0.13140008724385108,
      -0.18285854068382695,
      -0.06403112352007617,
      -0.1643249311708471,
      0.007295318855849528,
      -0.1319435881732963,
      0.07821026380307612,
      0.01658390403078611,
      0.08444642013095446,
      -0.13545704666643527,
      -0.14842170703009733,
      -0.20953907562833443,
      -0.22198571138812162,
      -0.10829642410729341,
      -0.1815944514184152,
      0.024303165284514004,
      -0.2068577622389796,
      0.10418381630718292,
      -0.05585897934928555,
      -0.01665861874787311,
      -0.210872082470656,
      -0.07376591724344009,
      -0.008185755220006755,
      -0.10022615818759086,
      -0.005397119673287265,
      -0.0010344598594084486,
      0.1462347808315623,
      -0.18881057003711782,
      0.14611038365563822,
      -0.16033656189061776,
      0.031485799574468155,
      0.13135401954678244,
      -0.03886626145864897,
      0.02401378066845726,
      0.20237903179097314,
      0.031914766882271045,
      0.1882944353312416,
      -0.1230011616687003,
      -0.21816674746569434,
      -0.017668918353329396,
      -0.08723424574149867,
      0.10698740315267588,
      -0.0872769270872295,
      -0.1385528566874113,
      0.15954645298330059,
      -0.1810239723977193,
      0.04738144892587567,
      -0.05635295538786547,
      -0.04471361797054274,
      -0.11092101788754088,
      0.1687181931710445,
      0.16775340482344056,
      -0.1678315663056372,
      0.08783236779690477,
      -0.2058689804547326,
      -0.07916508802665619,
      0.03293727758660099,
      0.1347942966917494,
      -0.1394268886484047,
      -0.16354967738386894,
      -0.011203056410180125,
      0.19605852176228003,
      0.029155413715200678,
      0.13762169806654714,
      0.2126678575785618,
      -0.20219260250714424,
      -0.20314183329381236,
      0.09552341700062522,
      -0.20143825521894487,
      -0.11746271689483405,
      -0.012451676025597241,
      -0.1177705080329101,
      -0.0676702457465698,
      0.10221098434252016,
      0.18360630849719303,
      -0.17170680202700658,
      0.2177309157900251,
      -0.06915965503620058,
      0.19743644728967377,
      -0.021126375601075137,
      0.03805501937544867,
      -0.28221299025903124,
      -0.17727460419341562,
      0.10131195273697366,
      -0.09186593076271755,
      -0.15258089432331046,
      -0.3612379952891224,
      0.07560784203510021,
      -0.07763860267705822,
      0.005621472638052044,
      -0.09054828028063623,
      0.08878705134423262,
      0.05497816619610247,
      0.014450051453366697,
      0.008088653876236234,
      -0.05286658934338293,
      -0.08019988350298052,
      -0.07396447092233727,
      0.12142155500060177,
      0.12758058457333937,
      -0.07089214882053387,
      -0.21305480011013248,
      0.19643033788266034,
      -0.20418867763882542,
      -0.0069247020318463914,
      0.012545324149686843,
      0.07052504028957315,
      0.0327700137489373,
      0.07350298138584999,
      0.17957436203558813,
      0.18649967003831322,
      -0.18417130640204118,
      -0.0682295722830116,
      0.2232698172372962,
      0.15014515509094573,
      0.02036616575521133,
      0.1987153207414757,
      0.069713364457224,
      0.1561965937025486,
      0.1379502529330084,
      -0.05277718395209483,
      0.11478031517839854,
      -0.08817937509613424,
      -0.1436836700792694,
      -0.203766852924627,
      0.11215549709808978,
      -0.08115561093120877,
      0.14083465435624354,
      0.17064449496284864,
      -0.16892061282005294,
      -0.1889323504470642,
      -0.08591655248954728,
      0.1799494712396866,
      -0.07113198247075693,
      -0.020186713438015702,
      -0.20388138009516957,
      0.14032511154072105,
      -0.10853689013040069,
      -0.17694729229642497,
      -0.11697079491025585,
      0.07059597348343032,
      -0.004181226375076312,
      -0.0481490113804143,
      0.07614321396391333,
      0.013709409582376085,
      0.1379653107059749,
      0.08113144143881887,
      -0.10650534203765387,
      0.13645752455188329,
      -0.005907545839164879,
      0.20126452865812527,
      -0.09549263177055532,
      0.1818991505440591,
      0.04506568547550607,
      -0.13180148577162545,
      -0.06562819376000543,
      -0.14810130356063075,
      -0.13580889353177322,
      -0.19814443771397175,
      0.13504845528398574,
      0.21321208445305848,
      0.10782640339582009,
      -0.12101466836316965,
      0.007017088187624501,
      0.09818053388039702,
      -0.04892192467616924,
      0.12998734116208224,
      -0.15753370938926714,
      0.1319676634827162,
      -0.026683137422200104,
      -0.13034738668832546,
      -0.19579934278906364,
      -0.11450927321985456,
      -0.19271028903226006,
      -0.13980829540232823,
      -0.004823198350216982,
      -0.19347595096556092,
      0.1872498591235384,
      -0.0811869404438184,
      0.0414957382060075,
      0.1747550982238315,
      -0.1960450419606883,
      0.20172056573677755,
      0.14054951587853348,
      -0.145216896525692,
      -0.08945044200215563,
      -0.1388742099843536,
      -0.1796830021474179,
      -0.1240855612627383,
      0.1191529912810548,
      -0.010242719154927549,
      -0.03636389821148961,
      -0.008004354465897978,
      -0.03932774223002142,
      -0.10998934172464345,
      0.01716416990824775,
      0.027796487091861388,
      -0.08706503889399542,
      -0.01604881888409654,
      0.05883310857438476,
      -0.1733366205184365,
      0.010557223912623287,
      -0.011164656477030433,
      0.0011852421351375708,
      -0.10524660146211377,
      0.003514016419109367,
      -0.039943460124567384,
      0.05753903619691327,
      0.07698512476422467,
      -0.02783247560630429,
      0.05886214667866559,
      0.06857196433658883,
      0.17396551778534708,
      -0.17662602072844052,
      0.034621102003671064,
      -0.04014731530330559,
      0.19718213937181647,
      -0.10589290141774049,
      0.2310410850101803,
      0.03955171298926988,
      0.1633964490407184,
      -0.033811945742120764,
      0.1620333706853197,
      -0.14220473108608067,
      -0.11723034451903663,
      -0.12247140311929913,
      -0.1735184239767733,
      -0.07133708078790094,
      0.14079499424360267,
      -0.14233388902497332,
      -0.1695305856540054,
      0.13057543503016136,
      0.16200220364549087,
      0.13356928811732957,
      -0.00565819456420058,
      0.04881498353184031,
      -0.21191210134200292,
      0.0320701616304939,
      -0.17546166049837233,
      0.024121711755328595,
      0.039030010098942275,
      0.20470369708813527,
      0.07422734833374403,
      0.07609896092606547,
      0.13698917390584825,
      -0.06924300503386513,
      0.11190773781096394,
      -0.04302184626154359,
      0.04061388331518165,
      0.19887931051330968,
      -0.018780294724451585,
      0.030091897917245203,
      -0.06296006591307171,
      -0.07747882319992301,
      0.07329268161144617,
      0.03913307585841715,
      -0.06976920203193265,
      0.18127508140995272,
      0.06120314992091422,
      -0.04446898636413928,
      0.16636215713877311,
      0.11172999565514553,
      0.15483630801141554,
      -0.2635158257671903,
      -0.08533210415650805,
      -0.09151199309744133,
      0.06846007516736316,
      0.10373286687534938,
      0.09886809362017837,
      0.17937958542621296,
      -0.025130545643135247,
      -0.16019998644147945,
      0.11814819083123687,
      0.1268837059781185,
      0.17922106489279385,
      -0.1781773547627835,
      0.07414291113719808,
      0.11466359655590472,
      0.18925828457602417,
      -0.0746877128447853,
      0.21319318038165433,
      -0.18334779143017285,
      0.008343570843422271,
      0.441797745008561,
      0.20363444540219186,
      0.13069354907967687,
      0.18735382767434003,
      0.04086283728684226,
      0.19497362413136116,
      0.04307266221465893,
      -0.024892785967982608,
      -0.10578574779479502,
      -0.05682861220809293,
      -0.12578718704374503,
      -0.16954378909069662,
      -0.11571444307319767,
      -0.01890674547002786,
      -0.09311263071930272,
      -0.15023073967827494,
      -0.21406089018205407,
      0.15411889414122473,
      -0.02467391965426486,
      -0.19674548527703561,
      0.1450702162858307,
      0.21176529215702203,
      -0.08545003356877867,
      0.17508759908571545,
      0.14952308836711428,
      0.09787397010802007,
      0.1848719365710565,
      -0.08176099947652558,
      0.06328194891949042,
      -0.16858677348428544,
      0.22189671619706808,
      -0.0935810606432045,
      0.02657475844551288,
      0.02768819106295566,
      -0.11431456291999259,
      -0.007582097768143354,
      0.05628629326263687,
      -0.17657798851240492,
      0.1273232396791635,
      -0.16772375925128807,
      -0.030847008079801598,
      -0.1647132012781152,
      -0.09828241252027468,
      -0.056452705319028046,
      -0.03848963507313624,
      -0.1760178227594428,
      0.18338009880505704,
      -0.016421965172644788,
      0.0378752545612632,
      -0.17553087874320752,
      -0.1829026862565867,
      0.06789426373110458,
      0.02627643144144809,
      0.0684219625895173,
      0.08853079016054632,
      -0.10614356573172654,
      0.2045018547131466,
      0.1043677841369573,
      -0.2122444730291169,
      -0.1298372098422233,
      0.1771928539857119,
      0.010425464126244177,
      0.0919804992520828,
      0.015160597021275434,
      -0.13224618624442624,
      -0.0712817552053108,
      -0.04429104893137176,
      0.17141119243739672,
      0.09970973030015276,
      -0.2149164932678236,
      0.07002383779550933,
      0.0265105080385914,
      0.0407780826507826,
      0.2103338929755058,
      -0.006533628730629681,
      0.13020721375329,
      -0.04959113498792062,
      -0.18823456244872072,
      -0.16999097947233793,
      -0.03937119580750725,
      0.044956147843355956,
      -0.15166356798676023,
      0.035587907995727065,
      -0.019995923325627853,
      -0.15306809677445582,
      -0.06264766037650234,
      0.1546922080327587,
      -0.04973967191742838,
      -0.06420107619086746,
      0.15472586616019765,
      -0.03231632465697661,
      -0.1189426645510677,
      0.1709923920290289,
      -0.10389601511890471,
      0.03300402852499632,
      -0.19444851032041294,
      -0.21652259437004362,
      -0.15673977080371,
      0.19878314747692266,
      -0.20819796732788018,
      0.1657136968710871,
      -0.026239024345112383,
      0.060808686277164486,
      0.15306504978805072,
      -0.16838689674280882,
      -0.1902709117758423,
      0.11599823247769792,
      -0.027631055729451598,
      -0.001514919701343382,
      0.03579158094879761,
      -0.07502371531435315,
      -0.02446927678008547,
      -0.17468677990982442,
      -0.06436771994887275,
      0.07279155884155315,
      0.04171871644645552,
      -0.02647908654138545,
      -0.10886439284614402,
      -0.008382187991145597,
      -0.1946288126913742,
      0.13200527647159813,
      0.1501288430495352,
      -0.1485031084683222,
      -0.09435344953854966,
      0.02176858324861406,
      -0.2155604237866173,
      0.04344224646577319,
      -0.20611353532203497,
      0.049205580835132504,
      0.03879664133929576,
      -0.1852054239794183,
      0.024374886319185076,
      0.09703841278942424,
      -0.03333025387819145,
      -0.13397098831091908,
      -0.1556108045894209,
      0.05391756382831646,
      -0.07805922516050967,
      -0.029448165155267103,
      0.2017539698994185,
      0.20278784318750598,
      -0.07135252730340731,
      -0.04744074318590863,
      -0.08442474534144666,
      -0.16068075178592037,
      0.09407391019496755,
      -0.03418019133443232,
      -0.11698109977696294,
      0.0068785438913092955,
      0.18163718287508404,
      -0.05109193001546894,
      0.18237312851490328,
      -0.04800245447029803,
      0.1082988103311752,
      -0.2093004593326294,
      0.19464375032858316,
      -0.05813032564672126,
      -0.024254736796929893,
      -0.20571260460711077,
      0.09543326119689616,
      0.09974408471893706,
      -0.03725422267212225,
      0.10912288046841265,
      -0.11875855208509356,
      -0.029284903809933926,
      -0.13794744574974238,
      0.12703935052372325,
      0.18154504226165277,
      0.1907840054582274,
      -0.19538160224753137,
      0.15622507828477497,
      0.10022049193273155,
      -0.21460973057112326,
      -0.1407558793372303,
      0.08378482705855891,
      0.03219085551947108,
      0.01341206948082932,
      -0.038740351956220914,
      0.14579841487406628,
      0.05519181798504422,
      -0.018640000817710424,
      0.01656155161265091,
      0.06144967939064521,
      -7.695841070255321E-4,
      0.18626192628211155,
      -0.11374905899778848,
      0.12268282805345399,
      0.2585626077995723,
      0.1540435357178173,
      0.15939519202815264,
      0.17204225234591844,
      -0.13318083995238092,
      0.0316098167270325,
      -0.14736836689542285,
      0.1128290924397872,
      0.019778033399463477,
      0.1825683454441592,
      -0.08019335468939395,
      -0.06627760352144726,
      -0.11979192339644085,
      -0.0271573565276112,
      -0.18591476310415023,
      -0.12223132766304276,
      -0.14685320913835326,
      0.21286692388786096,
      0.14017385783558653,
      -0.04116490233776493,
      0.08699551347010079,
      -0.034907481269622787,
      0.19711622074381638,
      0.18078635567095017,
      0.09971613848727393,
      0.1480683643050282,
      -0.20633661084135899,
      0.16012766018311794,
      0.1858617433420908,
      0.16474638955116824,
      -0.14047611352686987,
      0.06090730811370468,
      -0.05747397713316976,
      0.09537322569651877,
      -0.17105031406326207,
      -0.12989014472906404,
      0.025561022873606842,
      -0.20157256608011262,
      -0.03951693163832887,
      -0.08507148488007615,
      0.10067690685725775,
      -0.1710395634430816,
      -0.10670276405597098,
      0.043411229846210236,
      0.1119463027382275,
      -0.1782902732855539,
      0.15014917094599803,
      0.1406766873379158,
      0.18091370005432658,
      -0.10129259537186644,
      -0.07526365272818611,
      -0.1504150825859636,
      -0.025771983250303304,
      -0.08936361778497529,
      -0.07210235243990962,
      -0.007006896567090859,
      0.01885151985532421,
      0.17807216022839137,
      0.09277007414199764,
      0.17088343034016848,
      0.005298369010918541,
      -0.0770636127170714,
      8.013101977446813E-4,
      0.1047070080910166,
      -0.11917900553838687,
      -0.020018306780451828,
      0.03651913939853771,
      0.19088668350113494,
      -0.04213770777011183,
      0.05261811409030884,
      -0.11776080828201725,
      0.10875624895619998,
      0.12341692103971888,
      0.08070885204018766,
      0.18951550772943163,
      0.21490260653618706,
      -0.05626195960264391,
      0.07204880166949748,
      0.20313916950434416,
      -0.2066371160305225,
      0.15006202041873304,
      0.17177046847180796,
      -0.13863282421790524,
      0.15561572015802802,
      -0.06734845191363181,
      -0.10406668107991064,
      0.13007681220759562,
      0.20606864689728574,
      0.07625226385419506,
      0.09056430353633718,
      -0.15484893047880183,
      0.11320735767107756,
      -0.08272072074204773,
      -0.0872559021371686,
      -0.12172302987332548,
      -0.06834964070675961,
      -0.036850639179183964,
      -0.1346780813159365,
      0.10713576957495077,
      0.061145057994018676,
      -0.011541021844281102,
      0.07042026945582577,
      -0.20372767118585577,
      0.06372212403039315,
      -0.18531937402221685,
      0.21339811413831286,
      0.11118469108007953,
      0.08721867827713539,
      0.10575334285004648,
      -0.15750398507042213,
      0.1645941419044081,
      -0.11184316424327712,
      0.17745779246984425,
      0.04401840807143445,
      -0.08783624262651424,
      0.14957808191456437,
      -0.11018236933843972,
      0.010033236364089704,
      -0.10305405795587333,
      0.04572918825750086,
      -0.17302186058572197,
      0.18222771065218232,
      -0.17208166628422028,
      0.14783084881070016,
      0.17031344228968007,
      -0.05822918873147165,
      -0.19821983613226835,
      0.17175880196877144,
      0.12220534815721337,
      0.1223757546948672,
      0.07173874716968973,
      -0.08152624154439922,
      -0.09587724675117837,
      0.18462604949881087,
      0.14898076841583321,
      0.2024332104281453,
      0.17113135120907905,
      -0.15753512011946208,
      0.10343633991690646,
      0.17122305976987526,
      -0.058260504286001075,
      -0.0788697336855179,
      0.1430005674076345,
      -0.09248688002555623,
      -0.041023614806799065,
      0.20486612650397865,
      0.1634811013787502,
      -0.13810349616664963,
      0.10243939044182634,
      -0.15483696373592418,
      0.08031498158023027,
      0.11724619382340017,
      0.16883745119328616,
      -0.13649664436912068,
      0.20833316833220844,
      -0.09852657815977103,
      -0.02427888954124625,
      -0.04481759446943154,
      -0.06466823246987902,
      0.018010578885358442,
      -0.00583531083861305,
      -0.13294756020393111,
      0.1855597248567616,
      0.2149937846144512,
      0.08148255012478248,
      -0.0156797973810522,
      0.21461237974303884,
      0.03824472907044502,
      -0.026782759136599082,
      -0.04300186115552025,
      0.21162540187408077,
      -0.08159894355725394,
      0.08873047410475857,
      0.19481139974387848,
      -0.16257147571811909,
      -0.17821653627080547,
      0.0019029758428806011,
      0.19985664546399282,
      -0.03967074925793379,
      -0.13590439773087312,
      0.19440618483146035,
      0.20374999518316034,
      -0.0624700685168433,
      0.02051000216657322,
      -0.012690671677198463,
      0.0563197357972385,
      -0.1587105128118734,
      0.004699641966773032,
      -0.16062712916572452,
      0.05981257713762081,
      -0.030831065450800818,
      0.09793018709101473,
      0.03129786920823331,
      0.1646489766975171,
      0.09113721242971626,
      -0.050814786212813434,
      0.1410485275927794,
      0.17133296339815265,
      0.1854398546385996,
      -0.10864813778199253,
      0.24101537600410944,
      0.19089521600596424,
      -0.047799667324296566,
      -0.20472378786687997,
      0.09433023084494999,
      0.11469778491479445,
      0.05936828111917733,
      -0.14291647168484028,
      -0.22698660013132105,
      -0.1026731721107846,
      0.18635486349565886,
      0.1287501073752643,
      0.02456419970976464,
      -0.21369089984102296,
      -0.1821368544018939,
      0.13410630711142413,
      -0.015649640077078808,
      0.04320895666679639,
      -0.03830187213139671,
      0.04131081729192779,
      0.04660834483891075,
      -0.2138525408641969,
      -0.05819240963493016,
      -0.10345156935284965,
      -0.2439161570121455,
      0.19742523068834344,
      -0.10391832004027987,
      -0.1273487256597179,
      -0.1254472637166567,
      -0.07773932270846393,
      -0.0055826661022230425,
      -0.15040666148527915,
      -0.14882650884903428,
      0.05079168817947824,
      -0.010704999043650854,
      3.657155003908008E-4,
      -0.01904024000602439,
      0.029932375057830866,
      -0.07679138815127237,
      -0.1883520984099523,
      -0.17863787052409372,
      -0.16269389539862866,
      -0.015609759680490097,
      0.06121719070072176,
      0.17609513141190558,
      0.11716498120774063,
      -0.16854483272645748,
      -0.11400586809566984,
      0.1327134649408808,
      0.10270156388197818,
      0.17735056478154185,
      0.17842929498766397,
      0.13080326503007286,
      0.0827181671468494,
      -0.017911989903381883,
      0.009719464926956758,
      0.0800147969185618,
      -0.17932171161457064,
      -0.029489313888504093,
      0.0587522433369069,
      -0.1655096939727644,
      0.04162414022374891,
      -0.10701315045209717,
      0.05748715919967892,
      0.1373242650552736,
      -0.16419497668299826,
      0.10891487414183418,
      0.15944610986370591,
      -0.1479143617946997,
      0.039728504228728506,
      -0.02701302222864812,
      -0.011540143369129174,
      0.15527569946777683,
      0.02171548044336529,
      0.18048722473870002,
      -0.03600313145305534,
      0.21337132149481033,
      -0.161007875673681,
      -0.0052573500333011275,
      0.04512761891479175,
      -0.19150583038580982,
      -0.10151338724154679,
      0.04875563946429597,
      -0.06204570150100018,
      -0.111584321800959,
      0.15739761234094393,
      0.011196840439098629,
      -0.0012408616926790292,
      -0.18118010058270098,
      0.08952378248850813,
      0.038863080905409735,
      0.10729650119393808,
      -0.05490968812606911,
      0.06373920131719792,
      -0.13176731021339463,
      -6.881564779173293E-4,
      -0.20618001236137298,
      0.03160157913515382,
      -0.21582133846616597,
      -0.010278028955533564,
      -0.07312097382661414,
      -0.09323285560409043,
      0.06371202898923646,
      0.13726901757066445,
      0.12966477427775325,
      -5.265965235191977E-4,
      0.18014613003155602,
      0.20840389114088126,
      0.0480317245828241,
      -0.10464538390378754,
      0.1861543751928603,
      0.03936475533636139,
      0.15263233023405146,
      -0.01748871773903937,
      -0.15724677159362688,
      -0.13181703994512153,
      -0.1532797694532984,
      0.14304432836748884,
      -0.032900872203253766,
      -0.062426524953709754,
      0.07165913287085879,
      0.21868679986970424,
      0.08191261153552934,
      -0.02518745076634102,
      0.19100312168019437,
      0.2614850642391782,
      0.034910296105002604,
      0.057992987535457924,
      0.1698536071854963,
      0.15806919884827064,
      -0.19109282084790002,
      0.0773250174764015,
      -0.09561593336001821,
      -0.20907012971295305,
      0.03224457623409077,
      -0.094729698317105,
      -0.15947915065558466,
      0.11255018836484953,
      -0.17524159333320438,
      -0.08190864434233283,
      0.1021993165949843,
      0.10593527983086468,
      0.00924654437568076,
      -0.002485859972333139,
      0.035859328011981245,
      -0.039466482985975604,
      0.21839913361045943,
      0.044086633893652,
      -0.21052835804166234,
      -0.09801909367102624,
      -0.004445544270041609,
      -0.02691228518449711,
      0.11480567013656066,
      -0.15958263465542097,
      0.122238871297192,
      -0.18899459427160065,
      -0.062304165489578685,
      0.024997498225166587,
      -0.08878322473107166,
      -0.04031269712893121,
      -0.1020061855269029,
      0.133798238990379,
      0.06208999343417773,
      0.15710404832942923,
      0.09230716875064879,
      0.13874505411524002,
      -0.1012629626430001,
      -0.021794481546645872,
      -0.10030960912781511,
      -0.11738062106637527,
      0.1010700512245255,
      0.04084818888841399,
      0.1467879165539037,
      -0.0015904630953381127,
      0.01316714199962052,
      0.04965224835551371,
      -0.0949009442915369,
      -0.18820600837284238,
      -0.09001585149351121,
      0.08467030158699951,
      0.02258222406959754,
      0.17251386907205776,
      -0.08612973603221377,
      -0.1944879709865981,
      0.26893805869296716,
      -0.20700420804138395,
      0.008147261836305514,
      -0.18792572081293188,
      -0.20565561768819696,
      -0.18824631920977153,
      0.03669862025456345,
      0.012050565302634514,
      -0.0755907802018828,
      -0.13966167692271927,
      0.09864223545368281,
      0.1146967886028106,
      0.18473684458512807,
      -0.17562799141047244,
      -0.00398175535545923,
      -0.20525517859331108,
      0.17276282117161484,
      0.20240787276665675,
      0.040487890129688814,
      0.04084359440979188,
      -0.1954224834465257,
      -0.2131836337787574,
      -0.0442822319296782,
      -0.09186670960948981,
      -0.07677663183904487,
      0.09645649098735651,
      -0.06984943423049532,
      -0.016138021204233764,
      0.1274764072773735,
      -0.18436933263228153,
      -0.03894203092709605,
      0.10436851482272462,
      0.15035925977731648,
      -0.155877756527366,
      -0.19541825565944737,
      0.16251039275359783,
      0.11969855664029574,
      -0.11508688170711719,
      0.20414658785583817,
      0.11019922070656037,
      0.058941088134597336,
      -0.17571264414278623,
      0.12916460634165042,
      0.20991780323470574,
      0.028456715514325964,
      0.055492320153203156,
      0.12402059946945015,
      -0.05848318033654619,
      -0.06742600474815026,
      -0.16366262811052357,
      -0.1525010953374586,
      -0.10176462522882952,
      -0.03108687632251838,
      0.03755155886970835,
      0.18322214141309762,
      0.16718584574691794,
      -0.01639251877940495,
      -0.18409604144272493,
      -0.21165903962273871,
      0.1091892395902874,
      -0.11984222725431666,
      -0.1927059010583786,
      0.20105872648901377,
      0.18530648646297218,
      0.17580627281281494,
      -0.05162662703787209,
      -0.14466047899605586,
      -0.08285417939603171,
      0.16206450867804903,
      -0.06003881166977027,
      0.1971597565832388,
      0.05662781373148432,
      0.21786713953938325,
      0.11249967668926972,
      0.059560624608436724,
      0.1237082416234901,
      0.08778927072697643,
      -0.024427674487249723,
      0.20034848395248425,
      0.2096368416288614,
      -0.03515767972600258,
      -0.07499955581489622,
      0.15839076703524416,
      0.0032039526118612105,
      0.018570159431818563,
      0.05019792669472198,
      -0.17897022727259335,
      -0.06926321483340821,
      -0.21678411749996992,
      -0.0380166917146812,
      0.10133726595089523,
      -0.18962987074158902,
      0.010921093543523617,
      -0.1282418277805574,
      0.1969752646942577,
      0.17144029583837547,
      -0.10462762186129558,
      0.12278409088368854,
      0.08633778108192347,
      -0.1873218015301929,
      -0.1785950797757738,
      -0.16460038386666828,
      0.09307308606003806,
      -0.019242694974254265,
      -0.13628873820245668,
      -0.09999893363211107,
      -0.12255741372138083,
      -0.1528617621063028,
      0.2010099805050051,
      0.05058006222158178,
      0.12165906659085399,
      0.20972177381006338,
      -0.09622268879742378,
      -0.08329732227360931,
      -0.09592062417022171,
      -0.013719525620152273,
      0.18890697381651575,
      0.190583197301438,
      -0.052620273942338855,
      0.06769165380270323,
      0.17105478123296222,
      -0.029279697260487104,
      -0.061673123997646684,
      0.062203524782614567,
      -0.027722016877236296,
      0.02532614781828474,
      0.046858410211925806,
      -0.1925119764957716,
      0.21241341542686423,
      0.08989064744068229,
      -0.16654623297652832,
      -0.11832980457277226,
      -0.14517797140211888,
      0.19849223327456586,
      -0.034437808435695244,
      0.03525149485940263,
      -0.00423076774201343,
      0.12886231885924132,
      0.19146345202041667,
      -0.20637280174577402,
      0.13462805216894272,
      0.03713449616979528,
      0.21326936536465343,
      -0.12975719364151123,
      0.18518014718379752,
      -0.009246638335702134,
      0.009299762754339275,
      0.08507331253307829,
      0.03729568817087517,
      0.08455618935394274,
      -0.06808998819068646,
      0.1879537376570666,
      0.20943730570443395,
      0.10506529171718057,
      0.06319189720488846,
      -0.18719973597495654,
      0.08978184035894951,
      0.06518252955614193,
      -0.08753243363050797,
      -0.05124280456697661,
      0.07559521899371138,
      -0.19163931448604637,
      -0.05135327733777234,
      -0.020461637031312957,
      -0.09188927299972216,
      -0.07970295780033457,
      0.19501771026289785,
      0.17468136594728603,
      0.07805730755837068,
      -0.18163281686930471,
      -0.20159989355338812,
      0.18013245236918227,
      0.055093493758004625,
      -0.021375399912469423,
      0.006677186098767135,
      0.13159938262675688,
      -0.03319587634610552,
      0.05780905414751039,
      0.04951178636085282,
      0.14861979207225498,
      0.124113924000579,
      -0.10190169758970347,
      -0.05303476468438592,
      -0.10542309117262025,
      0.06027267047182197,
      0.20666468214990089,
      0.1002573506157449,
      0.0912920815216243,
      -0.02778000026215713,
      0.02051445395260798,
      -0.04847099425058021,
      0.1912708341472288,
      0.028070147557057057,
      0.1986323736472139,
      -0.16318710303327705,
      -0.1519722941393423,
      -0.11766110229999212,
      -0.20423321951275056,
      0.09944408151404169,
      0.05280470780273186,
      -0.16227940531941512,
      0.1357618367423429,
      -0.10926002449422767,
      0.06352299334789444,
      -0.1271867472969217,
      0.16495949153220266,
      0.17922440238344892,
      -0.16199692455696965,
      0.10667966738203036,
      0.06948699120937349,
      0.06063303756193136,
      -0.0019501500602528976,
      0.2127603889562472,
      0.012456766245602657,
      0.09910635306081425,
      -0.015388206396899723,
      0.07513185510127476,
      0.2045492971511905,
      0.2026845368738612,
      0.13901450494891168,
      0.1138571872752551,
      -0.1451473714879531,
      -0.1286759900929012,
      -0.19420869536610455,
      0.183591216081439,
      0.02548997310471368,
      0.20894756579592497,
      0.12932418502496648,
      -0.09535250179644826,
      0.06233611177886547,
      0.17340852884306243,
      -0.10760272663207793,
      -0.1069024754254271,
      0.14979564206471643,
      0.13045567944968686,
      -0.042669910259007904,
      -0.022633135780890518,
      0.06873885521174192,
      -0.16534120808845615,
      0.09847362572798143,
      0.11359887785642833,
      -0.0052829360611211795,
      -0.12143754710622336,
      -0.09600052931407863,
      -0.13517572006962908,
      -0.06134714709599365,
      0.12757671404020085,
      -0.0819323291398836,
      -0.20421913808944206,
      0.041491322700847294,
      0.21117960933639615,
      0.04737569968451896,
      0.047108686038287856,
      0.13909424005189344,
      -0.12844774418681026,
      -0.0575108543270057,
      0.16555410418106128,
      -0.16456971236762555,
      -0.1093573989887281,
      -0.20037480342097466,
      0.10287441407205536,
      -0.19843086850752006,
      0.10535207776129121,
      0.16429906512524836,
      -0.12222413295722888,
      -0.14391359078650495,
      0.029655832745922484,
      -0.20772557345690637,
      -0.07601655260350967,
      -0.08129892088974516,
      -0.04822188882354811,
      0.07837858046574314,
      -0.022871784985697363,
      -0.08391544249211462,
      -0.096764886528403,
      -0.1267608129074249,
      -0.0478992332393072,
      -0.06000497672617657,
      0.03148551035657232,
      0.15873014770922317,
      0.01088719962529686,
      -0.19080797758875087,
      -0.2068981301239992,
      0.08062721299039251,
      0.11755469012147116,
      -0.19771052079654988,
      -0.20637194707991752,
      -0.06096629394083903,
      0.06537402684055707,
      -0.045117078067189335,
      0.1005018296460875,
      -0.14371113571774238,
      0.010695690297927413,
      -0.0978532588893569,
      -0.0680657469054766,
      0.057486431038944276,
      0.13872976419067554,
      -0.07016426072241429,
      0.006476415970194743,
      0.01613524619369258,
      -0.2059900821681131,
      -0.1375221020011652,
      0.016047486863987288,
      -0.06519636428589842,
      -0.05288235847912511,
      0.23294565410641593,
      -0.1999930573312566,
      -0.13477016991727608,
      -0.040029545392877806,
      0.1464481527499176,
      0.12899612425647683,
      -0.19435530987939176,
      -0.19656216277166458,
      -0.02202899997217152,
      -0.06539465013289025,
      0.06594571708673605,
      -0.09785409744849709,
      0.05285910075186742,
      0.10564453315567195,
      0.20503692697335432,
      -0.17602636912418881,
      -0.2052947375508145,
      0.16460307006737632,
      0.13119545442800115,
      -0.18027432342807723,
      0.14293389981069568,
      -0.030643484535596874,
      0.06364675306359088,
      0.11634522837389577,
      -0.14853088867815878,
      -0.046122712896925475,
      0.20459810462443587,
      0.01472064184610447,
      -0.009884967318685841,
      -0.012593929835754886,
      0.1183968223821367,
      0.021624274942477206,
      0.14279649962119623,
      -0.08864841406305517,
      -0.04997343733723278,
      0.16866659017897465,
      -0.14800569137815336,
      -0.045641036229092186,
      0.0819667437186108,
      0.017467308433619246,
      -0.010480721453562795,
      0.03546535600322355,
      -0.09219802577038266,
      0.18804563859473847,
      0.18030120946859376,
      0.09448540723462125,
      0.059822333643771236,
      0.08680141770694491,
      0.09983600194261559,
      -0.13622398435174726,
      -0.1276115424562028,
      0.007819690472519042,
      0.06870005790989839,
      0.05921393969382698,
      0.06704176384484553,
      0.09229919164044188,
      0.016128394662396767,
      0.06538587277272559,
      -0.059390349741561294,
      -0.13321386268819274,
      -0.05954476770551519,
      0.09070092897130314,
      -0.12685169978865446,
      -0.13427842488119923,
      0.05722741815321172,
      0.16051464485422134,
      -0.0908333537165997,
      -0.05560772173351562,
      -0.20618780422141902,
      -0.15807553278270284,
      0.025702835016928466,
      0.18136672696754463,
      0.01298765837580626,
      0.1466488930901362,
      -0.05196771100480725,
      -0.17463516639346294,
      -0.03652236116587049,
      -0.19105095789716914,
      7.597147148263303E-4,
      0.16423167395221974,
      -0.17473658608536172,
      0.12029518347742654,
      0.10603736994944898,
      0.1958005464722443,
      -0.11989479818649577,
      0.16629102624072223,
      0.07147080712001283,
      0.026055163419449346,
      0.05144718291417314,
      0.07796711811341198,
      -0.18599026736860894,
      0.11236012678700028,
      -0.024232341870984192,
      0.036500831091538094,
      -0.1400944583624308,
      -0.185476152311978,
      0.051234747439632106,
      -0.04487277741883067,
      -0.16816374541084345,
      -0.06699348426501647,
      -0.032947102335041945,
      -0.15435723078124752,
      0.08023877184953979,
      0.038714196946895235,
      0.1969677745714887,
      0.1920246267622928,
