{
  "lossFunction": "BINARY_CROSS_ENTROPY",
  "optimizer": {
    "type": "Adam",
    "data": {
      "learningRate": 0.001,
      "beta1": 0.9,
      "beta2": 0.999,
      "epsilon": 1.0E-8
    }
  },
  "layers": [
    {
      "type": "DenseLayer",
      "activation": "LINEAR",
      "biases": [
        -0.3071724976401107,
        -0.299303779884863
      ]
    },
    {
      "type": "DenseLayer",
      "activation": "RELU",
      "biases": [
        0.856175590504374,
        0.9482306850721454,
        0.3963895812637259,
        0.9304530813371445,
        -0.5106795473707035,
        -0.10488359900565714,
        0.4662744991992456,
        0.3265490400149469,
        0.5469395442655798,
        -0.32601210831056626,
        -0.7040356973802031,
        -0.6957855805774646,
        0.03526700640443403,
        -0.8410592755841009,
        -0.39843493708134026,
        -0.8855113624694377,
        -0.09661570005735065,
        -0.3574897056764288,
        -0.05975017070163724,
        0.8702607484858333,
        0.8164554716490142,
        -0.11703903721248321,
        -0.8884071904652937,
        -0.5239709188753827,
        0.33995991257946123,
        -0.5403778248664151,
        -0.4975983811114555,
        -0.01853977151360775,
        0.5496322260949817,
        -0.3629849946289607,
        -0.6405155943487175,
        0.880781381414586,
        0.2868960588344729,
        0.471717550067019,
        -0.03888405496004954,
        0.44449258081682674,
        0.54715852949739,
        0.9916202331912038,
        0.7067945206285007,
        -0.7031608778165923,
        0.8184084652501862,
        -0.0645757040243844,
        -0.7437895217167116,
        -0.8580632420520744,
        -0.4198591943634822,
        -0.2390587574146612,
        -0.9778251193603866,
        -0.20660383937492188,
        -0.37229306229260906,
        0.41395332333269397,
        0.5585846476636469,
        0.47674603759856793,
        0.4047693937283352,
        -0.30490184688465116,
        0.6833293282202724,
        0.7509072806312822,
        -0.8933825138729921,
        -0.029555477863433266,
        -0.4626276687340276,
        -0.6655766189858612,
        -0.04032240352083405,
        0.4421283487387111,
        -0.7949326055885386,
        -0.37589367374092175,
        0.7876315525724078,
        0.22862228891852143,
        0.007099699383754432,
        0.7582095149573254,
        -0.25786642527327275,
        0.0999140913532659,
        0.12626907686194788,
        0.7031924756682937,
        0.90619410665813,
        -0.12892660938017286,
        0.83766017726516,
        -0.9674038849412077,
        -0.6291216684862879,
        0.1783884234788482,
        -0.7114264454909909,
        -0.18150145808129237,
        0.3410438101329736,
        -0.3545411145284725,
        -0.49008063391121426,
        -0.629522987932384,
        0.8434209497280953,
        -0.7076680965013249,
        0.13960323580225764,
        -0.5660473089274187,
        0.6904172082584767,
        -0.5510261747830429,
        0.19976235103926965,
        -0.10075099111257102,
        -0.5043950926983798,
        0.40507236670611624,
        0.19353752511821054,
        0.07464712126590078,
        0.7419299263333439,
        0.5613657584561675,
        0.7733960116175138,
        0.14117587068809145,
        0.17125721524593374,
        0.9434012241552381,
        -0.7181533238496947,
        0.533825286908995,
        0.09394690349063795,
        0.5968258637603281,
        -0.4232815796709515,
        0.683327508112511,
        -0.3902670640808765,
        -0.3959826846309824,
        0.7270001020208496,
        -0.19539916084914366,
        -0.8137455813991172,
        -0.7549355375078157,
        -0.5984314143647755,
        -0.7675935295442071,
        0.5591678847845716,
        0.1718118716071,
        -0.928039818548144,
        0.18172029890150498,
        -0.5021534784468213,
        -0.6281164372110928,
        0.511667865351541,
        0.7497750652373694,
        -0.37674826967183184,
        -0.8296929488403721,
        0.4982752601889977,
        -0.5213177091799819
      ]
    },
    {
      "type": "DenseLayer",
      "activation": "RELU",
      "biases": [
        0.16963810320683237,
        0.5495590340096042,
        -0.8889328144536934,
        -0.13800515148574632,
        -0.6506656897030365,
        0.6645598897354834,
        0.5655833191493143,
        0.8055257866962371,
        -0.19008282741787652,
        0.5873448395864049,
        0.13791086958329868,
        0.24219151923401094,
        -0.43432293399908395,
        0.03684482776604581,
        0.40533951674857693,
        0.8525996650931325,
        0.7403489769140603,
        -0.8675882363313798,
        -0.23366939858598834,
        0.15755742391158556,
        -0.5243371252231901,
        -0.9445730889874553,
        -0.9984201333595091,
        0.12562616978829255,
        -0.5596555413680613,
        -0.08846653816975669,
        -0.5007179586033055,
        -0.12169566760045303,
        0.5167761674548415,
        -0.9432615164285942,
        -0.30846659104254437,
        -0.922628934380167,
        -0.5523947174427917,
        0.6838316304803547,
        0.23513587531190794,
        -0.8566213238652653,
        0.4921660893863049,
        -0.43872851543317104,
        -0.4811043421742991,
        0.581232493129906,
        -0.5273417000885112,
        0.47489373619431086,
        -0.8091634847936193,
        -0.6217475986308185,
        -0.017394677970225647,
        0.14349821232848137,
        0.5725757279480042,
        -0.30793863468540716,
        -0.014808511287859316,
        0.16257502509947552,
        -0.9355593351314324,
        -0.139899011981635,
        0.5466565934973149,
        -0.12386696012742693,
        0.9437291630675853,
        0.13952574000703066,
        0.030004579873947446,
        0.984797672388082,
        -0.6801517913915311,
        -0.4743178110339801,
        0.716860046401085,
        -0.8309530230912798,
        -0.5661098046902695,
        -0.5006685103380848,
        0.5303860956699245,
        0.039659432840918774,
        -0.02346199132585869,
        0.6172270255573984,
        0.29975338709373145,
        -0.6768513798266895,
        0.6470142214183645,
        -0.5123878061934477,
        0.8367298161547156,
        0.34816454812630004,
        0.7871211444832693,
        0.8616563706027929,
        -0.012462387886086335,
        -0.38045695541493374,
        -0.40175537278452755,
        0.32380023319988993,
        -0.2217971676627306,
        -0.4501110113640514,
        -0.814476223329125,
        -0.6215651814640151,
        -0.21079924252900395,
        0.2642816256805556,
        -0.5277845831471546,
        0.6072917576449635,
        0.9752781272004498,
        -0.19810699086032924,
        0.8886127800791395,
        0.011375069741301314,
        0.2889121536558632,
        0.009015284598503648,
        0.6637025711899933,
        0.6532185346763113,
        0.6709435900345311,
        -0.04880691888070876,
        -0.46592389482699903,
        0.27970496082761787,
        -0.760500353086943,
        -0.232136613888567,
        -0.26656370777772254,
        -0.2673617963216235,
        0.8384005988973291,
        -0.44889413186065896,
        0.23737028185060227,
        0.6437095482991306,
        0.4988222845623498,
        0.05081109389786875,
        -0.5881125993801877,
        0.16245640459245303,
        0.8230641213714032,
        0.7917770968765092,
        0.4505481129170199,
        -0.7197390712558098,
        0.8168513272363078,
        0.5339473688501573,
        -0.7161606272510657,
        -0.3096075005167138,
        -0.7233226656793754,
        0.9152070215898762,
        0.0057787476729300735,
        0.06354839670712153,
        0.48127123645576986,
        0.5868564891169354,
        -0.7134408498736615,
        0.12030216240778979
      ]
    },
    {
      "type": "DenseLayer",
      "activation": "RELU",
      "biases": [
        0.6411343457165914,
        0.18508588599690157,
        0.7263231050595484,
        -0.05373374369719792,
        0.329341458003994,
        0.07747535218110913,
        0.6541981462213581,
        0.6232865976803321,
        0.9416213645312234,
        0.9814364814589948,
        0.48841192931332933,
        0.43683095029535207,
        0.1343392676987485,
        0.274904492699221,
        -0.5574768864610691,
        0.6790078201442181,
        0.14031009040338704,
        0.09273213895052974,
        -0.8862218690522317,
        0.3674478002663934,
        -0.12695320509238198,
        -0.8306463748081406,
        0.2629335204093923,
        0.0953622973257539,
        0.8223306829752346,
        0.768125952509962,
        -0.01679832812452758,
        -0.350855244143649,
        -0.11645425825187726,
        0.03250218739172515,
        0.3649033834639649,
        0.047167095844086834,
        -0.5464976585338379,
        -0.3856779799219645,
        -0.25617845335949974,
        0.2070058551074283,
        0.42158425936286603,
        0.5349247639359148,
        0.6937696450475714,
        -0.417570528706612,
        0.9824303489703335,
        -0.10895329023538025,
        0.9988815297890193,
        0.7951213086797345,
        -0.37998806182808775,
        0.24175525163246528,
        -0.9420518557803454,
        0.5437601117979677,
        0.038579669560089735,
        -0.7126183523239815,
        -0.6349437802583576,
        0.8821897653975403,
        -0.636552982675931,
        0.8108935967604884,
        -0.9546107878233168,
        0.3421670717559928,
        0.48427374877493845,
        0.7439949124011761,
        0.7726267022651991,
        -0.6960380377317874,
        -0.9158662483576732,
        -0.2928684597156792,
        0.8067075359112723,
        0.5378748099015657,
        -0.42021634437581795,
        -0.6079552535878401,
        -0.5994984492176958,
        -0.11897260094000293,
        -0.015968201223092393,
        0.7597837026891723,
        0.3550165816184301,
        -0.33193596659261604,
        -0.4828583374396026,
        -0.8181582029547299,
        -0.8813268802994079,
        0.6936463234585634,
        0.6964661339987066,
        -0.6238389758532541,
        0.5046907611255461,
        -0.7321663793224791,
        -0.4156935387053655,
        -0.7341584960362262,
        -0.1697296693232849,
        0.20981110814631881,
        -0.10928332721978376,
        0.7415380668014995,
        -0.9160541084123751,
        0.5294908978506255,
        0.7136330152575777,
        0.7142121403576253,
        0.5902784015716186,
        -0.037070212526948663,
        -0.17020714395104597,
        -0.1858392281346766,
        0.5562726692153865,
        -0.45320079169534044,
        0.6739975516551022,
        0.6253843266412829,
        -0.11366463948181332,
        -0.026935221486300644,
        -0.613389427927661,
        0.44511471821191273,
        -0.31900529107590203,
        -0.4112286143561239,
        0.665652991525743,
        -0.7930928782035829,
        -0.036007325747922994,
        -0.3901739208624902,
        -0.46947698787445535,
        -0.5615459295412311,
        0.3466863106512739,
        -0.6526565446599915,
        0.5730534842958573,
        -0.1038530752974013,
        0.5758649142239055,
        -0.9134369946024612,
        0.7867290033089567,
        -0.12582673542149603,
        -0.7881271856293754,
        0.6054046326436351,
        0.6352000256752338,
        -0.9112535866274135,
        0.04545913042885548,
        -0.7108043704988214,
        0.6824761871393328,
        0.5106558855528933,
        0.28268707124099546,
        -0.7280952419986189
      ]
    },
    {
      "type": "DenseLayer",
      "activation": "SIGMOID",
      "biases": [
        -0.22040344712209792
      ]
    }
  ],
  "weights": [
    [
      0.9513918211193821,
      0.03229158761919848,
      0.21778882376076636,
      -0.551632831978971,
      1.0288796915563327,
      -1.6241706104030809,
      0.3859400844919596,
      -0.9380849244962993,
      0.12017352042017926,
      1.375175912053593,
      0.1740195736086949,
      1.0726716946777335,
      -0.19812819208162136,
      -1.0303867994942453,
      1.5667576615771444,
      0.0013055335314109406,
      0.7763081405737886,
      1.0544456505289779,
      0.5239599874025866,
      -1.4808232197739888,
      0.4081349687550435,
      1.2257485701092137,
      -1.5002362936244968,
      -0.6125634611160873,
      -1.103467004406908,
      1.329813513767314,
      0.8767422782586631,
      -1.4233657960945694,
      -0.8329521023754604,
      -0.7457783465256882,
      -1.65234688358993,
      0.19085829112236863,
      -1.3850522591840873,
      1.7224701464477048,
      -0.7306296889730846,
      -0.1942859755800801,
      -1.2894307372880467,
      0.9630429307577393,
      -0.6319034774975567,
      -0.5514465505919828,
      0.7274342332287425,
      -0.19109085120791036,
      1.5357225192343866,
      -1.3821639134782506,
      -0.46254119909597535,
      -1.3885157493825777,
      1.4398051580851317,
      -1.6745922910513642,
      0.8984787212581484,
      -0.209414675474503,
      -0.159472965953541,
      -1.115718753533125,
      1.655551683528121,
      1.4890089154639925,
      0.9699043909842093,
      -0.8500109570529462,
      -1.441793250686728,
      0.9236204200428302,
      -0.47508963684453676,
      0.8404026792899664,
      0.4124028709357306,
      -0.6859265433560386,
      1.264807945617738,
      0.26348661358239567,
      1.022957729076248,
      1.1126211341094085,
      1.0710673207389771,
      1.3414091478363919,
      -0.41424258835818395,
      -0.5229710595979398,
      1.030779093110546,
      0.3866831912871269,
      1.3105497612869013,
      -0.12282086475762255,
      0.7441985753288238,
      0.2870988861370607,
      -0.146597931855317,
      1.5251465588625173,
      0.7466262430223363,
      0.8271498065949652,
      -0.9459490530117411,
      -0.377948241130428,
      1.5897517197009774,
      -1.4933551304379353,
      1.3023106415418442,
      -1.6795773390877338,
      1.6990740154560984,
      1.6430798509420461,
      -0.3160624946713846,
      1.543948077536731,
      -0.3827828984637016,
      0.9733682591191835,
      0.6132983334609932,
      0.6360991018370823,
      1.050190758679174,
      -0.8614894305215638,
      0.660676904262113,
      0.30207172287152084,
      0.9343934505332705,
      -1.483754834839376,
      -0.9355603225882921,
      -0.3145784528169635,
      1.0286836511980393,
      -0.14109198027953518,
      -1.3454878279974298,
      -0.23389312103508608,
      -1.7096917213654137,
      -0.9442386709324341,
      0.25741087973985777,
      1.1805870852574898,
      -0.7586252507664784,
      1.304186247327096,
      0.47372366270635546,
      0.27522490105461617,
      -0.8362252875292135,
      0.12447044129329154,
      1.5856582625511273,
      -1.349969182048239,
      0.7133312429357275,
      1.2935089443340055,
      0.6240607402950078,
      -1.22564507328888,
      0.9468039521114748,
      -0.3193665985123211,
      1.6498227798152703,
      0.5594442365664334,
      -0.3995976915472901,
      -1.6767002897945185,
      0.09931361647445547,
      -0.97333022327335,
      0.1637034958555743,
      1.0611743514183998,
      1.658560056436502,
      1.4813361443369077,
      0.6275009673893253,
      1.5515394821976807,
      -0.1591469283825364,
      -1.2096552707464325,
      -1.174939082997548,
      -0.0368702710946085,
      0.5035258102497651,
      -0.26582829502564564,
      -1.2484802588527606,
      0.6254216282207892,
      0.1648381827729397,
      1.3880132902698612,
      -0.4053500773796812,
      1.0985186907291544,
      1.3838343969072044,
      -1.4987256745264703,
      -0.7734272548615923,
      -1.1440682186237012,
      0.21669859438035788,
      -0.49557919714518484,
      -0.3661705671023543,
      -1.2817632882856658,
      0.22389699608719638,
      1.051831422111045,
      -1.6974946076844568,
      -0.6653542457423234,
      -0.6932727630997784,
      1.1573577551240704,
      0.7822344471984584,
      1.5588655097568733,
      -0.2592913527157865,
      1.1600688902201195,
      1.5382111282086435,
      0.7309410917362229,
      -0.6174571095918724,
      -1.087996187715746,
      -0.8260414139983979,
      0.03493422247847189,
      0.35193226073602735,
      -1.6025042156932798,
      1.6927472002895347,
      1.4841144898228829,
      -1.6320976450006015,
      -0.9508638920317685,
      1.3928899517999842,
      -0.46820459321530983,
      -0.3435065573303606,
      -0.4428869969000464,
      -1.6280585643920211,
      1.5786214928123175,
      -0.39561613236714366,
      -0.36702445867379385,
      0.8215362888020119,
      -1.4309078123419696,
      -1.5555947869336357,
      -0.488577691984577,
      0.4460410418267877,
      -1.1151211178420364,
      1.1446602138241626,
      1.2801610520852844,
      1.1241711813599224,
      -0.6830880445337959,
      1.6662665498107871,
      1.4900253203834113,
      1.6174021656863549,
      -1.301290437569097,
      -1.205864517579398,
      0.19740365267729731,
      1.466076400372822,
      0.24868772606282197,
      0.19479903615763106,
      -0.9354353942147863,
      0.057582540169294205,
      0.5529052979078635,
      -0.44136906670165477,
      0.5239372238572513,
      0.9648492606339787,
      1.2552644420423775,
      -0.24884912059243902,
      -1.1206432063666094,
      -1.200739983574473,
      -0.013453779315068193,
      1.4526069919945257,
      0.7424711789537237,
      1.061430520419562,
      0.44905585819428473,
      1.4219446477983044,
      1.2193164626785993,
      0.6446634620521785,
      -1.2095837300380805,
      0.41148638563923146,
      -0.1449837266959333,
      -0.7790588389992784,
      0.8583538688218224,
      -1.5922524269232343,
      -1.599037858773618,
      -1.6381818401638577,
      0.7923744183866377,
      -0.6848750889225397,
      0.6039486204102082,
      -0.5836444892162809,
      1.044561871261305,
      -0.9159591724433696,
      -0.1232039170551098,
      -0.08894587858014646,
      -1.1746225469597995,
      -1.5403939062876906,
      -1.7229936906911423,
      -0.10386631785822842,
      -0.0332272524118975,
      0.7192489646156524,
      0.27863190654402037,
      1.1384897351307852,
      0.9560968901330444,
      -0.3579159608370477,
      -0.07343386516786876,
      -0.7227018171889417,
      -1.2132864908407743,
      -1.5909073041452702,
      1.4811597422950664,
      -0.6274880999811725,
      -0.5741721910953594
    ],
    [
      0.18297482009908625,
      -0.19299826932593456,
      0.06470450139640752,
      0.06170198865214574,
      0.042149714290924484,
      -0.03560376178430888,
      0.024641946892981437,
      0.17446447306279453,
      -0.12957134167352233,
      0.01214144555185756,
      0.014367185271768945,
      -0.16221389723201848,
      0.06916366119868025,
      -0.17721847183804407,
      0.21488275159315132,
      -0.12909533006085427,
      0.19487236883733564,
      0.03580639475542011,
      -0.0944215047308319,
      -0.024347474226325744,
      -0.01368093282809843,
      -0.14530500334546875,
      0.05012642245954771,
      -0.08724855206331561,
      0.12549561098232234,
      0.1585431139484572,
      0.208380565694019,
      -0.14776200691163544,
      0.029040672812134072,
      -0.02353831371874443,
      0.13076243015216735,
      0.12151635416828874,
      -0.17513708313086798,
      -0.08227892028528488,
      -0.15716924300026208,
      -0.017051375841934557,
      -0.16695203158196015,
      -0.03608007024850848,
      0.06595593816574277,
      0.12400282434451768,
      0.10590061255765695,
      -0.16183005237884526,
      0.20615039940479404,
      -0.011925504332995523,
      -0.18482503886707155,
      0.028124659223207504,
      -0.14209009851731225,
      0.008677293432281158,
      0.12472168315278195,
      -0.14120431581278253,
      0.20346903850288936,
      0.08570473624182953,
      -0.027791024722117225,
      0.11762225596424566,
      -0.1790699712084612,
      -0.15903153938438183,
      -0.0720445400423384,
      0.05896876071922172,
      -0.03028180290618132,
      0.05065658119992181,
      0.17246565411580264,
      0.1411152914148747,
      -0.11052234664820501,
      -0.17463671094205405,
      -0.14092991813747768,
      -0.1295485004543773,
      -0.09843265942911211,
      0.07949035813144598,
      0.06089279802982492,
      -0.05151311445224363,
      0.1436744352666858,
      -0.02066689900287,
      0.19475951592858867,
      -0.1368866547128718,
      -0.08691871347814306,
      -0.11730639128609849,
      -0.16216252592637256,
      0.1814713014452489,
      0.15884881477955445,
      0.0244266681446986,
      0.16059260926607125,
      -0.09136867322164535,
      0.03991723668525812,
      -0.2054129127303051,
      -0.18423716743781968,
      0.01735795582173108,
      0.09011969728797567,
      -0.124891998373543,
      -0.08649782416211588,
      0.19199425557492908,
      0.16103116489994698,
      0.005529771198441308,
      -0.20245735303577528,
      0.06172491335845012,
      0.01607568013956928,
      -0.08486864098443209,
      0.09367848819400129,
      -0.04246025730900668,
      0.1792179901237694,
      0.1914309510166142,
      -0.13877214697273788,
      0.13490502522500405,
      -0.19697378642285643,
      -0.07351324198686687,
      0.15187505603903376,
      -0.19017654753982108,
      -0.05500016230116897,
      0.1917799921118468,
      -0.08569456265129977,
      -0.008325626136480913,
      0.1275035867659193,
      -0.025670924161042885,
      -0.20252298125113277,
      0.07447991476988072,
      0.04868030245714447,
      -0.10241882235299171,
      -0.18114996550422152,
      -0.13642426340451325,
      0.2067954164770678,
      0.1643669137654815,
      -0.20630611867647883,
      -0.04315746275202392,
      -0.04950336156211041,
      0.08293595041614346,
      -0.16784149540715032,
      -0.013393623175017771,
      0.01989592668875792,
      0.19455448739091377,
      0.16654278539543763,
      0.1792805524640704,
      -0.01365346657296082,
      -0.039909913450788065,
      -0.08332728143896678,
      0.11730350143376303,
      0.1870860201649127,
      0.16419602420272436,
      0.0647190136554365,
      0.19512044825048894,
      0.038413230208762666,
      -0.09661490824320065,
      0.0453505188000248,
      0.1485138742403295,
      0.1458206909676483,
      -0.11830200156817179,
      0.15160245257920688,
      -0.19518063158489685,
      -0.10737858127588044,
      0.14228512962000148,
      -0.16021627167522717,
      0.013298429569136405,
      0.13199583128478468,
      0.08263585939459192,
      -0.14135248375498932,
      -0.047134211667666875,
      -0.08208089891674084,
      0.1883109194496513,
      -0.11627027610912641,
      0.20476460737889454,
      0.026550843593384416,
      -0.015212014464598939,
      0.12419086480722694,
      0.19021295843475391,
      -0.055391834059448725,
      -0.028149569729384982,
      -0.19823996970146227,
      0.017745592825287704,
      -0.0730402606910261,
      0.004462264983904812,
      -0.16669607657127858,
      -0.07841734692018557,
      -0.043634986310498225,
      -0.12404461338494033,
      -0.007674259377619036,
      -0.18023485299690326,
      0.0502008500126814,
      -0.05285250086237228,
      -0.16968022315506026,
      -0.16008738857182014,
      -0.17634505481568583,
      -0.006425488526695583,
      0.15638623203029547,
      -0.08942600649403232,
      -0.1528884103429661,
      -0.01872959752709269,
      -0.09492128147271223,
      0.05847440827094816,
      0.17763716333402738,
      -0.09104690994983708,
      -0.0046435037198773454,
      -0.10387351287046849,
      0.21340247772014168,
      0.12074928811684263,
      -0.1900602842636337,
      -0.21331753621962501,
      0.13671961461755802,
      -0.020831099736165426,
      0.19916551340104358,
      0.013043863301276243,
      -0.1995233238311311,
      0.11246640969470681,
      -0.11559962644579026,
      0.03976715351309126,
      -0.16946794974412902,
      0.00387523287521932,
      -0.21159198366505144,
      -0.11431468908504722,
      -0.07985960183285062,
      9.833833656540114E-4,
      0.003510697198396362,
      0.15542010003649767,
      0.18588122795741338,
      -0.06017087381456246,
      -0.16076869712177888,
      -0.16751914098988424,
      0.16958990742072957,
      0.019026438310079385,
      0.004645657547445531,
      0.21639542640175521,
      -0.0912782832829038,
      0.0638198883477287,
      -0.0878463208399703,
      -0.012858763197257428,
      -0.0797203810550953,
      -0.1404404668528056,
      0.0923152275552053,
      -0.06433100452821508,
      0.09673327990954869,
      -0.17208262850436937,
      0.02803880814232057,
      -0.03017136615002458,
      0.1379191692536,
      0.09159282227237772,
      -0.1710561818008171,
      -0.17554485566916667,
      0.17856193625816022,
      -0.04463549967598318,
      -0.07491883060086857,
      -0.21343761293264443,
      0.10910028812536407,
      -0.07012704015460583,
      0.05696907974469831,
      0.1793290127707328,
      0.1609492147773254,
      -0.12367592962268593,
      -0.00372062515425009,
      0.14531018054905617,
      0.2127907015456517,
      -0.03372581516697845,
      0.08150788728275352,
      0.028145941246433798,
      0.024516139312204033,
      0.03145037431101841,
      0.18788587460309011,
      0.05245612905037331,
      -0.10046307892212647,
      -0.04058390603161119,
      -0.12840181777388138,
      0.014753875825426449,
      0.20760260246237003,
      0.05996381663820696,
      0.1757779687347548,
      0.05389488684785895,
      0.06805605204532608,
      0.07382071121543518,
      -0.17422905386789228,
      -0.1126464575370423,
      -0.13539990188193007,
      0.018629359998778627,
      -0.08517870445591089,
      0.10768274791487945,
      0.0845902659951844,
      0.21176794012353004,
      -0.15077406776723418,
      -0.01683892080296992,
      0.08577386240875759,
      0.19495019460499488,
      0.19756270414428298,
      -0.19702409950783603,
      0.15024838127061782,
      -0.016509271086338623,
      0.031151175222929872,
      0.1888105702637661,
      -0.11174811586712383,
      -0.05071929251148427,
      -0.06424608485869363,
      0.0879851061127134,
      -0.0887724628680144,
      -0.19545953171435626,
      0.12282664128305451,
      -0.07652044999665711,
      0.1759117646292773,
      0.02593041907613533,
      -0.02315877356893542,
      0.14876435146146597,
      -0.09648159502109993,
      -0.17970756569775392,
      -0.11145439271374602,
      0.2018973746593082,
      -0.20276481660273454,
      -0.10879726698747572,
      -0.006875752314083772,
      0.07639930778474283,
      -0.025417623348677393,
      -0.038995676849041705,
      -0.08843596003340293,
      -0.1506172734526775,
      -0.0186075765228515,
      -0.0489012176736828,
      0.2042761661542186,
      0.14983040003727296,
      0.19107244121430558,
      0.20896766346336368,
      -0.052534581964923,
      0.13295772739721382,
      0.19909502591785214,
      -0.009876091147708432,
      -0.11641294096391816,
      -0.20584564969100225,
      -0.10936949189911684,
      -0.1654682394588368,
      -0.18018983250532106,
      0.13789909082890991,
      0.21293476106627832,
      0.003319180029406177,
      -0.1380103018682891,
      -0.1844865513295647,
      0.17032663708369103,
      0.09519852857120767,
      0.16696336536064668,
      -0.03164377920847866,
      -0.1925056271329923,
      0.17561415362810837,
      -0.10230263466973617,
      -0.06940745323702008,
      0.057114181880450726,
      -0.15520483513440947,
      0.024235022852961002,
      -0.05293158365941314,
      -0.07787538528464419,
      -0.09806086032712853,
      0.07407033154353429,
      0.17147929583139446,
      0.09661393991683961,
      0.021759206173680046,
      0.02506308404168789,
      0.11893615470236854,
      -0.07573177695848188,
      0.17991550807254117,
      -0.09187678132175882,
      0.13246454107515623,
      -0.07500671878209647,
      0.18485901789162548,
      0.19463854020866164,
      0.14132794407200142,
      0.15888408533339646,
      -0.04121089301794642,
      -0.21434365005785186,
      0.09290511770729701,
      -0.12035447195350932,
      -0.1822110305587989,
      0.037171076663769426,
      0.18526997461804792,
      -0.03478105979473406,
      0.08619848593614968,
      -0.07903215464453459,
      -0.06871678732793157,
      -0.07486758499411103,
      -0.0881758655833641,
      0.06599300802002525,
      0.1158171645426452,
      0.07997341526168858,
      0.023784302233202048,
      -0.058414904990991195,
      0.08109073672497061,
      0.10442328050136493,
      0.010959667982213317,
      0.1368380857258408,
      -0.042677080863079614,
      -0.16538369253492477,
      -0.10930036627590502,
      0.14164391023564446,
      -0.20584613361891382,
      -0.0944853417577407,
      -0.13138050966921197,
      0.012176979021824075,
      -0.005562068171963058,
      0.014450783139841883,
      0.15073733514667423,
      -0.07336844950855623,
      0.20962157109137078,
      0.10394477973371416,
      -0.18217207117505874,
      -0.10148408453173476,
      -0.16605274029556927,
      -0.16137059165742546,
      0.02729751907634928,
      -0.09421911634100757,
      -0.08348919475895147,
      -0.07534670375002545,
      0.12716843301878358,
      0.1058561596187961,
      0.19093490844237707,
      0.011253522116595749,
      0.16879870957224577,
      -0.09276351244401258,
      -0.1821945386419581,
      -0.20460238620606702,
      0.1561198267614072,
      -0.047209404261312676,
      0.012688199136148104,
      0.08624727044953615,
      0.039944504837181344,
      0.021798961259346966,
      0.00435558590059501,
      0.1536062988062409,
      -0.03633566023852658,
      0.0460811810347703,
      -0.15145926359728482,
      0.1475848839972352,
      0.10808268297014281,
      0.19796374727952928,
      0.033915177133082425,
      -0.1328158892601921,
      0.20411144004087248,
      0.047458611587117755,
      -0.034554298343573986,
      0.02720748268862716,
      -0.05041226647244765,
      0.08140169176827464,
      -0.17050933949659097,
      0.10309991706754126,
      0.1494494215841791,
      0.17010856767543467,
      0.0038574261505708307,
      -0.21647620329322317,
      -0.036066237256849654,
      0.034256530364067755,
      -0.18153647706351295,
      0.10027039629899506,
      -0.15203274014720333,
      0.033130340539258285,
      0.1485496549323698,
      0.07548992191118645,
      0.20195866392292736,
      0.047760555110090724,
      -0.09177077359960047,
      -0.009656037636210979,
      -0.020225755740935575,
      -0.13116302789096163,
      1.3741803253009E-4,
      -0.12352172018118861,
      -0.11763417033734501,
      -0.13488669924657232,
      0.033436437218958476,
      -0.0625198250134596,
      0.006301510533807314,
      0.09275261209494998,
      0.10157666595062673,
      -0.094283271728006,
      -0.020275265412116328,
      -0.15729276730428635,
      -0.07798846380152416,
      0.13191806984975626,
      0.0822619840824009,
      0.1175554495299588,
      -0.07616100687547872,
      -0.08826515261729159,
      0.11715460003798231,
      0.020973783228049103,
      0.16553340933510738,
      -0.214811038052153,
      0.18244332443415504,
      -0.0014557195296626135,
      0.07961814616112409,
      0.13415554088446816,
      0.15768743826916523,
      0.18052885023797924,
      -0.1404263084865025,
      -0.12172654151812326,
      -0.03674654112258896,
      -0.05379447434492604,
      0.18769558976394315,
      0.057915058920397694,
      0.10906460285061928,
      -0.12956427381987434,
      0.044276937720234805,
      -0.20017655996227765,
      -0.04389746859620092,
      0.21092714382325564,
      -0.059684346370602076,
      -0.19339645387354307,
      -0.14079721047366223,
      0.10173278127956328,
      0.20006095111733804,
      0.2034707681892142,
      0.03481879454773981,
      0.0560441076578688,
      0.20885627786431618,
      0.1035916188017452,
      -0.06519424784820893,
      -0.1526277519642495,
      -0.15670564680835208,
      -0.1602261337211804,
      -0.13219709726743684,
      -0.1601937295246432,
      -0.16770345087520028,
      -0.13104894432869885,
      -0.17928828086562193,
      0.0835415454028294,
      0.05455379552232001,
      0.20736824941377915,
      0.1117006550682054,
      -0.05719253271404745,
      -0.13729473646336326,
      0.1547099054134786,
      0.012098920949819847,
      0.06976563182743886,
      -0.11968364246719165,
      -0.06679938641242639,
      0.1805382412903818,
      -0.08805264226847498,
      -0.12957223804708495,
      -0.15345035289817682,
      -0.20949440412195622,
      0.11830640796427164,
      -0.022296304917464843,
      -0.12887765556340147,
      -0.20915214204148982,
      0.0012127059602307089,
      0.03175257085043082,
      -0.15478002112896558,
      0.1433823713298882,
      0.09689090229717254,
      -6.13967121328246E-4,
      0.1792028575247734,
      -0.09977879268939441,
      0.036601863201101176,
      -0.11958087332109646,
      0.07324708073823274,
      0.1375253863361572,
      -0.095450605150792,
      0.13970534575051494,
      0.1892401265202235,
      0.064020351437347,
      0.16704901818365245,
      -0.13197409839912744,
      0.17453935778447197,
      -0.15328407490546614,
      0.04135554615466522,
      0.050822601084204694,
      -0.13415668155346,
      0.16854555101864563,
      -0.055783539628214696,
      -0.13770450478869753,
      0.1603158213423335,
      0.0924721921253375,
      0.06810193202801931,
      0.13728972736721243,
      0.028664715017734932,
      -0.11521869838278673,
      0.076504963746485,
      0.07873688313393432,
      -0.03888808762940929,
      0.19038957752635036,
      -0.2115998661174248,
      -0.046604326748730746,
      -0.08135045040898939,
      0.12041252427243596,
      0.052555423546158414,
      0.09020590500390271,
      -0.016040686900552936,
      0.19895148320517478,
      -0.13329326963295657,
      -0.2057811877222866,
      -0.10930794554906918,
      0.030738335608730266,
      0.09321247328225854,
      -0.10564033518683662,
      0.11895007837358804,
      -0.013473333437345136,
      0.003067793041549638,
      -0.011771090021832853,
      -0.19716856284443285,
      0.14485952196028065,
      -0.02229594486376202,
      0.1990505408346249,
      -0.0561992014682586,
      0.09789054489466734,
      -0.17816937482422696,
      -0.13124985304124465,
      -0.19815565148896921,
      0.18812114516832099,
      -0.04458744150495117,
      0.059983779949041444,
      -0.047803165974021816,
      -0.016418089762621768,
      -0.05440354191161695,
      -0.19111129654080822,
      -0.07896115389564326,
      0.20862913957340282,
      -0.030400614839805495,
      0.0725083718542299,
      -0.1571643940787371,
      0.08897685453396012,
      -0.03208479439486628,
      -0.14651109110537086,
      0.21046063778447036,
      -0.1324933624299685,
      0.022888660092188706,
      -0.05790783204714536,
      -0.02636699816794011,
      0.11879599709653724,
      0.10576886558236556,
      -0.1517342073272789,
      0.19688623391609641,
      -0.04592461889622815,
      -0.14057075653315765,
      0.15089525829468034,
      0.0694548681003396,
      0.1904333232710684,
      -0.0022504112251966746,
      0.012336816672728429,
      0.04333292628957122,
      -0.09690368533548213,
      0.1440215455309077,
      -0.20741201925999686,
      0.20530583819590978,
      0.006405220828244296,
      -0.08656545585456354,
      0.142603788290268,
      -0.1761095959552385,
      -0.07811198072578598,
      0.06553312940154085,
      0.07632105378566104,
      0.10189458471785437,
      -0.05527453608512123,
      -0.21157935995789665,
      0.07681572310177245,
      -0.06687710332452376,
      -0.011087383278633678,
      -0.17642619668233653,
      0.15933552712727708,
      -0.19304939095360957,
      -0.15297629672770058,
      -0.16502313272451524,
      -0.1797301252756689,
      0.1283784705008508,
      -0.2149855050299456,
      0.11117152517618226,
      -0.2112337868282641,
      0.18078156482407223,
      0.05273244928771978,
      0.09133448526430968,
      0.01442469404120747,
      0.007748014497781647,
      -0.17036359874827872,
      -0.09228970551513722,
      -0.041240552713285444,
      -0.019237957800113642,
      -0.19035911724162025,
      -0.1550098256718475,
      0.06985015805478387,
      -0.06244506924645771,
      -0.1275366312265271,
      0.06682236529828353,
      -0.17451730351617192,
      -0.12890800831805838,
      -0.00928959190824083,
      0.13871395085066254,
      0.054447891273106924,
      -0.18054064046996393,
      -0.20753504341474327,
      -0.05941704657402416,
      -0.07780069692593675,
      -0.023282589589287583,
      -0.16520843498575713,
      0.11883842553351207,
      -0.021241352632393795,
      0.12371675043492678,
      0.13731810392510022,
      -0.06264134195122265,
      0.17420011945289207,
      -0.20779314500783383,
      0.053795790366325175,
      0.17730695855067927,
      0.187719736184327,
      0.19710466217660652,
      -0.022541188398078615,
      0.06924043979639846,
      -0.05881721916231422,
      -0.16164881627429048,
      0.07540481338754454,
      -0.1675252091783472,
      0.1812978492752109,
      -0.21239786032409097,
      -0.18344386158412415,
      -0.19131021418022984,
      0.061706936770474036,
      -0.1956326965474688,
      -0.18468631474394184,
      0.052545450700118984,
      -0.21013369291483147,
      -0.12313278136521866,
      0.0879471149183714,
      -0.08085958678844152,
      0.054403412199702156,
      0.14619551986581994,
      0.026774587616400947,
      -0.08480643265276633,
      -0.18975429580627678,
      -0.11416338889598432,
      0.1642434453669561,
      0.10434740889056734,
      0.19335129861210135,
      -0.06978581780404261,
      0.1466008045855476,
      0.1218390846595038,
      0.18260562602365496,
      0.11836780538734806,
      -0.1155146480477656,
      -0.14707700530773524,
      0.09675670556069285,
      -0.1585816300514372,
      0.026259964958522397,
      0.012528655721443405,
      -0.04114396987480212,
      -0.20344927454113754,
      0.08230569686080194,
      0.0034588883294866257,
      -0.13426096401221305,
      -0.10220899352370238,
      -0.07941738882407726,
      -0.04962979279235996,
      -0.04269174002662571,
      0.20212818122400436,
      0.0058589101916652064,
      0.06581229985848322,
      -0.04100815638324801,
      0.14039415552170084,
      0.14306905581156973,
      -0.1649028879981087,
      0.01337261920935423,
      0.030057109978751384,
      0.020827371028907693,
      -0.13422037708848067,
      -0.0055471042212355826,
      0.11959298874663507,
      0.17297944290268571,
      0.20204907934083868,
      0.16481997726852451,
      0.04637213964206113,
      -0.09046262634262925,
      -0.100784350590741,
      -0.19154015434237792,
      0.034281480935381775,
      0.13873439601542406,
      -0.08625829954628841,
      0.06294415924520566,
      0.04276262224688768,
      0.07496563279128768,
      0.08606205242615902,
      0.1489436492219164,
      -0.005958635953293795,
      -0.08382217691678079,
      0.1479068199469041,
      0.10248127992773906,
      0.2003787223260106,
      0.07628902776664473,
      0.1871033063196574,
      0.05445198887862143,
      0.0445969652009203,
      -0.15123907246596086,
      -0.1875847211116931,
      0.07716704113108344,
      0.031076270895237373,
      -0.1437985124833097,
      0.0583693418522013,
      0.2034041766415827,
      -0.19193261206541345,
      -0.15625646052593156,
      0.10169938809652204,
      -0.0636799155680266,
      -0.1360937567302165,
      0.035207884474940526,
      0.19142071410586423,
      -0.024403437012572998,
      0.16187233989854596,
      0.20195278618894666,
      0.07749115852875318,
      -0.035123321741411195,
      -0.0063841636041535865,
      -0.07857821754507782,
      0.06491616352011861,
      -0.10807013474551595,
      -0.0378784576059876,
      -0.14733662610775033,
      -0.09403792356487597,
      -0.017380978998855934,
      0.07739704996628863,
      -0.2131243698219275,
      0.16835747316061947,
      -0.011039883026473352,
      -0.021870205086022387,
      -0.10222710111359537,
      -0.0872354659492885,
      -0.1353317569184027,
      0.17533399864213176,
      0.21319864413243092,
      -0.18924741628199535,
      -0.05142701390460577,
      -0.1008219091964002,
      0.12610152990500392,
      0.18021143049278252,
      -0.10354725216479804,
      0.17511343894915063,
      0.07802492970878552,
      -0.1773129664758658,
      -0.01686905603773184,
      -0.06935617304813604,
      0.08259736523067032,
      -0.11008201262573344,
      0.017627835772101086,
      0.0789812896514678,
      0.05789984740109469,
      -0.11702490109576928,
      -0.14735467649398587,
      -0.014669976447921257,
      -0.06900083632621601,
      0.05261043260593726,
      0.1487649632860639,
      -0.15793302196801112,
      0.012159839507667664,
      -0.20511325339016845,
      -0.006031105516608487,
      -0.02361835267440046,
      -0.07913705282631961,
      -0.04833464671333934,
      0.005767711433409789,
      0.15752660711526725,
      -0.06186369744966966,
      -0.14421927525546538,
      0.1900037227996972,
      0.06329040720792925,
      -0.02381149037158678,
      -0.1811553723293587,
      -0.053686233762912317,
      0.06304413330831318,
      0.006868150438464088,
      -0.09764587896889416,
      -0.024573658930307246,
      -0.1892572184885586,
      0.16510930433650386,
      -0.14771652027540016,
      0.1707480797771924,
      -0.09114884670007525,
      0.059900759710387746,
      0.1860736062782998,
      -0.11246700741298844,
      0.09145872055059398,
      -0.11272609560544569,
      0.0844615135076385,
      0.03823304190977847,
      0.14914581605339264,
      -0.07797272775489067,
      -0.0196092257949608,
      0.18098465079650947,
      -0.01892118269281276,
      -0.214022204790839,
      0.08697470161777346,
      -0.1997732092810863,
      -0.04956204340918363,
      -0.17198174020351464,
      -0.11111064544646632,
      -0.20433738972526527,
      0.053969786152232496,
      0.10805284159774933,
      0.20525566457901231,
      -0.19960138455937068,
      0.15161382084155858,
      -0.06337413143819415,
      0.07535875424370722,
      0.20714917178304007,
      0.21438533873774576,
      0.1680924576302303,
      0.06246482539966683,
      0.09257177798086028,
      0.06332207778059065,
      0.17846553244931992,
      0.16843536868538736,
      -0.15495731699858095,
      -0.2087557432113397,
      -0.21527069065196888,
      0.1393204989971931,
      0.0724358153124556,
      -0.2138161661614363,
      0.060580603535830196,
      0.20651562501973128,
      -0.05340224411756289,
      -0.061187834138937136,
      0.20083395535023532,
      -0.21247922741291686,
      -0.007912883249668795,
      -0.08300157762830154,
      -0.10920096071124907,
      -0.06816543909899006,
      -0.04682254477366943,
      -0.1664275918161745,
      -0.0573074182572792,
      -0.13490511901682997,
      -0.16048087152678742,
      0.1466491403132353,
      -0.20290746911165677,
      -0.08696536368357677,
      0.06941321847534901,
      -0.08353999298257547,
      -0.1989788858883495,
      0.10374180098926353,
      -0.16630926676622276,
      0.09371717266431032,
      -0.04639570991539049,
      -0.1434386958291724,
      0.13438315763945616,
      -0.009863984163273276,
      0.04801205588691368,
      0.04601281844161256,
      -0.03414858384729144,
      0.19690009475530865,
      -0.09589987415541527,
      -0.0322200798753714,
      0.08384239295874854,
      0.007817635654790128,
      -0.04034945804085474,
      -0.05892012404039648,
      0.023169192560456492,
      0.1645716496404858,
      0.1780030224813727,
      0.07263156458546574,
      0.02957654511249269,
      -0.1929110257717329,
      -0.13850241835349703,
      -0.17186458976396465,
      -0.09309025339394904,
      -0.05071134759072868,
      -0.023855104586864434,
      -0.02084759662494698,
      -0.17774669613205069,
      0.2125490406777353,
      -0.037786377869293425,
      -0.09213778537743766,
      0.1656682773906241,
      0.0960628562842826,
      -0.032932623675658024,
      -0.09670521399266362,
      -0.19554891459215262,
      -0.18783515762022845,
      -0.12637181135079031,
      0.2145127913600073,
      0.17433269578311364,
      0.1535193677449919,
      -0.14261543184871744,
      -0.10825848432818887,
      -0.19434285639116008,
      0.006984494690464554,
      -0.20667437842900727,
      -0.12554590084040645,
      0.15796381062482587,
      0.007494414422149848,
      -0.006454069330280754,
      -0.119266112378412,
      0.03447127053663415,
      -0.1347964857846981,
      0.10384313381417229,
      -0.19061132202969452,
      -0.05536219335220649,
      0.011611481023895615,
      -0.09389230835611191,
      -0.026876039684992525,
      -0.16272410005006965,
      0.09193628231248388,
      0.1479448416558248,
      -0.1396650308180895,
      -0.0030824742272311523,
      -0.2052573740669641,
      -0.19374459410358627,
      0.19110199240114342,
      -0.07283436018042216,
      0.02725551315384661,
      0.07877759619720967,
      0.03624922734608568,
      -0.012432191921322056,
      0.0636415677178375,
      -0.10575659388109138,
      -0.06367160179967296,
      -0.061223539666100696,
      -0.16085786496497312,
      -0.1673246914495088,
      0.11096717360694366,
      -0.18033767776471643,
      0.13594588589105952,
      -0.19111418862246016,
      0.09552913053248277,
      0.16040298567184422,
      -0.16535644410368125,
      0.20594947010994472,
      0.12763822183276277,
      -0.127758430722114,
      0.06846824018253886,
      -0.21053846743044002,
      0.012548913383684829,
      -0.05143702794470886,
      0.17912218132414823,
      -0.13307384481769485,
      0.14795098269943988,
      -0.04098930026791189,
      -0.10053247894095527,
      0.03349672656200506,
      -0.1573565126582013,
      0.16085304439429385,
      0.09160181787113345,
      -0.0037360520577886247,
      -0.14323415597587308,
      0.05992109896431738,
      -0.10982602630106283,
      0.03829324079756993,
      -0.13951372060616538,
      0.16369762520019318,
      0.022600132517825916,
      0.21101490591366065,
      0.04006120512374936,
      -0.06844554739118969,
      0.12993044818799418,
      -0.1776745939743571,
      0.09296100459175152,
      -0.0015696690256912782,
      0.036783406224041165,
      -0.15296742478081554,
      -0.16488764163002081,
      0.006634145715480849,
      0.14262871203590374,
      -0.165272285066895,
      -0.14104936187405626,
      0.21086704117897995,
      -0.14461121491378415,
      0.16303853958380635,
      0.21455728583982978,
      0.039063774000303836,
      0.10639819357848965,
      -0.0665489219926344,
      -0.06232477784659257,
      0.18502403531644476,
      0.05943457675991651,
      0.10682287468271742,
      0.02554593594078855,
      -0.14662532065445621,
      0.2106054211628879,
      0.08598184739198309,
      -0.196920638527995,
      -0.17299761543279746,
      0.16587787081496533,
      0.04294242857158245,
      0.02527350356334937,
      0.17052680585195265,
      -0.021372151408911688,
      -0.07439401251724448,
      -0.2094685689739287,
      0.0270332876107241,
      -0.21056290609511777,
      -0.19629185506539445,
      0.15156246261158832,
      -0.14179020609437742,
      -0.07386817015260944,
      0.033618885577800045,
      -0.016183700277354607,
      0.03400866742934669,
      0.11778299952856311,
      0.05016655365315478,
      0.05713502660939443,
      -0.08154949397460368,
      -0.19440373015939533,
      0.13190614218377297,
      -0.15698787232279926,
      -0.05563366902100131,
      0.004966565765864517,
      0.016563631223943026,
      0.05409021409067469,
      -0.048137091155499495,
      -0.07956787915925023,
      -0.12912179375439248,
      0.10401888878842366,
      0.16096991819770598,
      0.1487636378542154,
      -0.024523074749546764,
      0.15636507117364298,
      -0.20708377332691982,
      -0.02405416220049794,
      0.21176691528495276,
      -0.07149484831232428,
      0.178181463464369,
      -0.08598113586104561,
      -0.018440178812124397,
      0.21236577777498025,
      0.06629226632276855,
      0.0019397295166493356,
      0.0464429558560395,
      0.1448139487526975,
      0.023603283205711284,
      0.051162530687659774,
      -0.01651142830498778,
      -0.10192004572688829,
      -0.1472176299040423,
      0.19576705987975537,
      0.12667482866983623,
      0.14593552806660479,
      9.90349589624101E-4,
      -0.014396614744394132,
      0.006765499602093716,
      0.04731131908436917,
      0.15373305705713505,
      0.1070144423898731,
      0.06922830311248554,
      -0.06539323561440574,
      0.1162524699755115,
      0.11258871620071467,
      0.08431022442141925,
      -0.024272431407273753,
      -0.13234561321407545,
      -0.14169944229076298,
      -0.1407923299369716,
      -0.13870882358816727,
      -0.18930637035797368,
      0.15480438257285659,
      0.15303684133025616,
      -0.14691533540638285,
      0.11270938691458296,
      0.14275594880069273,
      0.061785461408487036,
      -0.1976865403424959,
      0.032926912241679235,
      -0.09631450053574585,
      -0.19014483360827283,
      -0.03426402288046826,
      -0.07190919063631587,
      0.012064941179950217,
      -0.17613992649289784,
      0.06668843930741927,
      -0.17013545721720877,
      0.11340746709210273,
      0.09385120966061686,
      0.07811804710826961,
      -0.16247737445194801,
      -0.1955544478975027,
      0.08267531586514928,
      -0.06675335869110666,
      0.0970327252453663,
      0.12574201961291884,
      0.04337539258722825,
      0.04509432357108614,
      -0.011499563294794901,
      0.21571355121228117,
      0.021117330466854878,
      -0.21279550264102026,
      -0.04308597259074895,
      0.17054670566679972,
      -0.06242061671374749,
      -0.0957972739553027,
      0.04073501892358325,
      -0.11683956432229217,
      0.032394478579873626,
      -0.05680111898393453,
      -0.07888875517403382,
      -0.059573746740628514,
      -0.14249046961826262,
      -0.04983072715167672,
      -0.14172456863183852,
      0.022405873488791944,
      -0.11666529055484365,
      0.1753766223881886,
      0.11961822980039175,
      -0.1312101966073954,
      0.0636389404970448,
      0.1032653838864808,
      0.1680406738575723,
      0.08391457655745208,
      -0.0736528466339709,
      0.18626848309704921,
      0.17526933097365857,
      -0.042562151386827146,
      -0.16431892845274654,
      0.156402914546978,
      -0.14233343165239642,
      0.11404770302824555,
      -0.10504602890917973,
      0.055392067197477274,
      0.04847662437466768,
      0.20133279723197875,
      0.18903529670834715,
      -0.003961979594894083,
      0.11722081002450904,
      0.06602301498600946,
      -0.11465605896159119,
      -0.18321858884823988,
      -0.013420792425668793,
      -0.16174300793523663,
      -0.031002370013050257,
      -0.13376640216046545,
      0.18984342180054056,
      -0.16219547236605125,
      0.007410978002212937,
      0.02097028115943031,
      -0.014554768781375044,
      0.12053120567869438,
      0.04686013636428912,
      -0.012542226199610068,
      -0.08448823805030378,
      0.02508159450106187,
      0.06013378455936694,
      0.0490571153800434,
      0.14524628442109158,
      -0.17423772790438036,
      0.13938626504688276,
      -0.18402563020726054,
      0.1116713702916288,
      0.021648780328785228,
      -0.1716194612627619,
      0.1479992008611594,
      -0.053524932747067516,
      0.1116423564136916,
      0.1612028826050285,
      -0.06398904315939263,
      0.16996831586974318,
      0.16704312291761905,
      -0.15954978263755829,
      -0.15885650008820257,
      0.20969562396818223,
      -0.07896653045812388,
      -0.05863046153534279,
      0.15886348586762503,
      0.15080055892996344,
      0.02711693670370391,
      -0.06416057003482792,
      0.1986860336299138,
      -0.08057427952121021,
      0.05790413773887906,
      -0.09610750278029673,
      0.0687182228198687,
      0.04322712694778011,
      0.15692170571996958,
      0.02917957444870481,
      -0.19251526367752642,
      0.11938833629396381,
      -0.04506548418031733,
      -0.20896057201812146,
      0.135983720300227,
      -0.20865533244282417,
      0.08110033930027191,
      0.2033268287721897,
      -0.06434729097912187,
      -0.08517779453312863,
      -0.15930207801512294,
      -0.02222063045251549,
      -0.10487265371437039,
      -0.10062023097075551,
      0.057669666543876424,
      -0.02908350580920338,
      -0.14540369006746934,
      0.03668367644284812,
      -0.09504246921418488,
      0.07463401732192179,
      0.18456965502297187,
      -0.062077588866448874,
      0.0099094215345234,
      0.11604835915514025,
      0.1954949639981937,
      0.08596158330895451,
      -0.13978700141879877,
      0.016784103631937913,
      0.09995984192806476,
      0.1762077268137691,
      -0.05535547851464295,
      -0.18929500439094307,
      -0.15047956848589417,
      -0.06670868310007427,
      -0.19219110292620484,
      -0.14773881635652597,
      0.2050185664392035,
      -0.017736557608987652,
      -0.21172996293527294,
      -0.0047080633247004455,
      0.17517177904819306,
      -0.1641625409723554,
      -0.03893178820266616,
      0.17947355047864103,
      -0.16331088406590225,
      0.16438737718193616,
      0.14422322704875853,
      -0.12776976677901147,
      0.07346661151098274,
      0.003845462821546297,
      -0.08274352141081623,
      0.09641549295680132,
      -0.16772333372513493,
      0.08118976600504932,
      -0.04530513809026815,
      -0.1164398884077014,
      -0.19201448792520448,
      0.024503085718005774,
      0.01048588990554375,
      0.024467364170262906,
      0.030861233248597048,
      -0.058739901953103496,
      0.14800643675467226,
      -0.029956537272286116,
      -0.054907192124948295,
      -0.04195613879039484,
      0.02470610906424492,
      -0.009548306319658612,
      0.062081356537558946,
      0.20222496125633746,
      -0.055327479542661845,
      0.2040396462044277,
      0.08444313272446416,
      -0.16687456308423784,
      0.18046105888168337,
      0.08033361352714483,
      -0.08071625989890785,
      0.04650883109019002,
      -0.1167792384726839,
      0.17136469674356516,
      -0.006926661350963231,
      0.005934005007083548,
      -0.10893530691985916,
      -0.07308509173605887,
      -0.046624443341882676,
      0.05045191664628465,
      0.1873460754436512,
      0.08078764228825311,
      -0.19754585108910075,
      0.19257943631123767,
      -0.14860586893191868,
      -0.16871044744474284,
      0.03196982368905127,
      -0.017727195280624775,
      0.09172382451507247,
      0.1928804850431858,
      -0.06675605096189216,
      -0.14426124362345555,
      0.14037064411080377,
      0.1639035375198544,
      -0.11826948093468126,
      0.09312548225794928,
      -0.04505415794797052,
      0.03133102376443578,
      -0.21131091814949138,
      0.13668234166859713,
      0.1168330728089346,
      0.129442318532455,
      0.14200132824316394,
      0.08433377743718176,
      -0.1309450772065692,
      -0.1858933944691587,
      -0.004966466462905661,
      -0.1621579912552733,
      -0.06541610969742201,
      0.11911113976758805,
      -0.13105928950927703,
      0.0014319221472519073,
      -0.15826315282799544,
      0.15491912452568748,
      0.08517297299311591,
      0.15298100088782937,
      0.14653937140013076,
      -0.14222886898400336,
      0.19404552537339173,
      0.05267702230486501,
      -0.19272107199672212,
      0.09080951823617903,
      0.08452385882981336,
      0.041313651887037534,
      -0.12671697157656056,
      -0.18290843602541892,
      0.1335001692368513,
      -0.0779458950467809,
      -0.004279283983931431,
      0.09511341368522111,
      -0.15610020392226082,
      0.19023009565047713,
      0.18175245232863238,
      0.05073846723412803,
      0.09790497394590011,
      -0.012901662300844274,
      0.1328123489344172,
      -0.04417251070970982,
      0.03173250971160799,
      -0.15545621243355767,
      -0.05752885880677261,
      -0.19086061951255795,
      0.18135246588453466,
      0.03190893703731135,
      -0.051236767420629714,
      0.12719541832422834,
      0.14597400589029721,
      -0.0997164636063029,
      0.12082863241885497,
      0.10057916441391415,
      -0.0973550254934205,
      -0.18576338681531873,
      0.1179155818602832,
      0.11514102566868548,
      -0.16041277735035311,
      -0.2114566554368496,
      0.0902125836920982,
      0.21530487189481554,
      0.11752222384470393,
      -0.10839841166571137,
      -0.17135858020583172,
      0.1227975182490145,
      0.002493466636466407,
      0.03186726356069006,
      -0.02606119109341118,
      0.12218037991169381,
      0.13479227698363386,
      -0.07938557430601095,
      -0.1516167579191725,
      0.16627956723935752,
      0.15109809020113227,
      -0.05276046310476437,
      0.18150545852457653,
      -0.028924974188589914,
      0.06500756726669668,
      -0.020833677071122714,
      0.13842748351993153,
      0.07236456271067584,
      0.04309937978350184,
      -0.003412452097022012,
      -0.1947449598357609,
      0.16677928297529002,
      -0.08096494455961412,
      0.1771040230608477,
      -0.19920088675440922,
      -0.019111559168010828,
      0.12014497397791393,
      0.20742501953783413,
      -0.018091112577135277,
      -0.040671262368245004,
      0.07250324379342496,
      -0.008564861877872504,
      -0.11329674025561123,
      -0.21612345776020356,
      -0.1807197453049235,
      0.05092219605374784,
      -0.18785498392961933,
      -0.03491362352827898,
      0.02613395370744201,
      0.16940146690899213,
      0.17791294717445486,
      -0.061202713455412394,
      -0.16941021196597184,
      0.0767908909123001,
      -0.18055596143194458,
      -0.14823236477315316,
      -0.1385645564724164,
      0.19171844426997078,
      0.21331483332443837,
      0.1394020630865103,
      0.19726659640545616,
      0.08345997640243738,
      -0.10814455415980033,
      -0.15064641147396501,
      -0.19377999639360358,
      -0.015010366359110267,
      -0.21436733678211128,
      -0.20291642369433044,
      0.11900396499007407,
      -0.031399379994592996,
      -0.023788232754760053,
      0.13465909669173312,
      -0.0721471356086476,
      -0.041873699829568595,
      -0.1292329136120262,
      0.06381121647108615,
      -0.20130763611152028,
      -0.012965930743186138,
      0.21122875218947199,
      0.03980456854564643,
      -0.084670943448314,
      0.04104584596367858,
      -0.13570915336892514,
      -0.12526074792641345,
      0.017517542947830478,
      -0.1506157085597658,
      -0.10774123671050985,
      0.009118483378179498,
      -0.1144468667040188,
      -0.1887856798610551,
      0.09827274175793457,
      -0.18554095776939888,
      -0.005051174872449771,
      0.1002052943725201,
      -0.035129500145933606,
      -0.18902839768760654,
      -0.2066514374952653,
      0.16980026974325255,
      0.10031074012936994,
      0.006307046054571136,
      -0.17247513857263425,
      -0.20371345195436893,
      -0.003725474342562568,
      0.0426908189193099,
      -0.10388374453582207,
      0.20925747990685548,
      0.05240321745583135,
      -0.016971690152568053,
      0.05219082693610552,
      0.202550539858067,
      0.16743914047440003,
      -0.21446563805897967,
      0.06917529075961712,
      -0.09009754914338491,
      0.025159171825944432,
      -0.05490550903608424,
      0.08146100600158976,
      0.08249828986215044,
      -0.1155647519908533,
      -0.17055373960228412,
      0.20619894594226776,
      -0.07426574863152097,
      -0.10165678617463618,
      -0.10986029123492774,
      -0.035989980919691245,
      -0.1216610355667134,
      -0.12875327414573762,
      0.21095106756607238,
      0.15029824192585658,
      -0.21271053634439077,
      -0.04408507212433982,
      0.13343382365918874,
      0.07325704191462137,
      0.1412532025677686,
      -0.00789601963322964,
      -0.03163762831515246,
      -0.12537843100309196,
      -0.14530730019470184,
      0.08691221697718662,
      -0.08063725634293054,
      -0.0700489268453566,
      0.03208968984525176,
      -0.11791645373004607,
      0.19852798088651166,
      -0.1264329343036572,
      -0.09505220793454595,
      -0.038091819047463726,
      0.025405332762922117,
      0.07109461110036894,
      0.08899698784756996,
      0.04669028753265972,
      -0.08375443955364748,
      0.1019065138944322,
      -0.09686363778174195,
      0.06494834728246576,
      0.2129050160470876,
      0.16047888487764925,
      0.14335214849119812,
      -0.09964626284620756,
      -0.1265155431668431,
      -0.1955127602166059,
      -0.04481037902724255,
      0.10502615809754542,
      -0.19230456452583397,
      0.06775046946331151,
      -0.17191679863649673,
      0.14734093465722728,
      0.1589393302234807,
      -0.17859399363923048,
      0.012253976008144402,
      0.09966246415375687,
      -0.15739937199370369,
      -0.07413494652980923,
      0.13746945890796222,
      0.12934592984436036,
      0.02335475712283408,
      -0.03146431188738247,
      0.004924391504992798,
      0.005127866838383455,
      0.10593086154738277,
      0.048176794217300395,
      -0.15738350787806255,
      -0.07517192154295665,
      -0.17594105087852735,
      -0.2100044362366981,
      -0.10516584792273473,
      -0.06172173097887615,
      0.136805683690537,
      -0.037385858443656494,
      0.16062804335822226,
      0.20592917483630876,
      -0.10575426016470801,
      -0.1709206736285157,
      0.1053686455796253,
      0.11213787226245422,
      -0.1070046949366224,
      -0.1742395778391989,
      0.006835125523939639,
      -0.10474422921432014,
      -0.0889489026777992,
      -0.19361761345638334,
      -0.1295650923950254,
      0.14863005303685003,
      -0.17766120231827473,
      -0.20631770998949794,
      0.20775052665927554,
      3.076332196657594E-4,
      -0.1533528085745806,
      0.16141567485824157,
      -0.19127434686844147,
      0.1381856487102988,
      0.1770507077368502,
      -0.03719488259641657,
      0.0866408820037842,
      0.027938602784702726,
      -0.20228359761447862,
      0.0988523228308664,
      -0.01627443605226947,
      -0.13796622665486913,
      -0.04850616777972672,
      0.13828642089598284,
      -0.18026163923985322,
      -0.0967358531343208,
      -0.005965526322005893,
      0.11123863026599853,
      -0.026595049799622683,
      0.062449270063621415,
      -0.1706369132609672,
      0.09462923475918797,
      -0.014280888557017507,
      0.0740859982095444,
      -0.20293034473290134,
      0.17075881403778628,
      -0.21242930736988958,
      -0.20480813716177582,
      0.21108497161148884,
      -0.19750701623303585,
      -0.20137871481092723,
      -0.04862636870533141,
      -0.1960903490748295,
      0.0463404862968885,
      0.1460847052976386,
      0.028095533841774156,
      -0.21009056875601273,
      0.0699372911340301,
      -0.04724474763460712,
      0.1407475025095313,
      0.02175179510851455,
      0.08339963187801,
      -0.12661195840188505,
      -0.05767934230541269,
      -0.1795884423503808,
      -0.1755390262623975,
      0.09494216395738544,
      0.17175614195450437,
      0.1768253315419456,
      0.02575195705625019,
      -0.03563525386869279,
      0.21384825770626684,
      -0.15419829011802627,
      -0.20615503271737418,
      0.10022888889672907,
      -0.0055252437818802125,
      0.10262722301353158,
      0.06266084529307062,
      0.16913430222412082,
      -0.0517646916641967,
      0.20356017215305452,
      -0.06459917785641078,
      0.14606139248795055,
      0.197812432811355,
      -0.0073435193217485095,
      0.1650040741753835,
      0.03337672518782067,
      0.0306656858563861,
      -0.10962244108980752,
      0.15512725515732198,
      -0.11569572104245848,
      -0.09071730117821367,
      -0.02192745911286717,
      -0.05502738736171556,
      -0.015435266021326999,
      0.21383517337091593,
      0.12627078236829217,
      0.11012408822413902,
      0.1498363308381033,
      0.1044992270654139,
      -0.10200528674981706,
      0.08292966313772551,
      -0.10521825234224887,
      -0.10887777243298083,
      -0.18271388574178646,
      0.058043785556481015,
      -0.07261274396257383,
      -0.18868530302462153,
      -0.19460019476055376,
      -0.02187903783355502,
      0.020273117084477682,
      0.05338154009874299,
      -0.03164397306156422,
      0.062474277043110066,
      0.026080670013825052,
      0.08157433635820358,
      0.12777783046606286,
      -0.18842593112991346,
      -0.20014781059675027,
      0.13883582841845107,
      -0.0018739863109560329,
      0.16755250339472486,
      -0.09533567611291416,
      -0.03219314197062467,
      0.07694588614910383,
      0.16233325337938884,
      0.06182774279855677,
      0.04827741087339263,
      0.19273548845238916,
      -0.06676603281400226,
      0.1794242154580716,
      0.02734327673753692,
      -0.06112327508242227,
      -0.21235461689139795,
      0.007953575923033696,
      -0.047476486065812534,
      -0.03793405581906356,
      0.16102419577526064,
      0.07234630144458967,
      -0.027243686929646377,
      -0.007729146474049542,
      0.08019436484555911,
      -0.06327423362305115,
      0.15360159423219663,
      -0.14324374286868388,
      -0.21106147344797385,
      -0.05004746734597029,
      0.1454392812895041,
      0.17118417860886567,
      0.14201050190213718,
      -0.008003581789720382,
      -0.09470696377748947,
      -0.17591916982842074,
      0.09526924666443895,
      0.15893214376069328,
      0.1429141148673694,
      -0.06786318217487969,
      -0.13508732254712447,
      0.053558024388209086,
      -0.16391872500295446,
      0.1454460413060595,
      -0.11984649944618431,
      0.03031059033993322,
      0.16306674256581125,
      0.059445271597533184,
      -0.0632440274682117,
      -0.06757220183948903,
      0.1684356999134369,
      -0.08482942007218727,
      0.0432049716351979,
      0.16612657011340073,
      -0.0885560777738165,
      0.023532256337407187,
      -0.07463401053649088,
      0.00783971457412072,
      0.026996734986387078,
      0.15282405756732978,
      0.14367121287566206,
      -0.027489958419290694,
      -0.014709298048772412,
      0.2036784613189261,
      0.030421799180694625,
      -0.04687056632674419,
      0.2053917171143915,
      0.13010556598458342,
      -0.05127926041268274,
      -0.16818400684457865,
      -0.069056511192843,
      0.2084006922683518,
      0.07744641943508587,
      -0.19885956605243607,
      0.17832139340143058,
      -0.14979222285620494,
      0.03115835610434839,
      0.09421316562905055,
      -0.1631847822224327,
      -0.20966170812049512,
      -0.17137782718547465,
      -0.08619534007474625,
      0.17239465848584182,
      0.07523086861034797,
      -0.08375266114493635,
      0.002698216536515835,
      -0.12490619958762804,
      -0.13248368677842515,
      0.03026147810667973,
      -0.007094452254045536,
      0.16488280783027662,
      0.06571732117236914,
      0.1797990256290609,
      0.20677132618850627,
      0.10775695990411868,
      -0.027931174347388787,
      -0.17209738879815561,
      -0.024639248036169153,
      -0.08782585788475678,
      -0.2001773622310219,
      -0.14750131865953603,
      0.0708942544673822,
      -0.050329073597066065,
      -0.18591057631602906,
      0.14465953193567274,
      0.13544989769964846,
      -0.11216476145847165,
      0.12449623830561798,
      0.07926172449164468,
      0.14466382749354825,
      -0.1791177981685351,
      0.19916053464276026,
      0.21004762293973553,
      -0.010270521501603819,
      0.08735012683140167,
      0.028465138241025145,
      -0.02406963740730103,
      -0.08170993986456662,
      -0.1657634792738618,
      -0.05459538978133624,
      0.08250974948533732,
      0.038757093661969194,
      -0.17296111782457685,
      -0.13865417533526142,
      0.17873799059731868,
      0.14778016132283836,
      -0.0010084089637760474,
      -0.15642742510819366,
      0.033472313745930266,
      0.09569560857083706,
      0.040860252461647456,
      -0.054108993551657325,
      -0.18765474708543178,
      0.08992396295191599,
      0.034152782991142744,
      0.13021397022967493,
      -0.10662993493256007,
      0.18447660641016625,
      0.16077607896127669,
      0.16010130734279973,
      -0.009694972862309276,
      0.014013835369816124,
      0.024603153525977778,
      0.13587439474983307,
      -0.163719531718901,
      0.13916365587642746,
      -0.0388577511762217,
      0.11200726341778319,
      -0.20973324801604748,
      -0.02008647501801536,
      -0.20274934108232562,
      -0.21474793008183848,
      -0.1420650613134844,
      0.20658669718401776,
      -0.03165127252352001,
      0.07119281359815952,
      0.19934720831526823,
      -0.16324961924181067,
      0.19882109195828976,
      0.13642251570456868,
      0.07326679535170458,
      -0.13358011302379985,
      0.2073619386956225,
      -0.10170427055900937,
      0.023420904301768353,
      -0.12440692405244243,
      0.03889882832961403,
      -0.17851940571211047,
      0.17079492188584885,
      -0.014643268728841335,
      0.19616516661475272,
      -0.18283574809107095,
      -0.09472372517068067,
      -0.05432045397891708,
      -0.10942088033328454,
      -0.052340135553750305,
      -0.06650319362620224,
      0.10689608307332052,
      0.1762568016338983,
      0.05439903356346534,
      -0.03906458424721196,
      0.14816537331935478,
      -0.19936310331936843,
      -0.18464699848614352,
      -0.18701118787916607,
      0.10701354369737379,
      0.21151771090309243,
      -0.056635755436566904,
      0.034373836695621024,
      -0.16557446369952,
      0.15301878713441655,
      0.12571378049971424,
      -0.21394050227028716,
      -0.034211109966743175,
      -0.04180984041633709,
      -0.20391878811090464,
      -0.0122127352878523,
      -0.02856304567851478,
      -0.1177270518902833,
      0.14788517104695506,
      0.02700721770539538,
      0.17356735845854118,
      -0.14809962973663202,
      -0.13859560789070782,
      0.15088172599672087,
      0.18861582056421525,
      0.19819149163914704,
      0.1058752391397774,
      0.1092832719270275,
      0.20233322207913332,
      -0.19722994230334878,
      -0.11060083745422775,
      -0.004147154384389229,
      0.11527072715766726,
      0.00754530202875886,
      -0.1982412678355637,
      0.053385564891376885,
      -0.05755659274274555,
      -0.174842868943609,
      -0.10099442042224298,
      0.14117668678966064,
      0.0036534927987011134,
      0.07094628046232751,
      0.18859271430352445,
      0.1510103907871945,
      0.019855139163445973,
      0.2086153542649896,
      -0.17676396725900073,
      -0.09479326066251999,
      0.07096997339599284,
      0.13215971154209702,
      -0.00774420995914793,
      0.06782468815995399,
      0.048323909349971744,
      -0.18905837379911705,
      0.14453541611813317,
      0.05933250671078452,
      -0.16598271777306456,
      0.2122303085865546,
      -0.05872901263895855,
      5.379106167286152E-4,
      0.041478771562569045,
      -0.1773135263981608,
      0.11202009740849769,
      0.1871119550873678,
      0.11740481914517722,
      0.04853044749817734,
      -0.007875308682524285,
      -0.1559975222162314,
      -0.07436935434282965,
      0.10915985380547202,
      0.19985744698261423,
      0.08262681009034192,
      0.13226504007353648,
      -0.13964090028205695,
      0.1605846475022004,
      -0.20645906194524924,
      -0.0033492019852870702,
      0.025941200980875406,
      -0.014156382450065563,
      0.007131741478070386,
      -0.11586621183974914,
      0.10180796919917498,
      0.08931531222603531,
      -0.14622659085614778,
      0.07635762770322344,
      0.1236988939959314,
      0.057998504938613,
      -0.07252659510677595,
      0.09039973139903304,
      0.1359281216664178,
      -0.048441580599559414,
      0.16359883263242306,
      -0.004757227367857775,
      -0.03266084971655889,
      0.2107672095248244,
      0.13307257056953573,
      0.12321695809933089,
      0.20261044848076323,
      0.2027470400630315,
      -0.1748900566614603,
      -0.19350652417829917,
      -0.03987408570830084,
      0.1570771232485054,
      0.1073500987383729,
      -0.20181968959033925,
      -0.09748365498783908,
      -0.03476165132082584,
      -0.17329629580082823,
      -0.023427418219753526,
      0.016222158702117934,
      -0.002513898736319936,
      -0.0010528595298980037,
      0.11199876266343597,
      -0.048958119550153445,
      0.0017810880955972108,
      0.17044446627264673,
      0.17381934114157474,
      0.15771134983061044,
      -0.039026161990794866,
      0.05307586384340038,
      -0.12729388338543418,
      0.2081454202551978,
      -0.11289549879576051,
      0.04153709780270956,
      0.14792762871104467,
      -0.006829646283012386,
      -0.09379268388144085,
      -0.03321877945591156,
      -0.0033667632817817317,
      0.08850298664754461,
      -0.12012200895150627,
      0.006727721063767456,
      -0.19377959708576106,
      0.20529529514919,
      0.04638948710024596,
      -0.1928657665499882,
      0.07481916134589059,
      0.20349272612208855,
      -0.08098907961560683,
      0.14055101144454277,
      0.03101976617466437,
      0.19006900317228506,
      0.13892679124198773,
      -0.0904960269813831,
      0.06561699361822002,
      -0.13536376945562809,
      -0.032142297258162894,
      0.21095131419950033,
      -0.17151290884882747,
      -0.04538216966007899,
      0.11856927747186782,
      -0.12061580198195769,
      0.15991968175024682,
      -0.09119075830833434,
      -0.024031222040475697,
      -0.06318283418680246,
      -0.203019918180911,
      0.19973994441888412,
      0.06477776086039902,
      -0.03940669281047593,
      0.2009249763177723,
      0.06219071535917428,
      0.001345035619762569,
      0.03629778240908346,
      -0.07242085199014686,
      -0.18250744768831773,
      0.1004021342446085,
      -0.08632237500932985,
      0.14861227413050568,
      0.08675642718151108,
      -0.15463218206776352,
      0.1298838565256166,
      0.20928544447266392,
      0.10177110756973953,
      0.06098227208949494,
      0.18288088911785896,
      0.15626818028568676,
      0.20497031566507093,
      -0.17410617009796145,
      0.0627927937958713,
      0.062277831614521245,
      -0.03667030886477157,
      0.18127473139443304,
      -0.1540088479163096,
      -0.19932367010569593,
      -0.12931883699269264,
      0.09212995239943103,
      0.06112153928874578,
      0.09208518885285047,
      -0.1090766544770505,
      -0.17626574226550437,
      -0.19396415002329287,
      0.01295423408768634,
      0.12466363726163207,
      -0.10972900368174114,
      0.007623092789582869,
      -0.19350860977739923,
      0.032553284227459456,
      0.0421864614098266,
      -0.12653537649685803,
      0.10694332673010434,
      0.1590637288949209,
      0.029186814140108458,
      -0.03673335790436277,
      0.20068818231290173,
      -0.037302786293235385,
      -0.13928882232128886,
      0.1463480449175972,
      0.16383172995291398,
      0.040884216851470895,
      0.2123559145041218,
      -0.16113235969571088,
      -0.12715284597829302,
      0.015431393462693205,
      0.07170798042278506,
      -0.1161349200109314,
      0.08738409245521248,
      0.002264146260515909,
      -0.102008962473427,
      0.12644130521125027,
      -0.14568971015680193,
      -0.1585229111458229,
      -0.11347017763666134,
      0.16698672869258954,
      0.17579942892697206,
      -0.19605991789030502,
      0.19922501197884515,
      0.07902145856683554,
      -0.029101240666308398,
      -0.08525033066026855,
      0.02614996217159568,
      -0.13897917294170303,
      -0.06277006343884986,
      0.054479698582018704,
      0.11435159943012843,
      -0.20476834681207493,
      -0.029017714365575098,
      0.13089868888902415,
      -0.033181920250755975,
      0.0506857168370434,
      0.21148812925457441,
      0.11491525057662336,
      -0.02905937506501352,
      0.21578035813503746,
      0.14465809612593325,
      0.1408851335882599,
      0.11358810352016682,
      0.18369372670360815,
      -0.08768355012918722,
      -0.11597389086761463,
      -0.03883692269772426,
      -0.08955474924436929,
      0.16375619759575574,
      0.10871777855988488,
      -0.13573102995337372,
      0.010980278199654026,
      0.030469123005093357,
      -0.12260840173087631,
      -0.05955112657717082,
      0.1997325575684432,
      0.1767931696889742,
      -0.17530207559622002,
      -0.04488904317972933,
      -0.130667313691648,
      -0.06670399142022168,
      0.1837664711242216,
      -0.15835052372348452,
      -0.047238001595004214,
      0.07400859542617247,
      -0.1570595923282821,
      -0.165727571440656,
      0.18766721178134801,
      0.11662282051204628,
      -0.14339024943867223,
      0.16513100432590386,
      0.04931128852714248,
      -0.12592546766038493,
      0.1929504403538683,
      -0.03007588293139285,
      -0.09258223208548319,
      0.12522545944952232,
      0.13890197960721493,
      -0.05158683010921811,
      -0.06989780507367777,
      -0.03780520112865643,
      0.11751774774050658,
      0.05554219368957711,
      0.11094374481995409,
      -0.04797877109870219,
      -0.12780592018848486,
      0.11952716785868298,
      -0.05542193718734853,
      0.017563782572142944,
      -0.20063361186421577,
      0.20466452756217,
      0.20755844352208994,
      -0.08904102588588084,
      0.1279230015260814,
      -0.1050779047611071,
      -0.0690102419825917,
      -0.093465159589132,
      -0.04890070450594172,
      0.2112822599517876,
      0.11579494153946504,
      0.14902127050184508,
      0.13325321579727925,
      -0.028235453147006873,
      0.16031769369136742,
      -0.13607637178239096,
      0.014369780759877576,
      -0.14547975755393172,
      -0.09486825294590678,
      0.20497950366645676,
      0.013934733304641761,
      -0.04104547038399223,
      0.05849291684251143,
      -0.008798831395261886,
      0.15259201720036938,
      -0.1295880608442793,
      0.1599964688507237,
      -0.003178723175717685,
      0.004159037998363091,
      0.11609448108181661,
      0.1889258928406183,
      0.07460982819914078,
      0.20540036883760035,
      -0.14227449666518718,
      -0.05807140915988229,
      -0.16909150687358987,
      0.17106696587991874,
      -0.175619461282693,
      0.09522342371619955,
      -0.03153645163104052,
      0.1396507893008148,
      -0.1146440321881524,
      0.15935317727687334,
      0.16526642164611535,
      0.04667571883181046,
      0.044070280053304794,
      -0.13232787541401392,
      0.031120995262444273,
      0.1448199606447663,
      0.11968346569216462,
      -0.08892683839977511,
      -0.19740611525902008,
      -0.16669077452593412,
      -0.19907371248033132,
      -0.01807387970246163,
      -0.08966435616113899,
      -0.07205054648483042,
      -0.17324660134683648,
      -0.10838349042302466,
      -0.04290816445317269,
      0.1937291495105212,
      -0.19803887925931388,
      0.12876778282018916,
      0.14511776898188503,
      -0.09737605515040551,
      -0.18953577362033563,
      0.20803943935962624,
      0.0968255413355523,
      -0.08951913190045338,
      -0.024712120533803644,
      0.027126906766110626,
      -0.09883385856391276,
      0.146522818089554,
      -0.10116678841128883,
      -0.015374925678691198,
      0.15042744532310984,
      -0.09951163075100747,
      -0.07921874419248423,
      0.12464443609046763,
      -0.1463621349150726,
      0.03854046528810082,
      0.08615903823778939,
      0.17799166150413462,
      -0.04049805397267625,
      0.09553763010421754,
      0.10817715397898517,
      0.1983202643918864,
      -0.14629389988029445,
      -0.13732661348477138,
      0.19074685316446863,
      -0.12495220935522279,
      -0.04327219413358835,
      0.05625241135782602,
      0.035440989738846435,
      0.038215247668164726,
      0.17616777380275653,
      0.14496006023608635,
      -0.07568218218501796,
      -0.16282898168357998,
      -0.20330886729723638,
      0.006000346676346885,
      0.06079326879479938,
      0.01024066875246038,
      0.09817173329097004,
      -0.20583506770392135,
      0.07844033458114455,
      -0.1175608758976834,
      0.0019762620269899167,
      -0.05455404532812738,
      -0.12637276912142215,
      -0.1646662187482315,
      -0.20825309104073975,
      -0.14568334323866833,
      0.012407906656627443,
      0.1886825501730975,
      0.10395226768807211,
      -0.18712733476077603,
      0.10120078522541345,
      0.09274964510200659,
      -0.07028014965042509,
      -0.133120820403197,
      0.158635874497732,
      -0.1791158210945933,
      -0.1436731241911888,
      -0.133465194317002,
      -0.20016878484283454,
      -0.19487836118739182,
      0.00805529596054419,
      -0.07065027254939948,
      0.18336879537216164,
      0.1841250265899355,
      -0.18451199565828336,
      0.14054116082454862,
      0.008082769386339506,
      0.025679792251288497,
      -0.039992402017644924,
      -0.005304108544990971,
      0.003225958874326418,
      -0.006094848879588666,
      -0.14503011111313757,
      0.09908810456377362,
      -0.16800843387576017,
      0.07358241022432979,
      -0.21356772394796913,
      0.1886526453560383,
      0.14104847723359829,
      0.07384966098784188,
      -0.08120116230308697,
      0.15512634065875405,
      -0.21354877672372816,
      0.018357958060483265,
      -0.17091123410678194,
      -0.032024292740281346,
      0.17782770800283546,
      0.025995640686407473,
      0.06551114890384277,
      -0.10040460139326055,
      -0.05466469802149826,
      0.1730336281089729,
      0.09189124489176517,
      0.11317850300318441,
      -0.20508655736176237,
      0.1040237532494501,
      -0.00602236088102398,
      0.1199684605299556,
      0.04675788399021982,
      0.15512337942905322,
      0.15440700382425296,
      -0.03380979129757486,
      0.0807498154343628,
      0.07741634375201842,
      0.08247337852280676,
      0.20664634591275108,
      0.14787219424569645,
      0.18290129098688687,
      0.031116363365198185,
      0.18514642729117683,
      -0.14644844238054705,
      -0.026842066293032624,
      0.018506268441318918,
      -0.02549933071239935,
      0.09884808092012867,
      0.021423481356127483,
      -0.15987435181518422,
      0.1791547220897772,
      0.046119665046641695,
      -0.10438130583477465,
      -0.1345741779249576,
      -0.12032538384101497,
      0.1110363949328286,
      0.1942815324552343,
      0.150391760993121,
      -0.1542725454652043,
      -0.13761506173967034,
      0.13062896008979244,
      -0.14016796468840165,
      0.21519364923341042,
      0.03944193484463707,
      -0.2069810747340566,
      -0.21138206928146475,
      0.18638295179676714,
      0.1334484754117186,
      -0.18308294565787753,
      0.1051976680015956,
      -0.022808340080449185,
      -0.12898054351680693,
      0.04682677235085295,
      0.11958887776764762,
      0.08224532811933802,
      -0.03572261118294284,
      -0.062448207578969656,
      0.13633195970088693,
      0.09892546448795816,
      0.12144595828084778,
      -0.02628454278421563,
      -0.19276969977801672,
      0.043120587244430436,
      0.15026771551054272,
      0.03780164106196629,
      0.169618040180513,
      -0.16346627445574172,
      0.0852506073028623,
      -0.012524755347803423,
      0.11198474796751509,
      0.03608057396770295,
      0.10435183574517229,
      -0.16528934709383164,
      -0.09996859313775983,
      -0.11952620330148735,
      -0.21333504055413377,
      -0.001871141460417003,
      0.18515538325630923,
      -0.17453740982535332,
      -0.17469488873357625,
      0.10444919307229159,
      -0.09253302891070625,
      -0.10593936108666513,
      -0.10453312407345176,
      -0.13054583891759608,
      0.03423996656287334,
      -0.027859726072775343,
      -0.073386620071939,
      -0.06017323488329748,
      0.01783765006514834,
      -0.06057924864577982,
      0.04252215461424533,
      -0.18689630406096294,
      -0.07032045599954892,
      0.016124071022189768,
      0.21473201375888465,
      0.1359759242341548,
      -0.10202168462446157,
      0.20398219294701522,
      -0.02490449497971775,
      0.13915170685502284,
      -0.14586856213478644,
      0.0010820664902185806,
      0.011896732814598077,
      0.053808776479120496,
      -0.08957390414425195,
      0.04406565698387335,
      -0.12698550179929907,
      -0.1088475601437892,
      0.10555290758498029,
      -0.08371783695116308,
      0.06279782585908603,
      0.10082481225462145,
      -0.07061156966953294,
      0.06847118184462267,
      0.15213733949228733,
      0.06422452127745984,
      -0.05649167086733317,
      -0.033048732129765473,
      -0.08949518177116267,
      -0.006545732577701607,
      -0.010358530645120823,
      -0.16512252030722058,
      -0.10920946173129355,
      -0.10757861081897528,
      -0.06338037962919535,
      -0.07083963344169927,
      -0.10927360364236094,
      -0.03913034696811549,
      -0.17984880877068782,
      -0.13840541363340422,
      0.05129901433674802,
      -0.08536249939899554,
      -0.07907345009961902,
      -0.14928796844007622,
      0.11424813075195786,
      0.03409570910575363,
      0.05162791214956905,
      -0.12203209978752584,
      0.023463405883260707,
      0.08880398316242391,
      0.17563401864568043,
      0.1376330897567353,
      0.173974081634336,
      0.03371700521546775,
      0.2012495682386746,
      0.06741695776819287,
      -0.05920875881537696,
      -0.048073512925366435,
      0.10758263471479954,
      0.04015347740121075,
      -0.04285024079405872,
      -0.05335316426233158,
      -0.0956276523440967,
      0.040989753783482547,
      0.11091941420561649,
      0.13754286559691328,
      0.1023625735502551,
      0.15549648060271035,
      -0.11346623477616255,
      0.05766147479906106,
      0.012008432949079828,
      -0.08615407791019691,
      -0.16476387784619273,
      -0.09270844458302904,
      0.183888103987889,
      -0.04937363741923309,
      -0.11143613785066839,
      -0.12335575921931329,
      -0.15190886582317414,
      0.1711069014054503,
      0.16602692248342413,
      0.1839665246378864,
      0.05782082070998465,
      0.035899143855210786,
      -0.04108185615210616,
      0.20688957490186813,
      0.019181675536861398,
      0.1488529972313867,
      0.10227871324973856,
      0.031052932116006765,
      0.026330519910657824,
      -0.023743636914888955,
      0.1079725748908664,
      -0.1823107219431842,
      -0.074071629706428,
      -0.1725597156060177,
      0.08223907204963246,
      0.17974011447632862,
      0.20487230325946545,
      -0.14463706224221134,
      0.17498574106801681,
      -0.05668844593989214,
      0.018451696377239424,
      0.2162841270340675,
      -0.10770506101729681,
      0.032861378222361876,
      -0.08996149586184904,
      0.059937070154958944,
      0.10809468240112427,
      0.06085993781307267,
      -0.10647713407310004,
      -0.11742736901607169,
      -0.1293777251176597,
      -0.20179981297393748,
      0.0618228561869337,
      -0.07804903306669447,
      0.11642077716785401,
      0.11767996345521467,
      -0.10586024955523383,
      0.0070583010143852876,
      0.10289259235241607,
      0.026283764909905527,
      -0.13945552078332693,
      -0.13825122972685372,
      0.20883790641242136,
      -0.194489764539473,
      0.12395026874066026,
      0.1474405813988591,
      0.20980403602937256,
      0.029305020593966863,
      -0.1084580874730276,
      0.09203833744987036,
      0.041246282134518,
      -0.12375277221247864,
      -0.009506312474456241,
      -0.09292992091216638,
      -0.16361831351571715,
      -0.202844056530021,
      0.10330233420877413,
      -0.12371600866404704,
      0.10244861557718368,
      0.21014120331662703,
      0.20044498813637354,
      0.16432349321494158,
      0.06124479731299523,
      0.1755165261815961,
      -0.16750973011018852,
      0.14424286806111555,
      0.1808259531755528,
      -0.15220114457260908,
      0.14503416767692265,
      -0.2086848323203043,
      -0.009885787323082207,
      0.07631077581101156,
      -0.2036227252242089,
      -0.18172821237375886,
      -0.17748216119799648,
      -0.024505716673143968,
      0.17654803053988635,
      -0.07966611456490291,
      -0.20641839141770066,
      -0.00860056956655153,
      0.01924957829267024,
      0.12798387061622576,
      -0.029100718855577412,
      0.13622569092618422,
      0.1985417884124602,
      0.21183424366470702,
      -0.09321961310067721,
      -0.028990133950450303,
      -0.10802048929631256,
      0.12217229397869808,
      -0.11075176954155667,
      0.13085603715169067,
      -0.04295262711439332,
      -0.16810957350543634,
      0.07325765649753704,
      -0.1777718685731079,
      0.1770089539439443,
      0.03715016295652543,
      0.031232382352302274,
      -0.16966790755734382,
      0.03312808446640689,
      -0.066196471992788,
      -0.14146371909623917,
      -0.13514779675533375,
      -0.04895674263072644,
      -0.15595530760884113,
      -0.01853696535566482,
      0.053547164461017344,
      0.04730611590659198,
      -0.2163329460459707,
      0.2020458911569379,
      -0.17586695666797683,
      0.20555336594857146,
      -0.10859117293553054,
      0.18218778871080868,
      -0.02056286224556364,
      -0.21209064058363702,
      -0.004429322228523769,
      0.05518957628322099,
      0.04337372590285812,
      -0.047325208685206704,
      -0.1575511459491421,
      -0.18403513059938187,
      0.09354658852618206,
      -0.009629513365218278,
      0.03660084947748529,
      0.015087060434327726,
      0.21434359168263764,
      -0.1958034948544487,
      0.008648577674062713,
      0.20991003359452273,
      -0.1410295549576589,
      0.03577701434897704,
      -0.21328959754209204,
      -0.1429484859781927,
      0.024984012287992213,
      -0.046239772873645946,
      0.19655691660762345,
      -0.1473253456303191,
      0.19443962245304616,
      -0.09548356527164846,
      -0.10866204082183148,
      -0.07321626996982289,
      0.1699578923866422,
      -0.04775924777762253,
      -0.04698689917323309,
      0.13253170148154111,
      0.16596266965948378,
      -0.02729270429139996,
      0.08303812641122313,
      0.007037572801711883,
      0.11278458219482992,
      -0.019697333679336793,
      -0.12779032476439675,
      -0.12300667987012631,
      -0.07665123935113083,
      0.14158876054425465,
      -0.04721091672950692,
      0.20708178264474927,
      -0.07812731885783547,
      -0.03371997427134599,
      -0.16086749410246062,
      0.18390641168742064,
      -0.06245672760130802,
      -0.10170548605557098,
      -0.16830588140052422,
      -0.1287181637846151,
      0.1876225996991804,
      -0.06601752624156856,
      0.15146227314205216,
      0.006019898134409812,
      0.12635361745751858,
      0.14866452000791167,
      -0.014940524180593717,
      0.13765861364767376,
      0.19820175639252377,
      -0.12286861678126959,
      -0.12106796723064335,
      -0.1346504553722433,
      -0.03367970588553679,
      -0.023227171395014845,
      -0.10681426701104761,
      -0.13593636309026289,
      -0.14399921641280505,
      0.16345974410135924,
      -0.08223009438186751,
      0.0050050942186548875,
      -0.0692842128671132,
      0.21364873366163636,
      -0.06552415583452473,
      -0.13739952737349087,
      0.09971497768205731,
      0.11566029050522195,
      0.1195753565643812,
      0.17900753666908445,
      -0.061232649775908615,
      -0.17484001412079184,
      0.10048738858814468,
      0.1802860662885096,
      0.16934976349305,
      -0.11416372980836403,
      -0.09918472794702368,
      0.16163573568909448,
      0.13573244919959718,
      -0.183881948533771,
      0.007089354227975547,
      -0.04607704674371621,
      0.11899443096793019,
      0.023044070491515106,
      0.1560360196164108,
      0.16609522250357098,
      -0.09457080692145135,
      0.01105468911220664,
      -0.18900296795495228,
      -0.05087310807275286,
      0.20296611533248263,
      0.16997409593370102,
      0.07601407619010545,
      0.037542174303056314,
      -0.21466851107090537,
      0.16113495005341247,
      0.01716121845373708,
      0.20747909779136878,
      0.12750948257591058,
      0.16511963883193612,
      -0.09917123200147132,
      0.09086327091629512,
      -0.19573851267483852,
      0.04742886413108047,
      0.0027916887704864113,
      0.05645738885722265,
      -0.03054741738369729,
      0.00683387609367378,
      -0.03851551342960413,
      0.07667456526849495,
      -0.004679329798417925,
      -0.14579176166827845,
      -0.044812100894911555,
      0.05082485721763577,
      -0.09166714026487523,
      0.007067745961622213,
      -0.10464364143343902,
      -0.20454084425814684,
      -0.14831252006923995,
      0.029124455447764402,
      0.2034854716751668,
      -0.10675697563089113,
      -0.07612526699050162,
      -0.027241395201261315,
      -0.13607670136547717,
      -0.20813604225647858,
      0.09635295841325583,
      -0.04462359144079869,
      -0.17309109290165736,
      -0.08647697478503852,
      -0.14707202851290346,
      -0.17480582441568535,
      0.08034010437116476,
      -0.19659612907838078,
      -0.14718562268545077,
      0.06538319713903326,
      -0.005524408321709945,
      -0.06222449192483143,
      -0.12478340369562194,
      -0.1541973226659124,
      -0.17420640440903284,
      0.10729047672331801,
      0.16552056296126158,
      0.009373947618263823,
      -0.1541712005078415,
      -0.12072246533260741,
      -0.12654971112928926,
      0.14411104932443966,
      -0.16008337927410507,
      0.19203839210364695,
      -0.18762071968068061,
      -0.11002079086771403,
      0.11093048857277452,
      -0.004062361439697959,
      0.11871790095250825,
      -0.08210799639015667,
      -0.045568154902318525,
      0.11407272308460462,
      0.20379201319590687,
      -0.009181224618673156,
      -0.10327823392594858,
      0.16653159305374346,
      0.21117072143120033,
      0.2148625941541674,
      -0.031080062313560114,
      0.04852240514408948,
      -0.10213249117257764,
      0.16449901424630511,
      -0.11007530131381205,
      -0.18880226760833407,
      -0.19055330133150472,
      0.15714366871724098,
      0.18451727001623444,
      0.14682780674054743,
      0.07291295194719458,
      0.15368593162564745,
      -0.2143368641538245,
      0.18993431187208046,
      0.02740042208915275,
      0.08062884892822061,
      -0.14834792942413608,
      -0.10904485421363638,
      -0.02869032335379018,
      0.062109999083901885,
      -0.05651904540764702,
      0.0957766608650498,
      0.15482986346979863,
      0.034927822242744905,
      0.12342258801730963,
      0.13937800173765727,
      -0.024735797880118898,
      -0.13240091766527512,
      0.060081558928736206,
      -0.11671615542510258,
      0.0556010461754983,
      -0.048676928708471234,
      0.027940475272890786,
      -0.09009118876301114,
      0.20530201522625055,
      0.008577897912506044,
      -0.11927909696277826,
      -0.13063331866689332,
      0.08527927087876078,
      0.10020339298704359,
      0.061977807017990966,
      -0.02869899091145453,
      -0.038867211539277496,
      -0.01242653632833085,
      0.15123655129644917,
      0.03635173333518174,
      0.004907525580983174,
      0.13467813173474422,
      -0.029316038453805898,
      -0.1239539904955274,
      -0.03133268383721574,
      -0.16225265112583667,
      -0.044115089475586844,
      -0.1518121023690812,
      0.20787740217450182,
      -0.11153094131346701,
      -0.09694814580026143,
      -0.14323345054370235,
      -0.02105981277249877,
      -0.11955032841630867,
      0.11780549913032332,
      0.13004407577071977,
      0.024836303524017722,
      0.008277409139089281,
      -0.04835251773904739,
      0.06430215172236523,
      -0.038597432532870846,
      -0.06079206853957872,
      -0.06947591954278756,
      -0.023466897591797736,
      0.10418407775821356,
      0.17606419442146395,
      0.12157273561890206,
      0.1261403909357415,
      -0.18109102001857624,
      0.1498422565870298,
      0.1449088504901577,
      -0.05141641740064756,
      -0.04750495070232105,
      0.14615090417955726,
      -0.1492039150379842,
      -0.05296238962786745,
      0.021191100506284644,
      -0.014513130341184316,
      0.12951048584743605,
      -0.022438716305824752,
      0.013988304990737471,
      -0.16296572508990656,
      0.20935278879135275,
      0.18384927063993392,
      0.03269945007830233,
      0.01777928032605497,
      0.18014313210743318,
      -0.010933419713695769,
      0.02290151259110873,
      0.02221425198447377,
      -0.11118571851262533,
      0.06881829123694158,
      0.17920137909335074,
      -0.21459832292042663,
      0.14423232837776165,
      0.10875730114578222,
      0.19330821599420558,
      0.07643522680656359,
      0.017377818034955667,
      -0.10989787408527606,
      0.14840825578673447,
      -0.0281560568413681,
      -0.07687170612407898,
      0.018875747761651046,
      -0.20518334353183348,
      0.16731103252050203,
      0.03521539397951215,
      -0.04188481050404466,
      -0.014473515210110505,
      -0.11799695826106743,
      0.16262004073271155,
      0.1735006347620117,
      -0.1048035363645255,
      -0.19789945768167497,
      -0.11806046184651738,
      0.11887235485876893,
      0.026600710423572843,
      -0.0649674420570776,
      -0.18191162096699548,
      -0.10543052866085477,
      -0.16127496440286512,
      -0.09690202621838359,
      0.040598135821695996,
      0.08665775042919535,
      -0.2151277838888492,
      -0.053449269313631725,
      -0.05364272343125187,
      0.036338254100817674,
      0.08697154686947609,
      0.10489824072965451,
      0.18413020185951465,
      0.11057111992015109,
      -0.18925680682608592,
      0.10303842221148199,
      -0.19812976674330174,
      -0.17233499933251611,
      -0.09172145766947012,
      -0.03745381959469296,
      -0.12345588150634629,
      -0.13429377928469502,
      -0.17112691473486022,
      -0.051831520228224015,
      0.0019101547655884787,
      0.12641749657885323,
      0.16108935997484528,
      -0.12254954425551695,
      0.12619323743100483,
      0.06315953955147627,
      -0.012419843103038147,
      -0.09767179081423986,
      -0.078979030952613,
      -0.11919070971977637,
      -0.1261124922733705,
      -0.17874015514407735,
      -0.06636293948008976,
      0.12299050623209959,
