{
  "lossFunction": "BINARY_CROSS_ENTROPY",
  "optimizer": {
    "type": "Adam",
    "data": {
      "learningRate": 0.001,
      "beta1": 0.9,
      "beta2": 0.999,
      "epsilon": 1.0E-8
    }
  },
  "layers": [
    {
      "type": "DenseLayer",
      "activation": "LINEAR",
      "biases": [
        -0.14786513484386954,
        -0.04174311365088568
      ]
    },
    {
      "type": "DenseLayer",
      "activation": "RELU",
      "biases": [
        -0.667591928549848,
        0.5875461963810893,
        -0.8707152389724553,
        -0.11590244870673727,
        0.5831736340831466,
        -0.4765268736319004,
        -0.39720519859445247,
        0.18462806866424764,
        -0.33035250642326597,
        -0.4689792809010218,
        0.289032114281226,
        -0.55379787045294,
        0.31691030711295465,
        0.5647299971100976,
        0.013036424470515895,
        0.5045537595795739,
        -0.7966049969522413,
        0.5870926955624969,
        -0.16901786804522234,
        -0.3188502127979491,
        -0.7834212986284812,
        -0.6370965306209551,
        -0.6451664812080955,
        -0.635926688635539,
        -0.11859352294712355,
        -0.41720744314268554,
        -0.6589296410617795,
        0.3368180718638285,
        -0.02726264630441766,
        0.4077957311636631,
        0.34481453745338575,
        0.4009539639174289
      ]
    },
    {
      "type": "DenseLayer",
      "activation": "RELU",
      "biases": [
        -0.706191459548221,
        0.45064796681787644,
        0.24264150313981836,
        0.04370098106068898,
        -0.8640855855950109,
        0.19581502324596367,
        -0.00818648850293524,
        0.1690275045719487,
        0.030201878823607142,
        -0.09089460350988166,
        -0.8793759032939952,
        -0.7590334200252515,
        -0.9393139259872805,
        0.1990324721149559,
        0.1339971581626409,
        -0.4195776695156128,
        -0.7717070676115285,
        0.5659259392492724,
        0.2704370150660471,
        -0.9881834173576771,
        0.1389397198182707,
        0.5111191404833109,
        -0.13912145340974313,
        0.5735037168660091,
        0.6343663354100697,
        0.07736661452598215,
        0.9169396316772047,
        -0.41403966891825816,
        -0.10736603279876311,
        0.05297542625399876,
        -0.4844680512901276,
        0.014334297108825389
      ]
    },
    {
      "type": "DenseLayer",
      "activation": "RELU",
      "biases": [
        -0.010421500627238164,
        0.4981567776063071,
        -0.9512614737150273,
        0.7042065859062028,
        -0.0032077366890791163,
        -0.28487707469344253,
        0.4703319517580398,
        -0.6706248013322426,
        -0.8946005101468907,
        0.44406121919300195,
        0.3131632249287435,
        -0.9573532801212077,
        0.7985692882563659,
        -0.6402471783566296,
        -0.6156602566002559,
        0.9477761812617103,
        0.3247163079208233,
        -0.7845041395938477,
        0.917364209639233,
        0.6349179296137648,
        -0.5800742295640862,
        -0.0545416949233668,
        0.12029293007068592,
        0.8499078880226181,
        -0.10721914734542348,
        0.5295376797237001,
        -0.01739880723730674,
        0.19007758054278429,
        -0.017827415634378414,
        0.8560334310270692,
        0.945513085294682,
        -0.4191676209333912
      ]
    },
    {
      "type": "DenseLayer",
      "activation": "SIGMOID",
      "biases": [
        -0.08388274176873424
      ]
    }
  ],
  "weights": [
    [
      -0.142572698587206,
      -1.2456901306942376,
      -0.3719410952385753,
      -1.6428040906444796,
      1.0724658048347575,
      -0.8029181536515484,
      -0.19535027205963362,
      1.3999505920852113,
      0.9151894593723482,
      1.47456573001164,
      -0.4479887442028567,
      -0.2279586455131144,
      0.02522600312038925,
      -0.1982493853484868,
      0.335149385010441,
      1.4292638479717457,
      0.6774216842545606,
      -1.1217665998171091,
      1.077488297095807,
      -0.9924647347096749,
      1.5866852450454603,
      1.6040100261741992,
      -1.1139244856165254,
      1.3524812160284096,
      1.3909813687192865,
      1.1861305184103508,
      0.08682214035670155,
      1.6836015763573926,
      1.3099803125259275,
      0.32297630730799676,
      1.2438833990002809,
      -1.5095792388902045,
      -0.05698611650079233,
      1.3479872695033432,
      -0.21458548711661884,
      1.7181565283600875,
      1.7251442045854188,
      1.392946503094804,
      -0.07537573488573002,
      -0.598555863653331,
      0.8889721110133328,
      -1.7280204777052903,
      0.055346572857150056,
      0.47478851066081984,
      0.8335102556176472,
      0.9912133207283624,
      -0.4231858461900726,
      -1.195269703890685,
      0.06473769672306817,
      -1.4777597031569336,
      0.6706814498372793,
      -1.5721249245942788,
      -1.6086321460202615,
      0.3708577341993349,
      1.3684012341212266,
      -1.0433803604473035,
      0.500687284394554,
      -1.0122958712882046,
      0.6344693887940094,
      -1.5619362736740898,
      -1.0047131569291299,
      1.009260396760591,
      -1.667113578653854,
      1.61881800770925
    ],
    [
      -0.37152219309200213,
      -0.2687536850337051,
      0.2530510666594053,
      0.42683599677737943,
      -0.3060612133062096,
      0.4238082025704481,
      -0.03133402320407769,
      -0.21149457042050657,
      -0.008905929669314805,
      0.14434366996962372,
      -0.3205266125074654,
      -0.21660751128499794,
      -0.3006441095619612,
      -0.31022867806024057,
      0.14415563457511799,
      -0.23031240690125443,
      -0.161227757836227,
      0.001821175970030564,
      0.28603765647349116,
      -0.061140151920113184,
      -0.23409042936192373,
      -0.388955987471873,
      -0.03883390879484927,
      -0.12756320052649966,
      0.2036521993893579,
      -0.4104227269503514,
      -0.2842502611992014,
      0.07022326873697299,
      0.15877456817089192,
      -0.16925274970642828,
      -0.08586521446466022,
      -0.019197887033366334,
      0.37940313747613413,
      -0.2972098450366945,
      0.19174526500360306,
      0.36895473966922293,
      -0.19870482047871926,
      0.13041392027994164,
      -0.3462353357782944,
      0.3590668093773656,
      0.24835056151954388,
      0.09927387537720206,
      0.33182015887522404,
      0.3466970914678366,
      -0.15654423066918255,
      -0.28696947164276854,
      0.34294550569744614,
      -0.2340985648661862,
      0.04483182352869486,
      0.1746144735027429,
      -0.018273067404362298,
      0.04015617250958037,
      0.013384924646391738,
      0.29275294373976285,
      0.24986473007763094,
      -0.40477298194154454,
      -0.006140318270857981,
      -0.11315120511701743,
      -0.22416689350244368,
      0.03202691288687004,
      -0.17449499652440376,
      -0.1310179595237852,
      0.03617321960666958,
      -0.32343777081261466,
      -0.11739657685908722,
      0.04098009261672281,
      -0.13309529459720104,
      -0.11461348691549011,
      -0.38506249121189706,
      -0.21396787499032546,
      -0.22643816166247183,
      0.16297299989260355,
      -0.2952714223525654,
      0.3941055479314369,
      -0.11479175110576456,
      0.001647210038586866,
      0.04838253355481603,
      0.2647348539828413,
      0.2495002651219796,
      -0.09746155642537596,
      0.13606689787659415,
      0.3206152103465509,
      -0.19444553981680518,
      0.004311580831424355,
      -0.15577802934148988,
      -0.3540041253283163,
      -0.3112398768775895,
      0.09228606797987399,
      0.08454336124635914,
      0.06522464604102102,
      -0.11463719963996066,
      -0.042339257689401055,
      0.31135721876556394,
      -0.18755304987730578,
      -0.24948766146993212,
      -0.2866040541195658,
      0.03212373456437323,
      -0.03791529881079275,
      -0.21461734220586753,
      -0.3123181933436452,
      0.4180611531471316,
      -0.31376734110971993,
      0.2362778573962298,
      -0.226131569329169,
      0.1844684377490013,
      0.41087078328931054,
      -0.2007098442144517,
      0.3493017578915339,
      0.09362147739440158,
      -0.3793283537825415,
      0.26563564121916,
      -0.17363431255550998,
      -0.019007359185738648,
      0.421107452973382,
      0.4066820976571694,
      -0.3898803689814174,
      0.23719530071226086,
      -0.11713050036239409,
      -0.35561325762446067,
      -0.10969233604384698,
      -0.327638969867254,
      -0.31930574185855604,
      0.04459691202461513,
      -0.24985137178045477,
      0.24915650872487832,
      0.023553197756787714,
      0.42855704110013665,
      0.3391995698410019,
      -0.30719998849537966,
      -0.20517466781385904,
      -0.13054731476405562,
      -0.303836902868739,
      0.17890201191448069,
      0.08472514408520865,
      0.24387426471330914,
      0.3249026884073776,
      -0.1667062953959101,
      -0.3080237973473614,
      0.24908739037153144,
      0.24945441370079152,
      0.0771571230318458,
      -0.38391096103318734,
      0.3137751291592434,
      -0.14280563634631632,
      -0.4277883984269028,
      0.3287221817981288,
      -0.07814482619477092,
      0.02078094556372556,
      -0.2503683694543414,
      0.21398541907586427,
      0.2700063480470211,
      -0.3848615351045372,
      0.2703961709189437,
      0.2666680331892561,
      0.31598430884534895,
      -0.3600269868541155,
      -0.2726915155065829,
      0.19257308857593197,
      -0.33221331234482737,
      -0.2885025131630824,
      -0.2380592742722769,
      0.2843418699753613,
      0.4184013109823806,
      -0.018779975020379813,
      0.15502594629837446,
      -0.34163725112008675,
      0.3632415386186721,
      -0.28605069588384024,
      0.39928293597523096,
      -0.10362847013243215,
      -0.15832838367662228,
      0.28015705003457697,
      -0.2873268076701004,
      -0.16530076649377035,
      -0.2027993058756158,
      -0.154698554637568,
      -0.13377835331957894,
      0.04568181378834485,
      0.24140076110148329,
      -0.3627009026976915,
      0.36392695605595954,
      -0.24814594351980288,
      0.08697268484822313,
      0.037300710219423105,
      0.10690183448394924,
      -0.39582952984511577,
      -0.21692653642294335,
      0.42272449133842166,
      -0.30474757744026576,
      -0.30292568174964246,
      0.020513231148726885,
      -0.20867977621433234,
      -0.21273911394289835,
      0.3806142652964382,
      -0.17747458831223561,
      0.1890600659905048,
      -0.41023107818181587,
      0.25083025057746683,
      -0.3822593422690008,
      0.2836611823829193,
      0.007815964396326813,
      0.04402155051655521,
      -0.12052088810109945,
      -0.3804792210864315,
      -0.4246900918822558,
      -0.19158309046975389,
      0.3748861432846127,
      -0.022591688581880764,
      0.37562850071270576,
      0.21855105343667663,
      -0.3646741960668004,
      -0.305337528296045,
      -0.30583634500085655,
      -0.23525033232897458,
      0.11272952560421562,
      0.33402141683563275,
      -0.0011188527558596562,
      0.06494637727606162,
      0.05605481201026463,
      -0.4168693401153771,
      -0.1466300075048247,
      -0.0900885099174571,
      -0.24738799646106818,
      0.3292330830737718,
      -0.0025252184124997523,
      -0.4264826742786073,
      0.28786463755757224,
      0.049991141490181634,
      0.15146285619110605,
      -0.2915174327017678,
      -0.2765456202722337,
      0.2635494935051073,
      0.009432978779875867,
      -0.22888714723394793,
      0.17987770286566057,
      0.07222673667448459,
      -0.03414861332320501,
      -0.29844684300391644,
      0.29258281410173476,
      0.0671151030628952,
      -0.4240590958064304,
      0.25141786074271916,
      0.31835349114485073,
      -0.31777252983930804,
      -0.13628339813874996,
      0.08490377450969439,
      0.4110863704545515,
      0.03186939056284849,
      -0.08410524330464852,
      -0.14943485653808092,
      0.33355531079103345,
      -0.24005294558420356,
      0.22350210885546434,
      -0.20447917941261268,
      0.2732416960166589,
      -0.003925612866459649,
      0.08529347683829441,
      -0.4216434273536609,
      -0.07896640292714069,
      0.10321031173246525,
      0.19686314374007657,
      -0.3448781819978892,
      0.015665342325259513,
      0.15100110675913064,
      -0.08015571859520415,
      0.2036907884618842,
      0.307392265826483,
      -0.07976180307426911,
      -0.008580667220323746,
      0.3454902034975808,
      0.1887417756697462,
      -0.07213336787851704,
      -0.14100095865200618,
      0.09968236269536151,
      -0.22301665043551408,
      -0.09118876680092414,
      0.14488297790247257,
      0.06333199751678176,
      0.32310224441194463,
      0.2998732653727358,
      0.09050152100160541,
      0.03648865779884253,
      -0.39085736869226906,
      0.10684622134318361,
      0.33789575813908496,
      0.38297513385080056,
      -0.07533593490722806,
      0.32827627564066825,
      -0.06102044101852966,
      0.1757323678686809,
      -0.2470075978249313,
      0.0400229089180959,
      -0.3566127496605868,
      -0.37312602067795375,
      0.38606916539562613,
      -0.21747736059895414,
      0.3706750460412825,
      -0.14834963430969406,
      0.15641125936154682,
      0.11437480680054718,
      0.3267747814679584,
      0.0257611129597915,
      -0.4093368896390735,
      -0.03757513725738015,
      -0.28747151535640125,
      -0.3177239891876035,
      -0.36643442618058225,
      -0.045836107485803634,
      0.20732320335811466,
      -0.2588327057181524,
      -0.21949883745579457,
      0.2629933708590219,
      -0.2528705037397535,
      -0.29170996651523023,
      -0.039638927179801275,
      -0.005831009179742941,
      0.37670818105860754,
      -0.07073420575865613,
      0.11292577488766703,
      0.3634124668744489,
      -0.27561740973342663,
      -0.4019622641215912,
      -0.2790067331936885,
      -0.1383560868798645,
      -0.13829277307865412,
      0.08382611508119736,
      0.10636692704839096,
      -0.048381979285623655,
      0.2145386553760415,
      0.24551295004496793,
      -0.1156256782986016,
      0.2900883190644156,
      0.1299482900824281,
      0.14588973439764813,
      -0.3106708819603782,
      0.23679672036259986,
      -0.027393368564362808,
      0.24243777137347094,
      0.004450155703578373,
      -0.064976688899406,
      0.11890680224585998,
      0.3714740063084269,
      -0.03043148026552628,
      -0.4057220647725672,
      0.37758023233764954,
      -0.025367405267662846,
      -0.3380309511281187,
      0.32910568604746254,
      -0.07605904755989262,
      -0.30860405805428937,
      0.3967162411571436,
      0.15250632076118859,
      0.18348126304713258,
      0.3286147436470042,
      0.063185830709445,
      0.3874806141216183,
      0.32074703944580635,
      -0.4240079697469272,
      0.33246555740289613,
      -0.08695462159674094,
      -0.09120590994694566,
      -0.3346464361542224,
      0.06146605481007661,
      0.19589701076791516,
      0.23655440129022093,
      -0.15059329596990656,
      0.2685663189577326,
      -0.22933153868233427,
      -0.09966902800936384,
      -0.13718110504659048,
      0.13681989739821593,
      0.2556252280339825,
      -0.30296110505869184,
      -0.03858402072267858,
      -0.11857310687972905,
      -0.40852529415878186,
      -0.2932400961802927,
      0.4025266612130903,
      0.37208923356786777,
      -0.10376861981430713,
      0.4039822369091886,
      0.38870043457114406,
      -0.14509025368485895,
      0.15871830169165585,
      -0.314670080397102,
      0.39498542187233115,
      0.33165270347584735,
      -0.3502057270210728,
      -0.22068681836877532,
      -0.07998700941737669,
      -0.10301864374246167,
      0.29973266315017516,
      -0.08034266048649252,
      0.07661580277319063,
      0.304765380881236,
      -0.3937242482587216,
      -0.35759089903908703,
      0.3846513593383986,
      0.3148152065789302,
      0.37447318326478535,
      0.403196709671737,
      -0.41060104993497415,
      0.12805532460196062,
      -0.1573308436670539,
      -0.19145581198092265,
      0.2892612479655457,
      0.007021351551659949,
      0.14002194373114124,
      -0.26867664107608796,
      -7.802685942390197E-4,
      -0.18756654421453153,
      -0.2912237810692814,
      -0.059573325644121045,
      -0.2523022726284231,
      0.40266463876895137,
      0.006514327202475634,
      0.1537657349792359,
      -0.3989790952687124,
      0.35400206709610066,
      -0.10282675873357944,
      0.2923079564492213,
      0.3340345084675869,
      -0.0214960585099509,
      0.1940218266644848,
      0.20884457079246538,
      0.42602632350418695,
      -0.13904788780541216,
      0.18310318321099522,
      -0.003117671201218586,
      0.15980052695361174,
      -0.2905680738781878,
      0.3106601153619392,
      -0.3212478342396845,
      0.2456285886784389,
      0.2635297811942339,
      -0.2070570326339171,
      0.4219554708423469,
      0.2814865244530734,
      0.18643335725456284,
      0.3566473745107451,
      0.252392606629152,
      0.1426436599235325,
      0.2534909188669529,
      -0.2178268465148417,
      -0.31026813123047003,
      -0.21027252815380612,
      -0.06827590736738609,
      0.04541679832620393,
      0.2212410939939768,
      -0.08656087687673791,
      -0.32058404583805505,
      0.09208040239571552,
      0.17511879806998337,
      -0.41668193454705016,
      0.327112449261775,
      -0.3884282491996684,
      -0.06327841303607051,
      -0.3197045115166673,
      0.13757069561830865,
      -0.24061340928079408,
      -0.07954791193239835,
      0.40670848432000534,
      0.2714706970143765,
      0.2958256058880327,
      0.33309087798109754,
      0.3291042503641108,
      -0.29511470638045395,
      0.30925048301289043,
      -0.25766607827172033,
      -0.0013069850370068248,
      0.2727771555909943,
      0.31549889724836205,
      0.4190102791329758,
      -0.06586025147457253,
      -0.10428515925154858,
      -0.4117860087303188,
      -9.23614167238962E-4,
      -0.3873374345395046,
      0.38965499561457945,
      -0.3338398116910254,
      -0.14250746710007933,
      0.0026309610709051023,
      -0.16071905035877265,
      -0.11676264174239526,
      0.17489487569868228,
      0.07441007389529392,
      0.03652519764994566,
      -0.39630868050646473,
      -0.019964032745425575,
      0.08132408096089666,
      -0.3434283873001128,
      -0.17012577330366935,
      -0.06893045157553701,
      -0.19707698657165623,
      0.08876959153141056,
      0.19307129340675705,
      0.2613671619139179,
      0.1869269825753393,
      -0.2750579851571617,
      -0.4151035381480521,
      -0.3752263277944763,
      -0.35812397378528654,
      0.14657716682629846,
      0.39270544906289845,
      -0.37792587787457127,
      0.42794411300132745,
      0.055672845428894835,
      -0.40826295026645665,
      0.2448256811111113,
      -0.352542130738714,
      -0.3788893517788085,
      0.16348017218483873,
      0.018563651227365696,
      0.39229765042082115,
      -0.10387790602164598,
      0.33041316132676096,
      0.3320509583845462,
      0.04146148819817558,
      0.2648063571637133,
      -0.021897314863387696,
      -0.3960224845426088,
      0.2256116191234993,
      -0.3833360722765977,
      0.2677929046298591,
      -0.20719796337186072,
      -0.29748734586527925,
      0.18989815282412875,
      0.2509954703579717,
      0.19930098238736776,
      0.34538968537371334,
      0.2309106373442142,
      -0.16711907539398752,
      -0.05391763989673698,
      -0.3587735412182472,
      -0.053348280836091666,
      -0.03858115408294632,
      0.33682849194666226,
      0.4169253921944827,
      -0.4216776965844885,
      0.4057448884601937,
      -0.24647009765750838,
      0.06902745317290021,
      -0.11991764001103788,
      0.0211803603194059,
      -0.08574178193523357,
      0.16534049477696483,
      0.003271787331777687,
      -0.35043285400568897,
      -0.34364664502624487,
      -0.19453975632439066,
      0.2433759000144013,
      -0.165712989854071,
      0.27894853798404134,
      -0.3814986747860963,
      0.14589491607247723,
      0.32026978680129853,
      0.4111092583893305,
      0.05712092164201321,
      0.17428115663876936,
      -0.038885358912787604,
      0.23285862013222752,
      0.05617092970820475,
      -0.03178716005235138,
      -0.32480642031504714,
      0.12117133161200183,
      0.09541319921826025,
      -0.3485222807368126,
      -0.23253658794637802,
      -0.0764679648521463,
      0.22905747106584234,
      -0.141902766911152,
      0.43097762659066113,
      -0.1945467309835954,
      0.289653444392762,
      0.10417483122309584,
      -0.06001514643581729,
      -0.31174809963908234,
      -0.051565303331291945,
      -0.015107465056327762,
      0.4328282987464949,
      0.3496397304434165,
      -0.4102839882565274,
      0.4307290693096442,
      0.0473874089843887,
      0.18756086669850086,
      -0.019170217933776046,
      0.2348375199506672,
      -0.17973946089978715,
      -0.11755170690695954,
      -0.11634615454330205,
      0.12100655369856511,
      -0.27013230298004315,
      -0.011458421254572748,
      0.3891618519787223,
      0.4049096781501917,
      -0.26100452099941285,
      -0.030073219172567334,
      0.42737176311956987,
      -0.25691297090512105,
      0.19136522858715804,
      -0.03486006013417364,
      -0.3217793717986534,
      -0.31580354726884985,
      -0.22582943004184214,
      -0.2075678396986232,
      0.4009523343381632,
      -0.33628199094182215,
      0.28766855723762336,
      -0.14939110197611616,
      -0.08304275476757728,
      -0.13544304251093864,
      -0.23552711898270715,
      0.12068917175826271,
      0.14992748192217925,
      -0.17951568859515493,
      -0.09355960794421242,
      0.20646952383506184,
      -0.15612033808120873,
      -0.3816649954426169,
      -0.2510417057264979,
      0.15268938805821314,
      -0.3194753428179334,
      0.11606359361905788,
      0.16905010560704054,
      -0.09379293105622821,
      -0.25242894738272303,
      0.30635688699465163,
      -0.19094686793793259,
      -0.0654382119369663,
      0.12262488971125945,
      0.3554185829717464,
      -0.27311248311338254,
      0.2330349764400474,
      -0.3043892054180948,
      -0.17134230388193278,
      0.05269095409146646,
      -0.3455828228407787,
      0.23427106707807482,
      -0.2706907975190904,
      -0.3682807985562132,
      0.06077937455038618,
      -0.2515282279375152,
      -0.25569132561588875,
      0.3380180970398808,
      0.3050562244487179,
      0.15665444739782536,
      0.39414090884550107,
      0.03129156769124969,
      -0.2875920656102703,
      -0.24685628066348853,
      0.007726474318192289,
      0.41663304189892353,
      0.03563203356218325,
      -0.2697221735336618,
      -0.003912787337771395,
      -0.1292961863643068,
      0.1303187001605785,
      -0.008159525126616274,
      0.052646018457761345,
      -0.3392195783808704,
      -0.21857600490041454,
      -0.31589072877081387,
      -0.22684891927165926,
      -0.26174974575948995,
      -0.2025316710460133,
      -0.15247198144435264,
      0.056709254650953556,
      0.08555415151628015,
      -0.0655543817212429,
      0.3696405863161775,
      -0.34029090989583255,
      0.41670894583880874,
      -0.14084576993664938,
      -0.34125462850443283,
      -0.0997704458284886,
      0.1391870986881351,
      0.3450046034289255,
      -0.14352599327721083,
      -0.33401282745292715,
      0.3098651723630648,
      0.39895807512473763,
      -0.10563346994485173,
      -0.38862422889239884,
      -0.1400229758982524,
      -0.2936425781461978,
      0.35077028450152165,
      0.17463425687607675,
      0.326716528511844,
      -0.382296538209302,
      -0.21031325123261443,
      0.11037401618609083,
      0.10978710576376399,
      0.11738580724595465,
      0.07145803537949574,
      0.0752457041112417,
      -0.09242329793446619,
      0.0865575368985198,
      0.39979839423815805,
      -0.18227014020030358,
      -0.40482510690163553,
      0.3180691670885683,
      -0.10286605925853515,
      -0.3315781172051335,
      0.13574050004379284,
      -0.384874029573922,
      -0.07777922607339899,
      0.2284879152937241,
      -0.3341117475829808,
      0.28017595657094735,
      -0.2465093288275618,
      -0.10100218509110082,
      -0.21600919864593987,
      -0.08247786766789672,
      -0.3318566987666995,
      -0.003937994612459306,
      0.2501854034089152,
      0.2149348634418074,
      -0.23521724837308272,
      0.08688979643405431,
      -0.19340270191120662,
      -0.20805775470777116,
      0.3070043744360283,
      -0.27908076526224473,
      -0.05219358990889994,
      -0.20738619839784875,
      -0.2412868358589227,
      0.004613782145856282,
      -0.038975833602277854,
      0.36756219566204434,
      0.2685751832102036,
      0.018739975073116033,
      -0.33847692643613925,
      0.12133905022576735,
      -0.40911675631351146,
      0.24268018662202578,
      0.03890766101399212,
      -0.040394606039689585,
      -0.25703036272520324,
      -0.09210689315189308,
      -0.16157848768178718,
      -0.00933663268648438,
      0.3733784107255575,
      0.2167294723638063,
      0.21583810873703185,
      -0.4087930127747083,
      0.07910124723000095,
      0.17449573318075323,
      -0.2048887344173616,
      -0.24746700596312057,
      -0.019633985549482758,
      0.31498143509412596,
      -0.4238860701118639,
      -0.24598758838431575,
      -0.14305491211865456,
      0.13535072868034764,
      0.023332333355946422,
      -0.4179774775376945,
      -0.19722687981840106,
      0.17864661851507152,
      -0.12062978534647062,
      0.37286907370621497,
      0.38379898409485896,
      -0.18175263211578735,
      -0.0713155748980176,
      -0.13867727832461363,
      0.10345048682257324,
      0.046885528551317834,
      0.20185567950536148,
      -0.29800638170882005,
      -0.19374633419290035,
      -0.12296742256104815,
      0.1261910053954231,
      0.38864204482153436,
      -0.3541474668510504,
      0.19005285710729175,
      0.34457843280244377,
      0.22085940252104502,
      0.2794095963018242,
      -0.4304047846539495,
      -0.41964117194302425,
      -0.3396833001338762,
      -0.10268739638559249,
      -0.26635247468606327,
      -0.059867926062862675,
      0.36969099584074955,
      0.023833946232606318,
      0.27161537794428764,
      -0.25546531385352567,
      0.02105667535104072,
      -0.3979328593738721,
      -0.14400235182938942,
      0.3251052594680071,
      -0.3216178247472231,
      0.3409606388879098,
      -0.30122340892167865,
      0.35805460277656226,
      -0.42097461081740617,
      0.3767048241703948,
      0.10473294665993643,
      0.007000545372670364,
      0.025838378189020794,
      -0.149560262143975,
      0.3317629916382559,
      0.3550256119593233,
      -0.36964614472223156,
      0.02992760407406153,
      0.17628968657561223,
      -0.11416787304623421,
      -0.1603416679519577,
      0.39097366182031185,
      0.3292439369562569,
      0.23457828618129356,
      0.26254566788965333,
      -0.1115350283080972,
      -0.19938503218620615,
      -0.0339378799412412,
      -0.08678992671645047,
      -0.12076418261160382,
      0.38245989817014975,
      -0.13914183173135025,
      0.32400509192137456,
      -0.20006067824989007,
      -0.017951380249643267,
      -0.17807001519419507,
      -0.103504760551821,
      -0.4005021262832917,
      0.4257779029496535,
      -0.26606223621874825,
      -0.023105880904683573,
      -0.2666923036272243,
      0.40361335208296084,
      -0.29272016274740054,
      0.24074261392953517,
      -0.0804770487715839,
      0.17125837913983416,
      0.1329297533654013,
      -0.06309683109684455,
      0.26722438860210446,
      0.14280512081294766,
      0.2835207844947725,
      0.34446769980095476,
      0.21400830035864865,
      0.3312746649808968,
      -0.32270776324650713,
      0.38028073756503694,
      -0.33067314049459995,
      0.4032293274675675,
      0.021888712306442848,
      0.31972338971340447,
      -0.059192011920571885,
      -0.1223185954532039,
      0.26497558407288796,
      0.1168972474734557,
      0.20838644156626246,
      0.38870456377259427,
      -0.055012420362554604,
      0.15736738923455323,
      -0.2362765476351259,
      -0.3750336312088199,
      -0.41819574090195355,
      0.308726615717492,
      0.18470438656849203,
      0.1796237957458578,
      -0.39166611717198085,
      -0.18704277258745103,
      0.10010524102719937,
      0.12466629193784334,
      0.2243911866355825,
      -0.09087291932908698,
      0.3421641522289191,
      -0.4268680422046906,
      -0.38395215085454537,
      -0.3787364344069205,
      -0.11583149429004802,
      0.26136675945486204,
      -0.2565173515726631,
      -0.3403270528147896,
      -0.15171745857919783,
      0.251718373907228,
      0.2005797406016348,
      -0.20212714061869183,
      0.28548104151690895,
      -0.30698859963685626,
      -0.256701999859441,
      -0.34514463620891606,
      -0.31964681065645256,
      -0.19122903497808424,
      0.335297648136836,
      -0.26509162242670936,
      0.15205651821771388,
      -0.1655024987093982,
      -0.3571996811358735,
      -0.04981200421804943,
      0.29536786678443266,
      0.151135051695577,
      0.3332185996203095,
      -0.25354514680744467,
      -0.39114501342464075,
      0.03209255371046349,
      -0.18893168500305696,
      0.04935310648344965,
      -0.2695339143333598,
      0.18767739428006963,
      -0.15665878019241086,
      0.341550355499962,
      -0.11983902089700327,
      -0.3508808491409736,
      0.03430301338244923,
      0.2507334789851176,
      0.22922091291476715,
      0.08703809731951434,
      -0.17297324519633783,
      0.3812932815561651,
      -0.25482836504972517,
      -0.3206464062126671,
      0.27311848254153853,
      0.25595285324574985,
      -0.33736494527861455,
      -0.42906068280171933,
      -0.007125880124820683,
      0.023244771151701815,
      -0.35506174117635814,
      0.3191665315751551,
      -0.37305784931181163,
      0.18583387838124793,
      -0.3441462077058107,
      -0.2272871003887941,
      -0.1604769768029064,
      -0.14961721590760518,
      0.4265999140057058,
      -0.19380613762941892,
      0.03116157584552498,
      -0.16059085594194095,
      0.19427818018856197,
      0.22068209007862755,
      0.4139959167137936,
      -0.07727535935361685,
      0.3818366369010245,
      0.048833185853922156,
      -0.22147442243994622,
      0.04235589476670509,
      0.0627166753592186,
      0.04304718739991831,
      -0.2204316685512406,
      0.10816614311344103,
      -0.35087140129971217,
      -0.32737023861533887,
      0.2779316938754643,
      -0.24457337015757066,
      0.17105923374626425,
      -0.2829499636555217,
      -0.3476248755518271,
      -0.1985107678230937,
      -0.3847210071120434,
      0.3594444255790516,
      0.3167908334972333,
      0.15046210581800906,
      0.10826035115425442,
      -0.09830167385381267,
      0.1792727086098062,
      -0.3128758499677557,
      -0.10940394779388851,
      -0.2557485150430341,
      -0.05893746408227274,
      0.23129228812025643,
      0.13356029025408495,
      0.17201586150864917,
      -0.11684844485814505,
      -0.24249604014846435,
      -0.021236047454639306,
      -0.22345228808736545,
      -0.0895052168816059,
      -0.029748762133626205,
      0.24576872126139176,
      -0.17673559954810675,
      -0.16813295066483697,
      0.13971162672678944,
      -0.011443193076370872,
      -0.0858934895957531,
      0.2236157555631207,
      0.3007515048485276,
      0.3122986240975943,
      -0.3340110848697185,
      0.04513205940069703,
      0.24129560887563478,
      0.14720876830693946,
      0.15894392708684862,
      -0.3085187410079121,
      -0.08482604143040318,
      0.2599911214939626,
      -0.38088370733387505,
      -0.24709239123667165,
      -0.2631348715886902,
      -0.042214091586853075,
      0.19072568353198366,
      -0.37828740328092264,
      0.2921660958496463,
      0.4123039543610772,
      0.11522567826944513,
      0.34495242336903104,
      -0.06256967431718519,
      -0.2085386020024261,
      0.12191068789499654,
      0.1684348488303738,
      0.2830592013826842,
      -0.3241330947675101,
      -0.039842780129421884,
      -0.3246053978195388,
      -0.029168653940587652,
      0.1278742408050118,
      -0.044822360711741616,
      -0.22913379291558644,
      -0.09126173530920295,
      -0.11178213782444135,
      -0.03988462619230232,
      0.377684973609455,
      -0.2613844523421406,
      -0.06456439310759043,
      0.23634112157068193,
      -0.34043788216891746,
      0.3258399931442734,
      -0.2596962882982267,
      0.1952939325769935,
      -0.3638273099197606
    ],
    [
      0.18059256830897524,
      0.2300801325019291,
      -0.3157340671263633,
      0.03736642608277191,
      0.12804203298916533,
      0.008953582704653962,
      -0.17983381287138467,
      -0.04284168656434373,
      0.25505778212514246,
      0.0149071020074113,
      -0.3477983751402084,
      -0.1266348737805051,
      -0.3769581251655337,
      -0.38420596452529265,
      -0.17316438300497128,
      0.15842326545124835,
      -0.21453941202546917,
      -0.2675243488875021,
      0.3767289991828436,
      0.34028890985747523,
      -0.17240479661773972,
      0.3507000395763647,
      -0.1019301342506449,
      -0.3750993676657068,
      0.2202917344599989,
      -0.13478807511711555,
      0.16777811817755822,
      0.017961415505572842,
      -0.4060290325989134,
      0.20926332031308553,
      -0.2542941968505437,
      -0.2687898140280459,
      -1.8204272515187698,
      1.503707392421529,
      0.24943050323408728,
      -2.1175460206951366,
      -0.30615971898599426,
      -1.920390757145897,
      -2.090063457043558,
      -1.1936911788461118,
      -1.7320539142055162,
      -0.10086258963373869,
      -0.008809511705662298,
      -0.20945274763310776,
      -1.966389060975986,
      -1.8648302663618737,
      -1.276569643229991,
      -1.8707062573378375,
      0.4303508266126869,
      -0.08699754121793579,
      0.41431215930771254,
      -1.7536943961105615,
      -1.7437640841032906,
      -0.08919785917950718,
      -0.3110799727049536,
      -0.2283522817988657,
      -0.24785981740142946,
      -0.11939603879151878,
      -1.7411749297738064,
      -2.004442797987754,
      -0.40641955147344705,
      -0.34500091572953784,
      -1.5196815045880672,
      0.33031045942660237,
      -0.3979945233380489,
      -6.720627868364886,
      -0.08546846592432822,
      2.2735152656208184,
      1.1651132336493468,
      -0.2436720414522976,
      -0.12945062564459686,
      -1.8316819387179788,
      -0.08098432005237512,
      27.58262505701656,
      -0.30985256941792116,
      -0.12268825879324535,
      1.0845454672424475,
      -0.4406123613418602,
      -0.022414482078091425,
      -0.01736898201306478,
      0.14125679583661804,
      0.25599186170444005,
      0.02755140949412542,
      -0.08395851072856132,
      0.37242240425648554,
      0.12274691668875798,
      25.1807852492358,
      -0.25530118431944815,
      -7.012881794887661,
      0.3993946304694523,
      0.5242025022953878,
      4.0067633767671,
      -0.2221673569404689,
      -0.10215176182895525,
      -0.3957878699283263,
      0.43206774658408637,
      -0.14639163111222825,
      -0.0537734149150144,
      0.16841811983812888,
      0.5109608756521586,
      0.11559146467926046,
      -0.026879967523181916,
      0.11456368369602546,
      -0.018662849985962723,
      0.027336427016989184,
      0.5381268278580007,
      -0.4263110409220108,
      -0.15453300160525857,
      0.03726170753793765,
      0.1412907890100969,
      -0.1556041650737358,
      0.23810466778840908,
      0.14588414726458648,
      0.4011595597973409,
      -0.20563721639432492,
      -0.4855846050056474,
      -0.3248630201243933,
      -0.3059597127497863,
      0.1756939091916433,
      -0.04655623708589379,
      6.4323802609116365,
      -0.3856343533590859,
      0.10748954953803766,
      0.03111471645279294,
      3.0281280054129023,
      -0.41142558507835064,
      -0.06220590441427358,
      -0.2618562078075083,
      -0.6809694415615313,
      2.0234738585221144,
      -0.22264051710112184,
      -1.4503794621413184,
      0.29415685506834033,
      0.09476357375243749,
      -0.029754795321069765,
      -1.4258857831852636,
      -0.16222604397016357,
      21.82400848516406,
      -0.35812336010677176,
      -0.059785232222590745,
      2.652715745655749,
      0.4519028238431292,
      -0.008042728759544258,
      5.837855939143385,
      0.09103846220534023,
      0.10313782020458545,
      -0.020285367663831322,
      0.7386956344985506,
      -1.782358207192998,
      -0.22957497435954097,
      -11.903221092261894,
      0.11890603710398923,
      -3.817039876575015,
      -0.32865988377702976,
      -4.43155540802238,
      3.661274465007703,
      -0.043681560231285686,
      0.4134735379997219,
      0.4069810638205661,
      5.124483571516958E-4,
      0.2512754423928572,
      0.07292483726765052,
      0.07676456923632907,
      2.0199423949933597,
      0.7336258745067209,
      0.6430021041174155,
      -0.6839876463637539,
      0.552121888827934,
      -1.1121229786426878,
      -0.641528011000629,
      -0.34707643548669126,
      0.20352112446506815,
      -0.4193435295346859,
      -0.9420827296910989,
      -0.3004798526584349,
      -3.492103853977566,
      -0.25154152993398066,
      0.37574537788066115,
      -0.17713360293508884,
      -0.7337111012484091,
      0.16593641634400183,
      -0.08893834880653723,
      -11.943336491145033,
      -0.08265833328606276,
      0.7114128371542747,
      0.07335039008221161,
      -0.3682735366658644,
      1.5917911518650174,
      -0.11917103735405124,
      -0.34042044428355206,
      -0.6258763751987584,
      -0.34299264152784525,
      -3.0295904285853963,
      4.008123778642219,
      0.08710329480485729,
      -2.819841843337672,
      -0.2506460606988396,
      -0.7762912048522722,
      -0.02746561788881744,
      1.7390171421039615,
      -0.8904352182993451,
      21.950872764445915,
      -0.07759275198272331,
      -0.04600624244697793,
      2.9119970612209327,
      0.92586612740676,
      -0.01247439948089019,
      2.4576989390945094,
      0.0711302687670648,
      -0.34338869364468316,
      -0.21862933395654127,
      1.535393346276617,
      -1.2710983877149067,
      0.34239330966500064,
      15.988868202673189,
      -0.15965542472884442,
      17.791525268778468,
      -0.03843375721401465,
      -4.4593888815516625,
      -2.0863107409179564,
      0.07445375121627577,
      0.31688463115050486,
      1.034520482055715,
      -0.058293626430299506,
      0.13477445246944195,
      -24.311327173878265,
      -0.3594373101914551,
      -2.867135959575886,
      0.6384048390748236,
      0.8651795285937364,
      -1.7796973724602916,
      -1.9636236631488555,
      -0.0825949098902757,
      -19.178963665295026,
      -0.25908730407455194,
      0.08134186998756704,
      -2.0237676894913172,
      -3.139359360452474,
      -2.9333068755559064,
      -4.5900088803031105,
      0.1359808933120254,
      -0.2854154705581246,
      0.35234346852563264,
      -6.688008046420592,
      -1.8519187908894912,
      0.0983900790396946,
      -17.43178831974795,
      -0.3266179449175525,
      -6.995694440225312,
      -0.25329584281805806,
      5.9645450915036,
      2.2817902127286414,
      -0.16207128013343994,
      -0.25356949869032974,
      -5.693969397111105,
      -0.046508171546837396,
      -0.44626561427760697,
      -1.179559820538621,
      0.12613319869869516,
      3.4148911163207583,
      -0.49841153837035873,
      -0.49692510309559906,
      0.04679677478887536,
      -1.2529855741115823,
      0.012676384976134488,
      20.888746802471392,
      0.33830879252250806,
      0.36118999699288085,
      -0.2046706731857069,
      1.7765980962780794,
      0.19306839749167296,
      -0.09444421701611766,
      0.36525588435376116,
      -0.3507056948638211,
      0.29759734948499517,
      2.5500698100357972,
      -0.8935122006269629,
      -0.2925734031865862,
      -16.45929549796132,
      -0.21108730966709124,
      -3.780967149234362,
      0.3588665195104564,
      0.3627415823099275,
      -3.0020141167584273,
      -0.08651848193757715,
      0.21554140121875393,
      2.0420656822470757,
      -0.26465392293712997,
      -0.9555979892350036,
      -0.7280642458537812,
      0.2550489374465899,
      2.443799562438775,
      0.5721411074081592,
      -0.5274048242557073,
      0.34678284914528135,
      -3.345858028969306,
      0.22129409640794417,
      -15.010361646160314,
      0.2703024480073219,
      -0.4155256357860364,
      0.05473334252253604,
      2.326681521368442,
      0.26782628889982824,
      2.478461746177236,
      -0.0977743445576496,
      -0.366503894731644,
      -0.3541579103731877,
      2.435901230737694,
      -1.1812068668366031,
      -0.2344609903789953,
      13.115259639727851,
      0.057934603670589224,
      -3.362157985377858,
      0.1158112025269395,
      1.3266275307198068,
      -2.5375749132104835,
      -0.19799936416172878,
      -0.26902102229095404,
      2.8156030356266375,
      0.1060515733046779,
      -0.05563296626286066,
      -0.1601759120835522,
      -0.16303708676106948,
      -0.18296596021891182,
      -0.4697337352724544,
      -0.046481310353931146,
      -0.2033650852657407,
      -0.03569422529232556,
      0.12873760301433923,
      12.617476447777332,
      -0.318246926864485,
      0.23347263185886308,
      -0.012798886424672586,
      0.20672707872404691,
      -0.2272994604904907,
      0.6966478904420892,
      0.2655758086502576,
      -0.324228134617077,
      -0.07369220382804825,
      -0.20458854865756165,
      -0.11037027201469829,
      -0.27381163263018404,
      -4.381681144184565,
      -0.15593466829994262,
      4.078226601484744,
      -0.3980440567153614,
      0.11531474567808768,
      0.005181347362850414,
      -0.38443888609069066,
      0.40911164597362487,
      0.02653874796738662,
      0.1103211334118816,
      -0.019528424933033337,
      0.21257897404614698,
      0.308526957398263,
      -1.5276746627182423,
      -0.43399660873492973,
      0.026751231852730525,
      -0.011917526757600272,
      -1.2009117070237545,
      -0.21229875487442237,
      40.49628426067225,
      -0.4096589630531348,
      0.3839589749609786,
      -0.05943517838137219,
      -0.15744466053388903,
      -0.032059777826156384,
      -1.2973576228194306,
      -0.3059755598303129,
      0.331787035026114,
      -0.3683010276970858,
      -0.46084405135597806,
      -0.08608121833116156,
      0.3706318447306564,
      29.316019032303604,
      -0.05382117649720469,
      12.927970152942923,
      -0.16431409066184327,
      -0.024946586726787304,
      -4.12345546961732,
      0.17771854839007523,
      -0.25791783991771994,
      -0.3137930889069758,
      -0.11841293448044449,
      0.07833051434861543,
      -0.2949885481877279,
      0.2823256542929979,
      0.15411563986831084,
      -0.14781949310534565,
      -0.37127231148182455,
      0.3093446168464053,
      0.42209930701527293,
      0.36119374072980787,
      -0.30746467112873316,
      -0.34530834180866093,
      -0.31972812487358526,
      0.41173398531604416,
      0.3372931593997322,
      0.2615486176051052,
      0.40047296071085664,
      -0.16819848241169644,
      0.16795258644909067,
      0.3149997091128857,
      -0.004561271207984052,
      -0.17606244925595627,
      0.4326226322626164,
      0.3136032929600466,
      0.42742194216990054,
      0.4297901315832257,
      -0.21285774595080847,
      0.32101976490983314,
      0.14149536192982332,
      -0.13810384560669986,
      0.26701523652327913,
      -0.04667438384359124,
      0.2571948576064668,
      -0.22426821771258984,
      0.13958191262766811,
      -0.027429389355015543,
      0.24187124855930148,
      0.41407236242054074,
      -3.036702346706499E-4,
      0.3593786252133752,
      -0.31672560923877535,
      0.10424240864657947,
      0.2462341874259884,
      -0.37689283393481254,
      0.3307359082709295,
      0.43015447495419706,
      0.20173195482737422,
      -0.371447987171893,
      0.288314749007413,
      -0.3597466131915138,
      0.36979642709198873,
      -0.1528642633531,
      -0.3542998030161574,
      0.03957951422663053,
      0.36781927003307585,
      0.02215806855369068,
      0.3927879215994245,
      0.03444085333522229,
      0.17469477512694448,
      0.3944855590518496,
      0.09508370282785167,
      0.32786534691502894,
      0.39917227442105435,
      0.38813845059031743,
      0.012027201827739975,
      -0.7504465279300224,
      10.352790339747417,
      -0.2248768120056,
      -3.8093658902259175,
      0.1351276001693503,
      -0.7632061453002799,
      -0.04979925543863486,
      1.2917110718261138,
      -0.6852188494135069,
      7.600312699544716,
      0.1327795339062045,
      -0.3406641255056278,
      -1.202113442325213,
      -0.21527542338595732,
      -0.008797538619406447,
      -1.1449185508847353,
      -0.08174128916173529,
      0.04056194399277829,
      -0.24123733416935172,
      0.027250681194567535,
      -1.1089029112800703,
      0.27752361215722227,
      -11.882882047117295,
      -0.2847528730124814,
      -9.81702524084633,
      -0.31630762929040657,
      -5.199080977903085,
      1.401920379490339,
      -0.0778450280863557,
      0.20404466850038788,
      -0.0907117367727984,
      0.2368374613427106,
      -0.09444846281884994,
      0.03632899054035482,
      -0.0699508520212061,
      -0.053480282430950266,
      -0.1107818871211157,
      -0.1286243543169635,
      0.3796901298316124,
      0.21232717141313467,
      -0.18883991676517356,
      -0.1653048594404361,
      0.2614082067809464,
      0.19440529329227557,
      -0.08622810164466227,
      -0.21323344171209507,
      -0.2987547384964887,
      0.3492123098047916,
      0.2449218705989326,
      0.37656673373626554,
      -0.15136907796470062,
      -0.06806715697385435,
      -0.27500028026745504,
      -0.2190241372547375,
      0.22254629930496478,
      0.11235876570744824,
      -0.2888433684077087,
      0.06197374550983187,
      0.0460816546277667,
      -0.3624445489131265,
      0.10947368626510107,
      -0.4082754030279408,
      -0.3890144455305366,
      0.2728354663754832,
      0.30152327167991816,
      0.3910308475794863,
      0.4006794969270266,
      -0.35372402411969095,
      0.2583724259796049,
      -0.2847011143202369,
      0.2180010400605778,
      -0.17405608078875617,
      -0.16570347166411836,
      0.2290373622556277,
      -0.37454896559574336,
      0.05523695299288467,
      -0.09015721807918181,
      0.22930409135012592,
      -0.19735565151161147,
      0.19101800335094682,
      -0.39712552300465526,
      0.39881370035015523,
      -0.1644687580341161,
      0.1591385016483054,
      -0.10997131033526003,
      -0.16379311026612653,
      -0.055975955101522645,
      0.37721090648851235,
      -0.13829363711100162,
      0.1735544413163415,
      0.08533604623361984,
      0.26051327449026834,
      0.13599798355844878,
      0.19188385615725584,
      0.1030674891134798,
      -0.0750424058228617,
      -4.365067408619189,
      -8.160759202917276,
      0.10315238407934918,
      -0.9321276034558238,
      -0.9132877056533873,
      -4.4119484981648815,
      -0.002841671892930629,
      -1.4115235592524762,
      -0.11234608473464526,
      -6.214423330510351,
      -0.17114374231507123,
      0.009682537889958653,
      1.2471667202950318,
      -0.020784078345424218,
      -0.02197313614322614,
      -5.24788367269733,
      -0.18384051277381086,
      -0.17068817201758735,
      -0.4181557121823491,
      -0.004968285008725154,
      0.03765413671630142,
      -0.4187556717692962,
      16.26269709560478,
      -0.3799041260292616,
      -11.873234072852657,
      -0.20490060770407068,
      -5.471285330125757,
      3.694046104451823,
      -0.03147721584616419,
      -0.34896957187087174,
      -0.014064015623484341,
      0.15959221492438885,
      -0.9137220818059,
      -0.6150928437363171,
      -0.1834371212159456,
      2.796981327461534,
      -0.04264879787861817,
      -0.27533625653882055,
      0.09004475440558633,
      -2.7508363215152625,
      -0.0026514043991072416,
      20.974697717915415,
      0.06612293261911883,
      0.35595380284896966,
      -0.12106528637221325,
      1.4854562155424609,
      0.17086208553835194,
      1.0814898354614442,
      -0.3216579212196694,
      -0.41417303265022337,
      -0.26896541412698854,
      3.467452079221788,
      -0.9966392042551959,
      0.3200283715449604,
      15.121340670735517,
      -0.13933385801999865,
      -4.419771423862619,
      0.16480047742589737,
      1.3889108330172057,
      -2.735916164041795,
      -0.07454988735140444,
      0.002677798553744448,
      1.9078210086299376,
      -0.3113153206551026,
      0.05078108844698903,
      0.3977667038070573,
      0.11346673077893771,
      -0.33045636920022264,
      -0.003974247339177617,
      0.2972630287677957,
      0.14828135204794196,
      -0.021315955068378356,
      -0.03209153612529958,
      -0.4189014255731581,
      -0.12992893232058794,
      -0.24701929682206308,
      -0.1574266271806104,
      0.3906613172387878,
      0.42306787988791944,
      0.26352031106361234,
      -0.3105681221238677,
      -0.10493714466124976,
      0.08014357496032792,
      -0.34114584491494176,
      -0.038002133583082354,
      0.19855437152320493,
      -0.08459743660758723,
      0.17634291736980218,
      -0.24077157848411307,
      0.4176332016999806,
      0.12381095672943637,
      0.059543300311815095,
      -0.36179035905141455,
      -0.20046197867705903,
      0.16052376218902603,
      0.4306025047875209,
      -0.11271931203758802,
      -0.34554479674482186,
      0.37291590133428726,
      -0.012265519441799983,
      -0.011786683528701792,
      -0.20537719454463188,
      0.23395488998764055,
      -0.03343425202881607,
      -0.2505449284931068,
      -1.2263208081971488,
      0.3440671142355551,
      0.3294539890668881,
      -0.033325877512237194,
      -0.044618243377666976,
      0.17116408841148587,
      -0.012285895934701923,
      0.08110815694016554,
      0.3543992189190704,
      0.16826422576766992,
      -0.31710988316769345,
      -0.033860764787564064,
      0.35585221001735085,
      2.067941154250104,
      -0.27251507769202554,
      1.8098031248878161,
      0.2992976354263636,
      -0.0037899118775119377,
      -0.012167092653482085,
      0.1989124039465347,
      0.318627559196142,
      -0.3685672028843896,
      0.19712593612698864,
      0.9688607473112065,
      25.526300974181968,
      -0.257948821291648,
      4.003372351944236,
      -0.6754333941508261,
      0.8994287761982952,
      -0.021715741945967496,
      1.5544684488123943,
      0.6880491213103817,
      -12.52989402512523,
      0.41460364653654697,
      0.018992800623013006,
      -5.092880003097878,
      -0.05582608728404174,
      -0.005174798331789916,
      2.3122409990900445,
      -0.0755230550999278,
      0.21013627194383439,
      -0.005208768543453697,
      9.351585191307521E-4,
      -2.5838340918009415,
      0.03314150432679691,
      -15.720162039072289,
      0.1330380882369075,
      -2.6781115746790687,
      -0.36743584291582887,
      -1.8109858003892316,
      -1.098496697527834,
      -0.043920599143720415,
      -0.14147617436765414,
      -0.04948426613074272,
      0.31937677679547777,
      0.5459820997907691,
      2.8029046217999567,
      0.046252019867912275,
      -0.010349927545053327,
      -0.25708034751361425,
      0.009407236025296752,
      0.051634180770383585,
      3.116565134728459,
      0.13600339883985563,
      -0.2572402329218427,
      0.22858829061615588,
      -0.16574920887160277,
      4.44658843594673,
      2.3565732871677625,
      1.4077889902174985,
      0.12040148667183707,
      -0.08156403516513772,
      -0.28172900428405967,
      -0.37202805743816253,
      2.452619992051008,
      1.4376564859386438,
      -0.30627786360279735,
      -1.8726243272133212,
      0.26846315061310516,
      0.07131717426334978,
      -0.26782382274583794,
      11.006229688521909,
      -0.00738544476528939,
      -0.0375637890885017,
      0.377483772490908,
      2.788456716987169,
      -0.3661530156123643,
      -2.792854253470296,
      -7.150465635500607,
      0.25553868272720354,
      -1.6971059358781235,
      -0.26156465181909394,
      -0.34055040440598244,
      -0.0414259545447587,
      -9.64433493665781,
      0.03243026493381614,
      -0.13994884828007056,
      -0.42901310562107053,
      0.09919799393840462,
      0.14771148127101247,
      0.17916270444082863,
      -0.25976674985408954,
      0.49507388805707275,
      0.1983935676148066,
      -0.010271137080318626,
      -0.050024660452986584,
      0.30916175355844194,
      0.09675654934671551,
      0.02924373012585102,
      -0.1259780854539941,
      -0.059576596622679445,
      5.817842767526284,
      -0.1598929478892187,
      3.7416452737124906,
      -7.763756678937097,
      0.37364091970179536,
      -0.3743631614786661,
      -0.009643379486116403,
      -0.056736001316549045,
      0.14655617742012503,
      7.000047331304422,
      -0.1722652754060377,
      -0.14295575479105913,
      0.21426436137839958,
      0.15725904359233303,
      -0.38944430112490647,
      -0.03651567597643049,
      -0.08907323204851714,
      -0.3863337324988241,
      -0.036925513670713006,
      0.36201099421450716,
      -0.8378215056852567,
      -0.18153776546899256,
      -0.15691983425683048,
      -0.4121996364854962,
      0.09354484018729653,
      -0.41199957036526547,
      -0.10762015253675025,
      -0.7864052019661579,
      -0.22774723279108847,
      0.3164564791031877,
      -4.95436274223947,
      0.31387742474535846,
      -0.21253995952148372,
      -0.1604991837563689,
      -1.7299359307831408,
      -0.7240842650001746,
      -0.09104473675080407,
      -0.051832908308096726,
      -0.4816239311736829,
      -0.4303933323769823,
      -0.503014702274642,
      -5.617749942132181,
      -0.3299402791368332,
      -1.754946478169526,
      -0.11817452266271304,
      -1.703137464584477,
      -0.028299463914645415,
      -7.023067052966765,
      1.0213654288034535,
      -0.729035712299525,
      0.04898938400697789,
      0.3904946521373132,
      -1.9946762568872842,
      0.5447221588713292,
      -0.09076070677591197,
      3.0310205114525015,
      -0.1672951502056828,
      0.003538216128566196,
      0.2592035714683496,
      0.41367503284409873,
      0.7311657572931918,
      -0.41145584726354334,
      -0.09404760838616864,
      0.22555090596287491,
      -0.46198082948508573,
      -0.27898191962862956,
      2.71890256624785,
      -6.479456256321473,
      -0.014790349756032623,
      -0.015506479046011712,
      0.20741567472136965,
      0.11400863583931936,
      1.1092889581016903,
      2.370013728977947,
      -0.14687340630251178,
      2.6399107117660674,
      -0.08650961462010644,
      1.0139794519739802,
      -0.030070077879289704,
      0.9340031903664203,
      -0.09290996832684806,
      -6.060462147035705,
      -0.14095227975120134,
      -0.3480405756578395,
      -3.101219319013214,
      -0.0011102291628515366,
      -0.019631515422330457,
      -3.8330373592784728,
      -0.1314280335150086,
      0.0863296926234432,
      -0.44105193938712867,
      -7.489596286935023E-4,
      0.14565876620265497,
      -0.24498542617066213,
      -17.03856842901128,
      -0.35788176772981517,
      11.668760857414538,
      0.1317132869640502,
      2.877459558417628,
      -0.9380986322588107,
      -0.015980662123405924,
      -0.4256622223403926,
      -0.029062990027536643,
      -0.42323838609248204,
      0.1658846163918895,
      -0.3598079024664065,
      0.13952159656685187,
      0.21028635688065872,
      -0.3775633181828204,
      -0.16708104794660827,
      -0.0012362972738056421,
      0.04179421468751038,
      0.17904426530040324,
      -0.02540366363428881,
      0.09341188801120054,
      -0.3923187878340227,
      0.057163734079693995,
      -0.008097296269533316,
      -0.07729579981253792,
      0.4152448992672236,
      0.41849769465783776,
      0.22125615119806147,
      0.4045541933465064,
      -0.33853615362490713,
      0.09036603806734761,
      0.27784223182252826,
      -0.13158221572368894,
      -0.12921124871751488,
      -0.24307890736472876,
      -0.32368303700431694,
      -0.08817381473754488,
      -0.31815639243487426,
      0.0675246424769716,
      -0.31585409993620983,
      0.13937020768266922,
      0.4162568273876515,
      0.020540497499401685,
      0.03883553883856453,
      -0.13713477663370266,
      -0.8393441805713969,
      0.09362283303804148,
      -0.007732726801137719,
      -0.18788483744018486,
      -0.1794160508230678,
      0.21315446006669453,
      0.8853699489324938,
      -0.10978545529888972,
      0.16168985371843864,
      -0.19365015170767946,
      -0.10480128361636641,
      -0.5587427013703397,
      0.46129677235220795,
      0.35573723560956655,
      -0.20824542746186828,
      0.010373827281498826,
      -0.5373840278412296,
      -0.4433141771490154,
      -0.0076795195178642195,
      0.398951749533013,
      -0.3437277266180827,
      2.9264740030174266,
      0.2292528189764393,
      -0.17625166534677522,
      0.14935543037303484,
      1.7415427188376829,
      -0.04805997421147701,
      0.250286955710058,
      -0.3621006336240032,
      -1.435992112870697,
      -1.6432745244252798,
      -0.24456970782019444,
      -0.9057876870386172,
      -0.1419478838658894,
      -1.3466457582633637,
      -0.025719760882287272,
      6.681747413457166,
      -0.8676118862944342,
      2.8078964645312054,
      0.006341290147413636,
      -0.20983456959422875,
      4.438144777002215,
      0.9722186445054438,
      0.4983655173037697,
      -2.2801292623745377,
      -0.21869177412951946,
      0.05613838570895868,
      -0.2497618800805941,
      2.0359066790582414,
      1.7517943518636727,
      0.010445635497442818,
      -0.07766613210573711,
      0.1545051964124347,
      -0.4128562662051913,
      0.33880563950849946,
      9.408184361744283,
      -5.512998869742967,
      -0.025631554274691718,
      -0.08722174573626773,
      0.9571278326199313,
      -0.11586139413517055,
      -0.04593979523123939,
      0.14020635454249897,
      -0.3378607131344663,
      -0.010337531096736035,
      0.5922847124687438,
      -0.01956688136358521,
      0.2758787487942462,
      -0.035306025079179015,
      0.026697775012765435,
      -5.637036972316379,
      0.15254205292065398,
      0.21746801107297725,
      -0.058208864096495234,
      -0.37321816158787374,
      0.0527327363250665,
      -0.33730614042664786,
      0.21427948931102564,
      0.3122212098721923,
      0.0761056396630268,
      -0.049512755214319866,
      0.019918570231850483,
      -0.0873960492154302,
      5.42975039791605,
      -0.26942220929545624,
      2.867571477212308,
      0.10612573849755963,
      -0.1823715004373233,
      -0.0102546248677633,
      -0.1853043510560187,
      -0.4253046953012751,
      -0.2996538053976959,
      -0.04360473636160184,
      -2.860642058501181,
      -2.5693607637671003,
      -0.0648302288106164,
      -2.318636179279562,
      -0.008550020258693303,
      -1.3213081629859842,
      1.1856833204517723,
      -4.50022495569163,
      3.171565688401462,
      -0.028506852006539924,
      0.009150265295811921,
      0.05034353983501644,
      -1.879699215675403,
      1.2174625534781487,
      -0.3161584401790123,
      2.8569954786944685,
      -0.19758624057163263,
      0.34062493152336354,
      0.3441127626840001,
      1.5647611108341914,
      1.020335272374828,
      0.2179430722635483,
      -0.17738177181030487,
      0.23149848751835672,
      -0.557440110094278,
      0.21856186461686838,
      3.457919336244902,
      -3.7545967692678817,
      0.3163597308520806,
      0.21114967017856007,
      0.8645513018766362,
      0.27592661215273834
    ],
    [
      -18.732448711861263,
      -4.155447898997019,
      -0.41903554834036766,
      -71.04124119866157,
      0.5500304738220873,
      -17.28214591459912,
      -7.198534686150831,
      -24.136296867319523,
      -3.1781724532481843,
      15.190018974637574,
      -0.4077169210635586,
      -0.11303373724592714,
      -8.553771223261467,
      -3.0552167448374212,
      -8.298853911266281,
      2.398878200376642,
      0.007646927574270046,
      -0.3995075824743,
      -0.3373236318155839,
      -3.580710137714595,
      -11.732970484895283,
      -0.12490288661375082,
      24.73286962869448,
      -0.3809422744164507,
      23.206647094720584,
      0.33347519911175677,
      -3.6544110296538603,
      -70.99097948752788,
      4.400095605980672,
      0.17382450965433388,
      -5.034146831593461,
      -0.09905590292310534
    ],
    []
  ]
}